Week,0,1,2,3,4,5,6
2010-12-27,-0.9999997776159153,0.9999999999639204,0.9999999999876447,0.9999994871594269,-0.2623286497740329,-0.21054039103764863,-0.5271307854590156
2011-01-03,0.9296600926055658,0.8351295782210232,0.8614135810166059,0.15784020820009248,-0.7901387709367589,-0.8015714971665773,-0.19233319193995133
2011-01-10,-0.04742635968465891,0.885188218054651,0.16623477496186415,-0.9830924370390385,0.1754822584723658,0.7149073689853918,0.08870617624942474
2011-01-18,0.6870745617001794,0.9999969073727434,0.9630701722630206,0.13042109857844578,-0.18527234303710843,-0.5952740399522128,-1.0
2011-01-24,-0.9999872715562846,0.3566551529856074,0.9999868828925575,0.1842603103162927,0.012331817333792953,0.9999953856059219,-0.5532469049372796
2011-01-31,0.9372483308722204,0.3063073640650463,0.9609199871364362,0.1796115821428492,-0.5365645604369266,0.12819340721983075,-0.975772781013321
2011-02-07,-0.19848058257768456,0.9764225371976935,1.0,0.37463123453277164,-0.3878092414445215,0.23528680937270957,-0.999999297832138
2011-02-14,0.4499256819306347,0.5065533751122173,-0.726342624663819,0.9999140053068811,-0.6181916726715351,0.9707574121185555,-0.5826367820967754
2011-02-22,0.948410756433031,0.9460251561291838,-0.9179674289901688,-0.020396537602726087,-0.2658952651210742,0.8015058394658559,-0.4916829778311672
2011-02-28,-0.40638811912603007,0.9571035400418267,0.36216484196141496,-0.974380249221293,0.26771243044143134,0.3119501361950937,0.48182464940029823
2011-03-07,0.12989342512843208,0.999015962100396,-0.642229469094815,-0.49762663254452094,-0.021570107556032714,0.9994811993540552,0.03303562261252239
2011-03-14,-0.04518381594530935,1.0,-1.0,-0.5234693972389334,0.05233865709978458,1.0,0.5163145550469886
2011-03-21,-0.17930707332987988,0.9999999999999998,1.0,-0.47259065894792185,-0.3481022677221988,-0.9999999999999993,1.0
2011-03-28,0.9905631933871656,0.9880523587730037,-0.4628286875785758,-0.14323153104014957,0.020668168079866482,-0.8657581039515981,0.4724620218009795
2011-04-04,0.6405766735654895,0.9936386269223808,-0.4872958532872416,-0.6760751298532021,0.4644194238955436,-0.935357788686976,0.9998179518076571
2011-04-11,0.5789520961895418,-0.5072867055593113,0.9999997749174722,-0.5509971993876471,-0.5112920190104838,-0.009381942470427063,1.0
2011-04-18,-0.24325476058678744,1.0,0.9999999997568992,-0.337934096469878,-0.35922020527941784,0.7629175527517813,-0.8225084916751485
2011-04-25,0.9484603664514678,0.8144039411289626,-0.06576085746685113,-0.8472198195530979,0.5449752533530402,-0.7716232025887653,0.37633557260984896
2011-05-02,0.5627099208415705,-0.3759463132599881,0.9990677322673511,0.3005656642539701,-0.28372835847401745,-0.9994687117137521,0.7979544877174243
2011-05-09,-0.7829262445991626,1.0,0.5232363265244813,-0.5945531352182393,0.8542430532929207,1.0,-1.0
2011-05-16,0.6380603421135161,0.9999791686989709,-0.929372021670215,-0.6230568368028804,0.12904532998555598,0.9999912466022598,-0.2146621094851893
2011-05-23,0.1317615037041968,-0.8015134861210669,0.9999796726372349,-0.09894071142096314,-0.47693290091988416,0.9999822973232135,0.24566358042415481
2011-05-31,-0.12450760463790429,0.9999998802508209,0.9999997156952537,-0.4233905308900517,-0.049489906079658044,-0.18845335584059875,-0.21417983500232535
2011-06-06,-0.17472349168500123,0.996812901548901,0.9106517870264991,-0.952281523897493,0.21253948423988878,-0.7625208105591569,0.7694564912472511
2011-06-13,0.1655132202026466,0.9998662474189507,0.034751883096234414,-0.2816878120061286,-0.520445932116305,0.9999976413898645,-0.3982340507018489
2011-06-20,-0.3165099725121445,-0.15944845064911095,0.9171103412297478,-0.05494521005228641,-0.40801814474502646,0.9872672192990416,0.03452298850149995
2011-06-27,0.33700987146450156,0.9998679562647682,0.999961812465123,-0.04578359258516939,-0.4825557752825501,-0.1068980562777138,-0.7016397470952566
2011-07-05,-0.7630028658820985,1.0,1.0,0.1392487586496703,0.32645011289370063,-1.0,0.2973039943378505
2011-07-11,-0.2099413224345389,0.9600779119722217,0.9131036243136569,-0.9505981603529344,0.6120850255609229,-0.13021525418766275,-0.19504930074476098
2011-07-18,0.533951154106925,0.5654607526892012,0.9339794334456638,0.2792364061037826,-0.734785489157451,0.37589160866160676,-0.9537338658497282
2011-07-25,-0.681597863080045,0.4591874844782791,0.7846148633310461,-0.984436865711056,0.6097881655618156,-0.16461308073969938,0.97647394193958
2011-08-01,-0.12407667175966616,0.9999999994443222,-0.15598304467751758,-0.9999999994469974,0.3720940164783486,0.9999999994916356,-0.0920342995301255
2011-08-08,-0.2854615225948437,0.9391024678747737,0.9913980057815468,-0.13253405372470342,-0.2592210000640217,-0.07200888150727057,-0.18127501576884403
2011-08-15,0.09132829364684088,0.983151388471212,0.7709356379665588,0.01942356473873462,-0.46134172625699515,-0.14628630105239313,-0.2572108573833351
2011-08-22,0.1560906374139741,0.9480377445300981,0.4493709127393795,0.5443163973597691,-0.9813022075741537,0.7067571599543874,-0.8233687657971169
2011-08-29,-0.15138029607379175,-0.5759517311829048,0.9982002103090899,-0.5662459784254178,-0.0005273395533451798,0.9999113583242849,0.2959937747164552
2011-09-06,-0.07953581856716126,0.9749792335699373,-0.5412665919481777,-0.9302155320251906,0.34985184078818415,0.9061409293907857,0.3200459387916227
2011-09-12,-0.39183194072209204,0.9999915290688747,0.9991345887522017,-0.999981393000748,0.7350072844500504,-0.3673505151318026,0.024995719007667182
2011-09-19,-0.42585379916500105,-0.9999999999995701,0.9999999999993759,-0.13030791322879196,1.0,0.9999999999993959,-0.4438382876054236
2011-09-26,-0.6872758222476704,0.270257330887559,0.9497171795683453,-0.9956015564385402,0.6224040453720929,0.12302523677693145,0.7175039645859431
2011-10-03,-0.12914914201435043,0.623201096893765,0.7059752092646036,0.12324979196866699,-0.6009385354387159,0.9231569116156255,-0.6454953327702149
2011-10-10,0.49340294087583714,-0.6862489026030856,0.7070612880878465,-0.8397913514215924,0.28258015024198335,0.866368972673543,0.17673488962734485
2011-10-17,0.3094944969310712,0.5545583498926647,0.9943490649788604,-0.23362422852168152,-0.2458340898378673,-0.6502984485410688,0.27127756228910627
2011-10-24,0.3390068672270368,0.7764976002987211,-0.9566781115296892,-0.9620304587837032,0.18543570932262238,0.9537298297840715,0.6640375780153273
2011-10-31,-0.29672003074843356,1.0,1.0,-1.0,0.48753047782397185,-0.922918092040068,0.7321076449640216
2011-11-07,0.9542351543555199,-0.9538563434667936,0.9212118709468816,-0.4914984807620148,-0.26444517549106517,0.3826012879731579,0.4517214539470833
2011-11-14,0.07273112129603224,0.9830832918126502,0.48145342581271894,-0.3984113977188125,-0.07004956910825748,-0.019358773762012983,-0.04944809833231842
2011-11-21,0.19840107262749435,0.9162735754365451,0.9775889160681301,0.5770807438528718,-0.7092084091447123,0.023657149948266683,-0.9838251753425544
2011-11-28,-0.5849603198888946,0.974880270440393,-0.6466627120111502,-0.9748392291859652,0.3691899755676426,0.9348000882338037,0.9275227772840057
2011-12-05,0.9024904995715128,0.4335777866126589,0.965953884602481,0.07921560624142458,-0.6328758519151879,-0.6696518403432258,-0.07871008476966353
2011-12-12,0.590405282566332,0.24182945102971742,0.862432402832999,-0.25198245949353143,-0.30474276423505164,-0.4526380581025159,0.3146961454020505
2011-12-19,0.9994490624453414,0.36203515544002524,0.999698317444546,-0.20495571080422129,-0.46968143535099655,-0.3585942138010173,-0.3282592536706068
2011-12-27,0.5426025897584076,0.5024340645522355,0.9998222664296172,0.28253933082569127,-0.6918199042995247,0.09015555232818973,-0.7257484577089196
2012-01-03,-0.40602883738816337,0.9842689257199161,0.9924217384519192,-0.9940520299595583,0.5667513567743697,-0.5879545491347838,0.4445873695841603
2012-01-09,-0.005070073813689332,0.4675069541075874,-0.24894692871938698,-0.9998078195225277,0.9999098124105215,0.9998695209147157,-0.21330949837533042
2012-01-17,-0.42368345621566494,0.9788238760967638,-0.6270870999491029,-0.7041268715142863,0.2145903885992495,0.9988639439454844,0.5625277747744116
2012-01-23,0.40043144868052444,0.9518903436042961,-0.007987293570077006,-0.9204201701384036,0.6954092207415291,-0.9999996177625052,0.88067671549435
2012-01-30,0.09185160894821495,-0.6445371528638676,0.9961649167112736,-0.47627643251678115,0.14454058756861277,0.9987884302328459,-0.11068047387013921
2012-02-06,0.06744986748576527,0.16244735506636532,0.999997708231136,-0.9512416083912644,0.8215991386449863,-0.5925050260536442,0.4922588389404582
2012-02-13,-0.36234714391582634,0.28830263670406464,0.5670345320016855,-0.6900486665175095,0.12157791274142038,0.999905438119592,0.07523595541549422
2012-02-21,0.3669860593471716,0.9835002707563825,0.9797932937374,0.5714444648417255,-0.7076862639144864,-0.30409856978545646,-0.8899392549827368
2012-02-27,-0.48206187622097046,0.9104220329548164,0.17692869917598653,0.61391036646298,-0.23339519953773105,0.9077483098845279,-0.8937128254672685
2012-03-05,0.0068470155881653885,-0.23785678417769232,-0.11047753658883118,-0.9999999999991046,0.34148730517975684,0.9999999999985824,0.9999999999991234
2012-03-12,-0.4202680448091879,0.08161148018332126,0.9998738857021102,-0.13570282243117435,-0.1074612312155182,0.9965146495144109,-0.4146371005191096
2012-03-19,0.667839007224049,0.7246422110521727,1.0,-0.5540992663926635,-0.03846939762888168,-1.0,0.2002733964550175
2012-03-26,0.5358811310040776,0.9805862187594568,0.8080595494253211,-0.7204874446176758,-0.2072010569369781,-0.9747727054245344,0.5779342930781844
2012-04-02,-0.9334992521977874,0.9999961133245687,0.25576425338738107,-0.5371228437185507,0.2335019666952173,0.9998309621560781,-0.018549896346575438
2012-04-09,-0.12858268450193672,0.9836728310975246,0.9970898325391182,-0.9748507573922054,0.14148959788675783,-0.5234415368126877,0.5045929974946656
2012-04-16,0.7281578121078749,-0.324665916840978,0.87218018437551,0.058603661832494165,-0.9515885201863999,-0.23640153884084603,0.8537143175523448
2012-04-23,0.83786349145475,-0.3687359462631373,-0.9786672364336276,0.966933808887262,-0.6553224786536606,0.9062518400904712,0.2916586837256895
2012-04-30,0.40145587907409014,-0.5855631029434468,0.9999973835217983,-0.3553392637521623,-0.20235459706385678,-0.25819349018256393,0.9999971913461413
2012-05-07,-0.2721588492866743,0.9999999928300323,1.0,0.2451708800282464,-0.6090103202894322,0.6359982808617023,-0.9999999999999984
2012-05-14,-0.9871097281769733,0.9924376784071784,0.6500097579053996,-0.8117116877455118,0.06960837455012953,0.6463495634741983,0.4404918390083653
2012-05-21,0.3827030383110354,0.9273745727792839,-0.12339697830219933,-1.0,-0.18504516093590523,1.0,-0.0016354897953749943
2012-05-29,-0.09702044123308841,0.9564147963607169,-0.18893419337921488,-0.6650993920950433,0.15945633306442966,0.967179490733805,-0.13209473400918223
2012-06-04,0.45402798327604005,0.6113210450876687,0.9854484864461057,-0.38204955724765377,-0.1457687212762206,-0.8441323551249075,0.3211531174257582
2012-06-11,0.047007330436890656,0.9999999999984232,-0.9491573492264314,-0.890191313521542,0.3149305060265917,0.7485128189820229,0.7288980073040451
2012-06-18,0.3031869971803051,1.0,1.0,0.16358328761137172,-0.406737185808004,-1.0,-0.06003309898368096
2012-06-25,0.3662243755451521,-0.994293746256592,0.5589119176956221,-0.9967142995416083,0.32996934789509225,0.7537514613411871,0.982419061852439
2012-07-02,0.9999431165540321,0.9766044941840802,0.2631989650176172,0.1671961619266515,-0.6201643710073059,-0.6065491645255371,-0.18025388492054747
2012-07-09,0.028650427130119536,0.9999981269757957,0.9983185315878196,0.562245150970724,-0.8475375137021225,0.25765982190893494,-0.9993721961864929
2012-07-16,-0.19619594993288403,0.9990157158367695,0.9899857987730476,-0.10064617464763383,-0.3623717062764303,-0.12616581012127412,-0.20363779801160642
2012-07-23,-0.3353754013107209,0.8597651662014902,0.5760009872234843,-0.9645286425791203,0.11255217684370891,0.8270023808569814,-0.0753989001644721
2012-07-30,0.21672794444033924,-0.09688503138726262,0.9995969848861225,-0.24323385376589862,-0.3640768783191373,0.727087749933186,-0.23921691578724863
2012-08-06,0.10288088288919048,1.0,0.9425086717171146,-0.2635956055300604,-0.16872864754837535,0.30280725162348127,-0.9158725531513551
2012-08-13,0.030768019383989115,0.9999518125573945,0.9999976213539291,0.1938760853444339,-0.0682901657581571,-0.6625813396899489,-0.4937488893153185
2012-08-20,-0.38844412584909116,0.9999999999912834,-1.0,-0.9839605767429982,0.7073592983085231,0.6650454042932821,0.9999999999997906
2012-08-27,-0.3979905341899173,0.35998937738300835,0.983079397968523,-0.9196274621321948,0.2922127607653073,0.550872910410253,0.13146446636387646
2012-09-04,0.20407241823291347,0.9999999988321594,1.0,-0.9999999995207244,0.06664189966706628,0.11451469249426686,-0.3852290116642731
2012-09-10,0.27044198727962,-0.9197497852461185,0.9399824154046574,-0.33284955171429564,-0.25657190177821054,0.9868700654055872,0.3118386397369873
2012-09-17,0.19019921436696133,-0.8042699606631187,0.5174113237607307,-0.5633436058203073,-0.11602653503112888,0.8550517684323947,0.9209777934334132
2012-09-24,-0.28430921653217306,-0.048572435455856634,0.6176159157674028,0.9933200976229544,0.8171599683456965,-0.09830672034408885,-0.9969314721806558
2012-10-01,0.20369764593028647,0.9843157264613821,0.9667241032865935,0.25163718509217875,-0.5693637800324689,-0.1546314992765779,-0.6824813924291594
2012-10-08,-0.5794762170458111,0.9999999992861446,-0.29066590091297884,-0.9999999976601673,0.3189445209494783,0.6682764260374463,0.8829211699850757
2012-10-15,0.9894675556320497,0.9404630143768364,0.7689511522317045,-0.8787685946022867,-0.2898575175262443,-0.3480365380340753,-0.18222417609491684
2012-10-22,-0.08799557279804085,0.9618875378753201,0.9813014438794899,0.07983348693211943,-0.41554877127373335,-0.9586748646753073,0.43904780201246557
2012-10-31,0.20868295768257195,0.9999930730404086,-0.8587694450388299,-0.8155750543170617,0.4440020718851953,0.02171557164406401,0.9998541383530354
2012-11-05,0.6306817452331184,-0.9820088819346392,0.4543678791628555,0.890106850921375,-0.9780215683931126,0.657890034162097,0.32444689417168415
2012-11-12,0.8883406497089663,0.990679379237624,0.9998842898262322,-0.3561546507142031,-0.2181589345316745,-0.7229588823744767,-0.5816633543001435
2012-11-19,0.3689028850316012,0.9999999999999997,-1.0,-0.36031804839246934,-1.0,0.9914151633608689,0.9999999999999999
2012-11-26,0.9943290652621763,0.9076784742818518,-0.5894093148212666,-0.9965198082282082,0.7281343861061923,0.9500494997947498,-0.9942624353956168
2012-12-03,0.10548691920703404,0.9999486488101142,0.9999486488101142,0.0008082041438346365,-0.3944003665500456,-0.17908401371339625,-0.5328974269266396
2012-12-10,-0.49169739135164575,-0.8583288783014242,0.9568325895407201,-0.3461848596563468,-0.04458390955209365,0.7858516156708659,0.9976309332332985
2012-12-17,0.04763357314886085,0.9330983500879585,0.8774989048672757,-0.27338107029383235,-0.3122419729750324,-0.9980618967115557,0.7254676822014471
2012-12-24,0.9999999998455085,-0.999999999617124,0.9999999988823978,0.31894703584056033,-0.7296016486067903,0.6681091557027026,-0.2574545420472547
2012-12-31,-0.3873976200257283,0.8851156629725497,0.9790260927508261,-0.0711262578577881,-0.9878254090817771,0.9142286619959754,-0.33208055584001395
2013-01-07,0.9999999651721858,-0.756833903040323,-0.6820925561880224,-0.9999999651721858,0.5025299157393357,0.936396492995677,0.9999999651721858
2013-01-14,-0.8780876926801402,-0.646186081902209,1.0,-0.7455175509712569,0.9999999999999997,0.9999999999999998,0.26979132555359725
2013-01-22,0.4293748145497194,0.9702099707484937,-0.984297635893976,-0.34554812799261964,0.40959359809071616,-0.17604471860844043,0.6967114581359266
2013-01-28,0.4218255863400614,-0.8447306503290145,0.9585940926275964,0.6623756485692812,-0.3752927758096241,-0.40020367516944494,0.5772046963012223
2013-02-04,-0.6611050355488528,0.7689693777427403,0.2466225202639494,-0.9093509276943632,0.35420884564737937,0.20096780167228295,0.999508691188967
2013-02-11,-0.3458635572681319,0.9999999999798959,0.9999999999093345,-0.0032949124979895915,-0.36810215000936175,0.7172606197780944,-0.9999999998918419
2013-02-19,0.06617499699339066,0.8272282538166085,-0.05475361797433291,-0.9998130453343873,0.16089040976907162,0.5303855124278628,0.4698874903017101
2013-02-25,0.1300482981046085,0.9988559965367234,0.48739673203147693,-0.649646223066622,-0.03501655798028454,-0.9277840690219804,0.9961458233960782
2013-03-04,0.8531921671564305,0.31738388635455234,0.8915675641815143,-0.4543662215637048,0.46566932229346625,-0.09145906914265556,-0.9819877419225241
2013-03-11,-0.5376354374779331,-0.34069606245495465,0.99347082085883,-0.2846871636028155,-0.045875252652611026,0.7277379404214613,0.4876665273892053
2013-03-18,-1.0,1.0,0.6427950360910413,0.005190236200482206,-0.9612024153880449,0.31321714308862414,1.0
2013-03-25,0.24873657116018486,1.0,1.0,0.21485659707125676,-0.4975777876438972,0.03398454924289792,-0.9999999916125925
2013-04-01,0.27492943914376194,0.999881318063215,0.1550611146133869,0.09139079319410216,-0.750919062519282,0.9969282491912481,-0.7676269909681241
2013-04-08,-0.5720502546435885,0.9999999999999992,-0.4444076184948279,-0.7825473176078768,-0.20099480925370472,0.9999999999999998,0.999999999999999
2013-04-15,0.1470110399533237,0.9194992319129351,-0.4316632700963108,-0.7483827821061348,0.1781755619733614,0.025121133772207937,0.9102111590415018
2013-04-22,-0.9998513127151992,-0.27176194132679277,0.9231790271400963,-0.3465959906512553,-0.11998024838996262,0.8151919958329364,0.9993736787154994
2013-04-29,-0.18086531743089013,-0.4287943946946853,0.9997880097814853,-0.10965106189435199,-0.2005075413543098,0.999951064706642,-0.07999936662949532
2013-05-06,-0.12713048303787375,0.9958733386921579,0.32995410838859013,-0.4939230094352357,0.08624851679375017,0.9999489128760866,-0.7912555351328036
2013-05-13,-0.8634950322480281,0.5938640010934075,0.8412197431882146,0.28309874093216925,0.30864551030759774,0.8335745598862012,-0.9969073322377243
2013-05-20,0.4903369141079157,0.0892585719099938,0.42228873354427915,-0.6689426020588812,0.06860099796880452,-0.32610768743547397,0.9245650719633622
2013-05-28,0.1993178277935078,0.32644884119696727,-0.14226950770988683,-0.9913863442585416,-0.1983679152213967,0.8416577758821918,0.9640321182993339
2013-06-03,-0.21053869411667253,-0.9766176777088089,0.7911070829624234,-0.9665044246677216,0.5004412987871582,0.8899339293020707,0.972138431459283
2013-06-10,-0.13065584783927525,0.8654604776583228,-0.09160859254156688,-0.49213524094316113,-0.16462436639840256,0.945870305277973,0.0676932647861101
2013-06-17,-0.1040009667019629,0.9999982588644756,0.9999894382602794,-0.3730289911074406,0.055463665757772736,0.030194364835241183,-0.6086823611924527
2013-06-24,0.3215401107125143,-0.8665485807865296,0.5742675683835261,0.10071501094250655,-0.5930565313144073,0.6972055560758403,0.7658768659865498
2013-07-01,-0.9999945776273547,0.9991750518375929,-0.19568385494601598,-0.595389078038666,0.013552291747241969,0.8846871703780823,0.8934862563000407
2013-07-08,-0.9997409507776717,0.4937598755042165,0.9496694809779338,0.16215671304165846,-0.23168307255364964,0.9999206553624852,-0.3741330839745988
2013-07-15,0.9357780975334095,0.9916318214815819,0.8872948057149209,-0.026355135136513136,-0.34276745886126325,-0.4626502487939222,-0.9830096226777579
2013-07-22,0.2276020386335338,0.989724022476329,0.999892618725891,-0.1270422042084598,-0.6299987715987392,-0.7295683958617372,0.26937131367945155
2013-07-29,0.11559319450331032,-0.46101251857963477,0.3116074983589683,-0.48955724306817733,-0.11540669707367392,0.9868221489191908,0.651953500626608
2013-08-05,-0.13480721935448556,0.9999999999999998,0.18536633346491246,-0.6873101104960815,0.9999999999999999,0.6367509963856549,-1.0
2013-08-12,0.8065505044039929,1.0,0.8935593660433718,-0.9999999999999775,0.21577359302837745,0.0841165365241925,-0.9999999999999846
2013-08-19,-0.08448332943355509,0.26737733856104073,-0.1750534381326696,-0.9707057735584084,0.34744037127220484,0.6205727090125589,0.9948525972956339
2013-08-26,0.8052998230076766,-0.6112413479735468,0.1887932887771008,-0.8847896708372281,0.32554532257858343,0.17640714702732235,0.9999787907639223
2013-09-03,-0.36777014600975144,0.9645291392876051,0.010177363054350163,-0.6581388603170268,0.16038102295425818,0.9758333083984437,-0.08506873520076326
2013-09-09,0.2532097350748117,0.9999548383331652,0.3719050043538664,0.9986954076722024,-0.9453419939240912,-0.9999395304949057,0.3213980898835489
2013-09-16,-0.3963776873300486,0.2898473112096054,0.9979244155186069,0.3230236266921439,-0.4327584383057804,0.9465493125543872,-0.7282554330923355
2013-09-23,0.9999999999999903,0.2545109637008355,-0.9999999999999732,0.06967507665208277,-0.4450117820218723,0.9999999999999963,0.12082574166894054
2013-09-30,0.294618619291065,-0.25886681479232365,0.9998516364815672,-0.9998515484312512,0.14294723219666752,0.5191555165801872,0.30199862533382904
2013-10-07,-0.25214050296637935,0.9669812261543391,0.1663079998533435,-0.827186634114653,0.39209757545045093,-0.38703379290176915,0.9409481075046824
2013-10-14,-0.9982918961559375,0.9566230480799762,0.7667082032064979,-0.5914157559993285,0.5079623277611175,-0.2617815877881948,0.6199367709545324
2013-10-21,0.1899104505219575,0.9502099010831191,-0.9951375668512563,-0.9461378541624376,0.4182786167840047,0.6040674579081905,0.7788594346352977
2013-10-28,-0.6110362780733768,0.9826790227127213,0.6386710769443228,-0.9908351805698824,0.03268547753354953,0.7764749007534048,0.17136918203741167
2013-11-04,-0.2574233912737836,0.15156708402424413,0.9202573072053019,-0.22771867102237336,-0.9527222736280914,0.8354103290704428,0.5291524235708313
2013-11-11,0.9839778233267584,0.9949053346884873,0.30625367317925284,-0.0208771382814673,-0.525758539103793,-0.5126878172366294,-0.22581333657260846
2013-11-18,-0.40801102604990824,0.9999919136874311,-0.06193676529280022,-0.3787056778738704,-0.11443182100597332,0.9999740191456806,-0.036935302690000886
2013-11-25,-0.8311918032627867,0.9993448168423367,0.9992277249762186,-0.6509739868569347,0.3203300575762497,0.28322655895977833,-0.11996336823532754
2013-12-02,-0.5436027315296498,-0.5504912422209166,0.25874028958588846,-0.9597536207214723,0.9995973099602128,0.9997525128050546,0.7954633084799809
2013-12-09,-0.5578966292604989,0.70687401372123,0.26685056192019685,-0.9999657166868974,0.7094872221989634,0.4641381959875633,0.41050531060567896
2013-12-16,-0.22812832629169474,0.0748771741514856,-0.01938465799671158,-0.9993656080378721,0.49535795008623223,0.6772342938276068,0.9994536450254965
2013-12-23,0.7842918986657104,0.710762104010807,-0.06731166184963924,-0.10469452612540989,-0.12675930447724182,0.7340495874594996,-0.9303382316287936
2013-12-30,-0.41005621766107564,0.9979221156402556,-0.16155508817644074,0.5515425787695892,0.02057762893169743,-0.9968034243545842,0.9974823775455315
2014-01-06,0.02233335422198381,0.10770435025450094,-0.9977229079468046,-0.43146125208907277,0.30311023402444714,0.9981194754957317,0.9978978791496695
2014-01-13,-0.3417769323799381,0.9895172655227387,0.9997891605374185,-0.1463797136663378,-0.1466641457403508,-0.5081181852369022,0.1536405810126199
2014-01-21,0.4837653604424538,0.996830737480256,-0.4430195975051671,-0.9997616814788376,0.19086404062500378,-0.05331988931655902,0.8246237331386499
2014-01-27,0.9967565994623969,0.9999914836664563,-0.846943757920555,-0.9976462491707939,0.2820806760137896,0.8780764738376742,-0.3123149845928833
2014-02-03,0.32103113995408356,0.6168142203892871,0.20613729663840255,-0.944349125726139,-0.07745089200122318,0.7279307670292943,0.14988667631402758
2014-02-10,0.25449770850967096,-0.6667626735720548,0.7760860229432378,-0.8892430542439593,0.22574221116522808,0.9985302585977288,0.3011289862682416
2014-02-18,-0.17334644151830686,0.9909240371873649,0.4902044690405085,-0.5595707009240913,0.24783746685859306,0.9927574171155175,-0.9888679138406988
2014-02-24,0.998420986433913,0.99969083139543,-0.9915502697027746,-0.01037495023879445,-0.9367702726341558,0.9876710665754619,-0.0471013139800737
2014-03-03,0.49484595379330737,-0.546428526189427,-0.12227613875859912,0.8680137681446887,-0.5123838632104096,0.6478901778657775,0.17031649105489638
2014-03-10,0.999999999699422,0.9999999985687301,0.2778418997860429,-0.2459084502833415,-0.7294066066766874,-0.9999999924255022,0.6974731513313357
2014-03-17,-0.04608636331677754,0.9860061169591068,-0.3932127621113285,-0.9985633075093193,0.32906930327383993,0.7066257342584268,0.4161613104177836
2014-03-24,0.38429177867444786,1.0,1.0,-0.3787340782772585,-0.2889511022724902,-1.0,0.28339319161349436
2014-03-31,-0.004255063189559349,0.9983490532897583,0.9956522736386146,-0.43953475012046644,-0.1512263582253942,0.33130943234339333,-0.730758533469174
2014-04-07,0.013490457614345064,0.6412980728482163,0.9994550918925212,0.20401082831793424,-0.45325992902238244,0.5939470346776193,-0.9988348639268488
2014-04-14,-0.44749360716178527,0.9999999999996676,1.0,-0.2750741882668863,-0.053677324408546584,0.7762451198301142,-1.0
2014-04-21,-0.37895912208235133,0.9999943611103337,-0.9984336582467334,0.018692547305655314,-0.1235931380649885,0.9999113928960915,0.48238761708199257
2014-04-28,-0.3191892739601108,0.9838805988327313,0.16527685307875864,0.15318410443911884,0.1363329212443412,-0.9789432751314605,0.8594580714966213
2014-05-05,-0.5461577811832974,0.7217156204030808,-0.710877755468633,-0.8277740373077865,0.9530390882109163,0.9941366725146054,0.41591666545866535
2014-05-12,-0.024976766543396416,0.7320452519881053,0.44237576997389627,0.27941769422600427,-0.5486579947465757,0.9990352899698757,-0.8793272871160079
2014-05-19,-0.49886506651186174,0.9999717400339015,0.9322428560143847,-0.9999882049945867,0.5596153318078724,-0.4801211508141323,0.48709816038346704
2014-05-27,0.2814298744227378,0.9991783134040239,-0.4462426210579889,-0.7837034319966008,-0.09115643707423378,0.9991649474792998,0.04117499808142739
2014-06-02,0.1879931405233528,0.999999999999336,-0.9992122617908525,0.4179354909749185,-0.3277681429635885,-0.27860435881537027,0.9996561309908801
2014-06-09,-1.0,1.0,-0.6186685495124767,-0.2716111807215586,0.5236708391872812,0.3666088913141886,1.0
2014-06-16,0.37107218719081847,0.7631874901927839,0.9305482979407224,-0.5472896860640982,0.024915994809215178,-0.9073718196260631,0.3648869010917672
2014-06-23,-0.7336634159613838,1.0,-0.9999999999999998,1.0,-0.3403809995637939,0.9500180108608388,0.12402640466433891
2014-06-30,-0.04790449057776359,0.9803325555218146,0.7733003335530244,-0.4143942040214085,-0.26352737205434035,0.5304264226705011,-0.5583602869325499
2014-07-07,-0.8005041703258916,0.9999493379659684,0.9997704003338119,-0.999922990970353,0.7233053235346049,-0.6222456417620691,0.6997514059374896
2014-07-14,0.43829510657152787,0.44137138099288875,0.9999999719080499,-0.9999999779801471,-0.331188284717437,0.9096067042079455,-0.4580849009828278
2014-07-21,0.12294347360142227,0.8975121273186653,0.9198938965831636,-0.9544697060397676,0.17449695969373358,-0.31088534184418704,0.15042541272245746
2014-07-28,0.9956592145535477,0.9511580100917788,0.7491984216012925,-0.8374243486002708,0.4038766845801581,-0.8456632598245727,-0.4167600187392274
2014-08-04,0.19359542958225995,0.8022010646582246,0.47536702283917825,-0.4002403261571459,-0.07513343633546628,0.999294977415344,-0.995225254017005
2014-08-11,0.23690556231084198,0.46367411646194306,-0.7657189946607906,-0.45868328974966055,-0.2181404517436021,0.9246025296040032,0.8173074414007612
2014-08-18,-0.67097058134269,-0.8469841493806551,0.9890736835702922,-0.9899927982779302,0.8391376366482084,0.8896035919278844,0.7898562120152661
2014-08-25,-0.9037260313640338,0.6860468012954598,-0.23668032265409245,-0.9851122675308664,0.7383725264461066,0.9569974930460114,0.7428983356536913
2014-09-02,-0.916142683494949,1.0,1.0,-0.015204329251939477,1.0,-0.06865298725311178,-1.0
2014-09-08,0.7840572095913554,-0.9450752057116307,0.9944489887374194,0.5076723367777861,-0.9101192757103634,0.9862718577796831,-0.4177124925692154
2014-09-15,-0.4799868498240814,0.2071154271348461,0.968296902597126,-0.4541313822146422,-0.07982733050998012,-0.11970067573690259,0.9582125164385059
2014-09-22,-1.0,-0.033937604669768646,-0.9999999999999912,1.0,0.21501954475890397,0.9999999999999939,0.8189180599108624
2014-09-29,-0.4460899058539753,1.0,0.6632419663044546,-1.0,0.28280672111986954,1.0,-0.49995878301052676
2014-10-06,-0.8583578744128715,-0.0073319079299341075,0.9265202995288125,-0.9757594196103775,0.45173890209831213,0.6481339188442596,0.8150554548865367
2014-10-13,-0.32096726705975914,0.6601758345987253,0.8522568240386726,-0.33512333227880714,-0.14298750310092898,0.448628247511712,-0.16198280370961485
2014-10-20,0.3860283685222969,0.9419299186172132,0.9719702155086116,0.5954104949546939,-0.9581151409446942,-0.916420566884831,-0.02080129086847631
2014-10-27,-0.9801363521967942,0.9944853888599456,0.8813988884351536,-0.4127046502109176,0.08702389846748185,0.5604143492187206,-0.130481718869134
2014-11-03,-0.13767827863284704,-0.7405175645378533,0.4308206526418183,-0.004711698426836567,-0.1882552426458134,0.9848500758259952,0.6554820002127849
2014-11-10,0.3520896640571742,0.9994497558652417,-0.9629112538999682,0.07273801619012771,0.3837781485016643,-0.8449916437139464,0.9996460015513082
2014-11-17,0.3162429001001042,-0.9641257576842354,-0.5186582038341695,-0.5256016331743415,0.927746923852722,0.8468291641559246,0.917623261870701
2014-11-24,-0.7107629406537987,0.6454633942650365,0.9656656121289787,0.4171170085003681,-0.13828304903996028,0.7737703933692093,-0.9530082584179455
2014-12-01,0.95902997222186,0.9388303631120755,0.20352140714974676,-0.5978853849166562,0.4759666315089568,0.020795860985842657,-1.0
2014-12-08,0.18930987940193938,0.6783763075740755,0.999852918769483,-0.10213517551727247,-0.3487003988974267,-0.9997951279639087,0.5830920782679148
2014-12-15,0.9293577094577333,-0.053901386126147866,-0.588341314610084,0.1072345699723303,-0.5870328715995085,0.4836727995214552,0.7088812882374855
2014-12-22,0.814996429790663,0.7136375954648689,0.998936744527418,0.47286332809641357,-0.8557956781000772,-0.14967492711241784,-0.9951678062018604
2014-12-29,0.3587039311234907,0.9998882396165165,-0.8551906823844597,0.5013047308334856,0.0008175385070487406,-0.9686831487511094,0.9631085771835441
2015-01-05,0.3753316119186393,0.999746143093647,-0.14352524153501023,0.5593171420549492,-0.9994162031011011,0.42009105770336835,-0.21148871766085728
2015-01-12,0.33618439565154773,0.9996337361388601,0.025859815131795423,-0.6133395519385157,0.12399272663348218,0.9989675787834349,-0.8712631150452325
2015-01-20,-0.3712381829200159,0.9851115686308729,0.8954796647465091,-0.17378410305158454,-0.2413273609268555,0.9054369753101323,-0.9999742851398572
2015-01-26,0.9981332748331687,0.9999569989694954,0.2141390363151855,-0.14776665926042662,0.20368884282720168,-0.2775767739764199,-0.9906210927949658
2015-02-02,-0.17567790703384595,0.9990154806230227,-0.4078108545622471,-0.825781160017189,0.2730008446697152,0.9999982123084682,0.13719405991049538
2015-02-09,0.3438611944668204,-0.9736679551800815,0.9705066632566275,-0.3292821258598528,0.10759112563097813,-0.09001046559790994,0.970989398763623
2015-02-17,0.3576722423252856,0.5557300558197928,0.963057286545089,-0.999687419107425,0.2954593710707388,-0.38145923446817726,0.2092281923834843
2015-02-23,0.2998619501908426,0.9473477841334954,0.9999993453172966,0.0622350870258029,-0.054414894529341035,-0.9999703282405056,-0.2550442807054281
2015-03-02,-0.5230434340200845,-0.1497561442308077,0.3493294217603322,-0.9223038523696099,0.3833880345253504,0.9973715875652244,0.865014436632912
2015-03-09,0.982558125893268,0.913735597999141,-0.14718852303763827,-0.33856690383917276,-0.3290158207407606,0.867544360777,-0.9490918138279267
2015-03-16,-0.8295775373688421,0.8876828662682269,0.024911804586285436,-0.9636363677682019,0.14784197301746513,0.9423249372956657,0.7901687416149898
2015-03-23,0.9921634070667507,-0.9948029067163786,0.5202525391526752,-0.5391858226931064,0.9939052342559974,0.020398909641562765,0.007268639292499112
2015-03-30,-0.6146562488502157,0.9620914503247718,0.7428481653533021,-0.7474454796841744,-0.005286121496687514,0.9913739466126943,-0.32892654958067397
2015-04-06,-0.48514719920881616,-0.5532418561813353,0.6302543407169089,-1.0,0.4081347089305365,1.0,1.0
2015-04-13,0.7094616210972288,0.9639646643814077,-0.24285240363271682,0.14211863010927464,-0.34592370270542017,-0.9268230493786254,0.7000491609184477
2015-04-20,0.9878243084051338,0.3074951550911936,0.9838461355735437,0.541470711202289,-0.9393794789112739,-0.9424424223674323,0.061035723744806016
2015-04-27,1.0,0.999946775227493,0.6040401691804135,-0.17157078064391879,-0.5231388006996377,0.06369076345328377,-0.972974858884084
2015-05-04,-0.6562904381253721,1.0,0.9999591481619506,-0.8427133731301151,0.031116208076684446,0.6625072395394841,-0.194595119087291
2015-05-11,0.41547811947603275,-0.5390446894784536,0.653913284516321,0.17522706836286936,-0.5583568055032193,0.8952839056588314,-0.0425008830323819
2015-05-18,-0.25983975052663705,0.9993410222394049,0.9997044549831307,-0.802522680922179,0.10959250432666323,0.4203259143105087,-0.46660338062601037
2015-05-26,-0.2786994988126305,0.9999934284212048,0.10978707154420317,-0.9999970827717921,0.38577080406459213,0.6502701067912184,0.1328561151059787
2015-06-01,-0.35690931224509215,0.9962719204978651,0.9964620352017588,-0.5814540486149782,-0.28611857289514475,-0.7580759040858885,0.9897861112963176
2015-06-08,0.34292784113698727,0.3616880984560633,0.120258139566355,-0.8206902289289297,0.19198268328377788,0.999947569955827,-0.19623321668678667
2015-06-15,0.5949922515847761,0.8529414041285788,-0.9992916650686225,0.3713991643142564,-0.5610244976661085,-0.25928166665376806,0.9993016610126632
2015-06-22,-0.6732490475071088,0.999999999975946,0.9999999999879778,-0.6261044127749432,0.06650741836996286,0.9999999999916311,-0.7671550711426491
2015-06-29,-0.1721061360582961,0.3800727785166062,0.025168868499342717,-0.8151517558814823,0.24995284454229263,0.8957881179766097,0.43627280819459324
2015-07-06,0.0632335798411876,-0.4420986124096737,0.880655327773788,-0.8754615210642552,0.2391194291725827,0.9595595057730268,0.17499229091334367
2015-07-13,0.07281889238652656,0.9999436299978519,-0.16689679926586454,-0.7867071453970336,0.18823817056530412,0.9999999472438047,-0.30742551854130074
2015-07-20,-0.34304720730738886,0.9999999951466199,0.9999999817769075,0.04343097056635729,-0.00960404388839509,-0.9999999975155076,0.30922030122140687
2015-07-27,0.14648437410631912,0.8543681631989309,0.6925504054563667,-0.5177786936036751,-0.2547441822594768,-0.8900147895147947,0.9691298681331725
2015-08-03,-0.5646284150640425,0.9976724186511025,0.5724612378833277,-0.616119680226238,0.1265631126940138,0.9728255262504681,-0.4887795478502881
2015-08-10,0.10479595672377916,0.9852869490324306,-0.4221581019462019,-0.5878355252282627,0.09632843195204048,-0.17620273242530962,0.9996560743632019
2015-08-17,-0.9999999945292622,0.6997689696101851,0.7353489383987583,-0.5007680812803231,-0.13986600848177083,0.9999999950530667,0.20551618122934603
2015-08-24,-0.6216187612868466,0.8319173205187246,0.7301998498461334,-0.40346157171714253,-0.12534313711416328,0.9742443825242932,-0.3859533188148066
2015-08-31,0.47122188115675007,0.9746578647149269,0.4567866936339383,-0.41757836747139226,-0.13770386189541522,-0.8506469717894001,0.5032598483937396
2015-09-08,0.46278156189956043,-0.08108703082662942,0.9900728318852283,0.00660650678888996,-0.44563790455977415,0.9999484922248848,-0.9335146852086732
2015-09-14,-0.04240631547142938,0.788849816122448,-0.19027631685909857,-0.9135303831525425,0.47218821548810075,0.975751731437504,-0.09070924497814972
2015-09-21,0.6406274532743541,0.6823898741039772,0.2008467618191828,-0.9672973861260148,0.49162195754343924,-0.39464701414882136,0.34645835353388277
2015-09-28,-0.20582548702194137,0.8285904915425557,0.988360706143686,-0.532986828380619,-0.2149840734733021,0.32396134125513826,-0.18712806952429142
2015-10-05,0.6619953898605689,0.9999900863394349,-0.9985789258356912,-0.40937065984968135,-0.2923381499821445,0.9999854543590967,0.03831680510841659
2015-10-12,0.5166696582503802,0.9999999996894654,0.9999999999479134,0.27966203322882893,-0.7588586578220612,-0.037473033395232315,-0.9999999998992943
2015-10-19,0.9996134894632758,-0.43606107153492785,0.41978189920624637,-0.9997624649351693,0.45724598643020503,-0.12091020349113392,0.6800923596890419
2015-10-26,-0.4359762500340968,0.336180434728294,-0.40406790529080444,-0.887845166586493,0.4847097309343006,0.9666583648945343,0.940207185055446
2015-11-02,-0.34235129923027535,0.9980165942445978,0.29807956896121507,-0.17627756375762477,0.40130002588952,0.8154222144852695,-0.9941895405927023
2015-11-09,0.45971904573492667,-0.7723170171746159,0.7218356571890253,-0.20026698485320096,0.1600379004645899,0.6624795235168685,-0.03143706737475662
2015-11-16,-0.18850225630403306,0.9213821564549838,-0.17374089493050696,-0.7590318582239124,0.2410127931924367,0.08969719187774115,0.8690922410827499
2015-11-23,0.9462845309760626,1.0,0.9999999999997249,-0.7939823447665857,0.46802727999143656,-0.9999999999994017,-0.6203294662016273
2015-11-30,-0.2334037408233977,0.8925142291445303,-0.38010476434415086,-0.04251275878383132,-0.3248821122656628,0.1656257728976319,0.9226263130997778
2015-12-07,0.507920535280083,-0.9932646787424629,0.9987993736917705,0.04853772709346218,-0.4434151698870079,0.7908516142314058,0.09057058930421899
2015-12-14,-0.19815309541330223,0.99999999999984,0.9999999999918634,-0.07420787040164241,-0.3550233858955038,0.6273843517185761,-0.999999999999831
2015-12-21,0.9999706554087724,0.9646339275155562,0.03232364976619327,0.11603891656902794,-0.5841247165591238,-0.28811068229739684,-0.24135409516612016
2015-12-28,0.8808354808595041,-0.07937519076769262,0.45220223702726925,-0.2570572749386613,-0.010222835239798084,-0.9863563922735941,0.9999995374477405
2016-01-04,0.33961412502140653,0.9671986377192758,0.2021973748888645,-0.9869769739729903,0.3075926311817852,-0.8145001605535339,0.9848675744934271
2016-01-11,0.6701504178112998,0.9234589592514224,0.956091425198284,0.0026630548820854335,-0.5434596886445542,-0.37676844600867176,-0.6321357224898659
2016-01-19,-0.06049905027730928,0.9999941833210576,0.851421651731132,0.35035826813485205,-0.597339623361888,0.4546423136268309,-0.9985804268462358
2016-01-25,0.9907114597432489,-0.4293045487089135,-0.9835767415109635,-0.6387401743179616,0.38221929739509325,0.9850725812524795,0.6936119119473487
2016-02-01,0.4312929841954616,0.1900250561224664,0.94577353772349,0.4974626260311504,-0.8084538130483251,0.595086423358649,-0.85117506955038
2016-02-08,0.7325862561651041,-0.3663619202323874,0.9765683120195852,0.6257509441398413,-0.9999987660998837,0.30942902491205565,-0.27797385090431515
2016-02-16,0.17091694823519482,0.9995831278696992,0.056363927913719254,-0.6904637389992976,-0.11969203191194841,0.16854302398432028,0.4147487429083125
2016-02-22,0.9748760338240351,-0.4232493309652532,0.901459230015702,-0.22437243151889463,-0.5454323424027726,0.8538979433994004,-0.5372496440247351
2016-02-29,-0.5763596883362901,-0.07138669414471577,0.5790407288486142,-0.9974912988780265,0.3636647074521706,0.9958491786801147,0.7066830663781327
2016-03-07,0.951606717325456,-0.713425362766993,0.1352438712008455,-0.17912238249898518,-0.2734186489197218,0.14651075117541945,0.9326050702878731
2016-03-14,0.5399332102509871,0.7574521870347735,0.8177382413540628,0.4500536710377862,-0.7059394603915142,0.0957704944683316,-0.9550083437544269
2016-03-21,-0.2886649400140354,-0.2906830317715845,-0.2805633857747079,-0.29335542754510807,0.47056459860329436,0.7438513897618902,0.9384338183240533
2016-03-28,0.6870327957861304,0.9991932129896746,0.9999803130243153,-0.7638113562696912,-0.06862018680365296,-0.9927329961584398,0.13901240995386674
2016-04-04,-0.341619415372251,0.47409052201796653,0.2998368146902638,-0.8805361929510207,0.3356644367301466,0.9930765041798614,0.11948733070503345
2016-04-11,1.0,0.9999999998657042,0.9999999986390766,0.023917689874812215,-0.4943871760521061,-0.8219065037318148,-0.7076240098919273
2016-04-18,0.9872001936784023,0.5654289624418061,-0.07403056891860602,0.14531664317396897,-0.9011135435884566,0.05729920655850167,0.21989689153096106
2016-04-25,-0.512576373219402,0.967270201957937,-0.978225962218265,-0.9946227987396046,0.5637614685963982,0.9957419566640997,0.9586517940491937
2016-05-02,-0.3471695863303583,0.04245580331490047,0.981835514988605,-0.5187963449200554,-0.4906470852765019,0.999999990271148,0.33224649228714204
2016-05-09,-0.4563655046717175,1.0,1.0,-0.9357201408865146,0.3532449053337316,0.08975438431615701,-0.0509734673499858
2016-05-16,-0.4443836177718536,0.9931222111931155,0.9656572238704118,-0.43039226217247983,-0.01951572281117448,-0.23371930205903788,0.16921731446165225
2016-05-23,-0.37327500229287663,0.9996563043572078,0.9995659526486819,-0.33255776044899993,-0.2051429364157865,-0.11325366409310228,0.025004864661522897
2016-05-31,0.0700842848274574,0.9996595534152598,0.9995674820371837,-0.08051324722568344,-0.3636308870310884,-0.5021642879287579,-0.1230148301126767
2016-06-06,-0.988936640544689,0.9972423152357521,0.7588166400369097,0.2924310914117321,0.6234836195476359,0.3164618813409893,-0.9981707782813408
2016-06-13,0.4247663135342451,0.999999999999998,0.9999999999999987,0.4566502878332067,-0.9999999999999972,-0.7502074492357548,-0.13120915213169634
2016-06-20,0.9999904200058622,0.9999758282773515,-0.26839575031499435,0.0926237704606119,-0.5508880881354905,-0.21891354364203638,-0.05438912181403271
2016-06-27,0.6296367340717876,-0.78737002039501,0.9678472777740184,-0.9853243875700023,0.22499459742233216,0.295228501233741,0.6549875599391818
2016-07-05,-0.7292377624244142,0.6170507567076062,0.5632422671486534,0.2547079616577212,-0.48540383706278134,0.9999010704336244,-0.22034176052923435
2016-07-11,0.9970454207339955,0.9980067048459451,-0.7755785272810223,0.06251632371335736,-0.3405081544588966,0.996524148566358,-0.9381713163872565
2016-07-18,-0.14977700833266952,1.0,0.9993355215658851,-0.31988326564488956,0.0037298717066769744,0.04350461878574286,-0.5771378510300635
2016-07-25,-0.6014792654113845,0.49930983956554653,-0.6033179292496051,-0.8056179084669316,0.5808889289653046,0.9761165393444927,0.9541539296428346
2016-08-01,0.36702783815446877,0.1740794031648185,0.5308924264791166,-0.23073539977410867,0.15860694273103282,0.9993719425055462,-0.9992431532608742
2016-08-08,-0.16603651178354414,0.9958313703789172,0.9814358925493486,-0.8612566512995534,0.32260867383404296,-0.8944538720797834,0.6215828184241061
2016-08-15,0.9921947158706906,0.5760872190092678,-0.973692978748378,-0.5224370624556941,-0.17303690211951472,0.10849659154098179,0.9923467313911941
2016-08-22,-0.039265665804630305,0.9858464666108305,0.9929495530068818,-0.25386759184146784,-0.39324720135031516,-0.5228675599023913,0.2304493752822171
2016-08-29,-0.3997298816032158,-0.30358407057133296,0.9998000855773487,-0.5247776608219525,0.16312534398329367,0.29476816360471575,0.7702808878560818
2016-09-06,0.9962036283370652,-0.9915665602611599,-0.8861392091237893,0.009336477027993626,0.26359072268121686,0.7433524246669854,0.8652225314217799
2016-09-12,0.06253227332231431,0.9999995573132013,0.9999991221475356,-0.41830273969709364,-0.0512796374601517,-1.0,0.4070530264733939
2016-09-19,0.42035111539913733,1.0,0.01122468743092779,-0.5332369195596198,0.10166111665748818,1.0,-1.0
2016-09-26,-0.3724755421251132,1.0,-0.7108264633640684,-0.36232374893746655,0.08566349581953195,1.0,0.3599622576325376
2016-10-03,-0.7337456408267018,0.9900899629528894,0.972561223347494,-0.16714379398209034,-0.14215550477775366,0.5356732159601097,-0.45527930545518436
2016-10-10,-0.37947150809857305,0.7880863391163513,-0.25362179091671117,-0.9344181819859388,0.5946181912061024,0.8846670518315807,0.3001282223689666
2016-10-17,0.24498701088627076,0.9997727845680583,0.999889398572945,-0.930819047332488,0.23713512853824412,0.18681577985088094,-0.7382236925907216
2016-10-24,0.1616678176262187,0.9999808688037743,0.0007421746380749806,-0.999939807726395,0.15271190324586553,-0.058983311093059695,0.7438130431671157
2016-10-31,0.8214798865691137,0.205944467622811,0.14483321265790436,-0.7056722290207538,0.055119078217485136,-0.4817735651615865,0.9600755493622285
2016-11-07,0.2444098830804811,0.9820727859671701,-0.025149146720760636,-0.8082911417850197,0.031988778381589415,0.9733267137150127,-0.39851209661493503
2016-11-14,0.9976571556682619,0.8915238601592406,-0.9998167118787776,-0.6405771224011062,0.037623239713662576,0.3158440130343055,0.39774529799529706
2016-11-21,0.35232786094834684,-0.6331162083713651,0.9800867731924153,0.9188617460489503,-0.8379973689645261,0.47886972972426695,-0.2590395418443422
2016-11-28,-0.7309906369096048,0.7674232572936013,0.4636999775079735,0.9977597572820194,-0.6156083460622136,0.6812227331967582,-0.5638678364830583
2016-12-05,1.0,1.0,0.638581386124129,0.24397994038242607,-1.0,-0.7062011162047013,-0.17636021030199414
2016-12-12,-0.5509581688369865,0.9954472246069215,0.4893490385549772,-0.7348267140318903,0.4718414657198182,-0.6518039913881898,0.9808589104221281
2016-12-19,-0.999999999999997,0.9999999999999829,0.9999999999999949,0.10335478198479096,1.0,-0.9999999999999907,-0.10335478198478179
2016-12-27,0.2960072963882376,0.2752925418694581,0.9963939983240514,-0.9959877606689074,0.0003629521372602582,-0.43404861966557345,0.8610757631848321
2017-01-03,1.0,-0.9997144550851036,1.0,0.13037421748887534,-0.7808005759366325,0.6536562011701594,-0.0036294818043725577
2017-01-09,0.4927807567170715,-0.9409015135550887,-0.10437868672129753,0.9301107750148127,0.9392933855371217,0.6480143759681838,-0.9649190929608032
2017-01-17,-0.10864914197681347,-0.01513884217042193,0.66492987596198,0.09248682341690465,0.013888505917475438,0.9460444582122286,-0.5937065602586766
2017-01-23,0.1349239288244723,0.9999999998,0.9999999961674327,-0.533984799091419,0.9980999957575906,-0.8889225698957043,-0.7101165556611984
2017-01-30,-0.009868349670079239,-0.5420180223216045,0.9996859301663287,-0.7927456633712815,-0.06223980152988396,0.41671228584796133,0.9901215133281844
2017-02-06,-0.9999999999998465,0.9999999999999183,0.999999999999989,0.05799837609588973,-0.21645556523422682,0.6824016433098382,-0.5239444541715619
2017-02-13,-0.1560805335294339,1.0,-0.7514040323805434,-1.0,1.0,0.6780234147473182,0.22946115116272275
2017-02-21,0.36451693442333993,-0.9238505389652732,1.0,-0.7823188437923242,0.19404021968864954,0.15229678348161224,0.9949420801103191
2017-02-27,0.9995091417127523,0.4489979365120568,0.9993844309560164,0.596946680828485,-0.9201865417539724,-0.36930600084213866,-0.7553656786902689
2017-03-06,-0.6804189465129594,0.877067456462938,0.03647045073254887,-0.9998661628329697,-0.016536769611242702,0.7880084848735699,0.9952785118325721
2017-03-13,0.996867110810757,0.9877659272851832,-0.024008167178457756,-0.5061624727610619,0.3083297804532031,-0.3986357753206904,-0.3641564032889333
2017-03-20,-0.07620886001489878,-0.7799772115813407,0.9999260190239244,-0.1250848244305666,0.007745706267578546,0.9975384927482864,-0.02394017726479542
2017-03-27,-0.02109851365036465,0.504657078581454,0.2881668396318335,0.19854997218464382,-0.27527942402778105,0.9611701169539953,-0.6563475312354393
2017-04-03,-0.8989554247632251,0.647250256482544,0.5793648858251417,-0.7060282920493265,0.36177255191495544,0.9706229898775304,0.045860449487042106
2017-04-10,0.46199102206697773,0.9999999999994001,0.9999999999997872,0.5204748587475652,-0.6155783721254093,-0.36688750868859243,-0.9999999999997281
2017-04-17,-0.3853813603926117,0.9246542575593429,0.8383868540043703,-0.0092416933087694,-0.4286576328308957,0.9921107089127883,-0.9322770890048241
2017-04-24,0.6406298883834035,-0.7405407675101657,0.3257948117408734,-0.9969741504869667,0.6852322321018274,0.9940304399724148,0.09187192990428522
2017-05-01,-0.11773590958087135,0.7326177239365071,0.9999902907782195,0.7190354445560393,-0.5108099163668,0.17619404308925987,-0.9992921254295706
2017-05-08,0.2986296431253829,0.9988812808451368,0.999975014244189,-0.18977765853167727,-0.4182142350775095,-0.3902186972567452,-0.29928012552186806
2017-05-15,-0.8139566618618346,0.9999999996834235,0.9999999984011905,0.43959856402099273,0.8159715344700749,-0.4416134345489926,-1.0
2017-05-22,0.12345983639199933,0.9662095525958458,0.9110839841374921,-0.26496520478686564,-0.1806488522616248,0.06261149853519281,-0.6177534616925614
2017-05-30,-0.3503720347722283,-0.044196938126006745,0.989538815248304,-0.9812316675773898,0.3286801383619814,0.3428692832661341,0.71469125970075
2017-06-05,0.04918803568084044,-0.23914885790485346,0.8488094452391411,0.5774328238789024,-0.33445823952544373,0.9927114869713685,-0.8945712847981147
2017-06-12,-0.4586642340626306,0.3517992580882481,0.9611397144220162,-0.980303679567568,0.03774252435168056,0.5171345220359967,0.5711619333082271
2017-06-19,0.22194836106471946,0.9999999999999998,0.41634920665135505,1.0,-0.6479101285174343,-0.9999999999999654,0.009612560801325606
2017-06-26,-0.27493896251381467,0.9959794334924099,0.9964376168225009,-0.6840391559870197,-0.017595623597847092,-0.1519648138020663,0.13616830532397906
2017-07-03,0.6404935117691891,-0.5162209426492539,-0.3817891207246616,0.764650626740544,-0.5790951237550396,0.6110978935262948,0.4608634965338974
2017-07-10,-0.55273149404186,0.0713564485374272,0.9272025518043767,-0.9625840741717208,0.22433850969797967,0.31386800118189184,0.9783530732527187
2017-07-17,0.22908539013330018,0.9969689215166584,0.999990520665365,-0.2030101256105463,-0.410657800496631,-0.7300765771079852,0.11764649363440516
2017-07-24,-0.7967008530123684,0.014189062174444426,-0.06215419144772375,-0.9498572685276621,0.9010376454031905,0.9322457214368507,0.9611855115726811
2017-07-31,0.5013197576917283,-0.29775811659360024,0.8676423041777186,-0.999954951582202,-0.2634959933798977,0.9417639268051513,0.25048458000338003
2017-08-07,0.07079624853668451,1.0,1.0,-1.0,-0.2022000727795956,-0.40719811040731385,0.5386019055742018
2017-08-14,-0.06028531993697976,0.20450534969354814,0.999994626510699,-0.9993515395766438,0.0864714650741687,-0.09549384156096985,0.8641649658190309
2017-08-21,0.1914421542151568,0.999948300731176,0.9999995042973501,-0.6994837353912544,0.01320986921783406,-0.17958277790150454,-0.3255333169076108
2017-08-28,0.6515022569264011,-0.9612493908238631,0.8794968258928403,0.7522811261378891,-0.7946889226561495,-0.25155051180085425,0.7240538349855944
2017-09-05,0.3253780463151575,-0.29370894484132687,0.97002881610105,0.11524179265359052,-0.4084090990643983,0.99759472189549,-0.7061737902036747
2017-09-11,0.9999954644619976,0.9252943923318752,-0.6893463704851213,0.909687505815054,-0.934382622025171,0.3983135502191697,-0.6095783575150415
2017-09-18,-0.9999999999999958,-0.9999999999999689,0.9302280046934606,0.9999999999999984,-0.6158451929389338,0.6856171882454398,0.9999999999999996
2017-09-25,-0.9975486847210149,0.9066723675404152,0.9969191419570095,0.48309224350553487,-0.6662868086738012,0.17381775288012094,0.1029443392623758
2017-10-02,-0.8693745145406242,0.7407171335384196,0.9289553453359191,0.4115353778423296,0.07277996131149568,-0.010321797282653967,-0.27429088157803033
2017-10-09,-0.013361822315776511,0.5140843032710591,-0.7815561109511271,-0.521735782841078,0.11549034637785002,0.9999999999999378,0.6870790663926601
2017-10-16,0.888792538356339,0.4556812733070922,0.48625496061682694,-0.055833902852615594,-0.2516578584538089,-0.8512168466024125,0.32817575050303466
2017-10-23,-0.2703960264140999,0.9999303145655214,0.9999129084109896,-0.773915162264935,-0.06899053189166672,0.21013649695392217,-0.09667799935973143
2017-10-30,-0.7554236095849259,0.10118365877349375,0.5323009026061067,-0.6906013395302361,0.045279312171102655,0.7704946118464286,0.9967139676905348
2017-11-06,0.22263058393247998,0.9999999999999983,1.0,-0.11933514433434399,-0.04183762388025273,-1.0,-0.061457815717882044
2017-11-13,0.23825545843897894,0.9999918986151818,0.8281621887195497,-0.05632742606362793,-0.6691558870338575,0.6590730706924319,-0.999999303368657
2017-11-20,-0.22628136803238513,-0.9642846246469889,0.2923881271952731,-0.3211609221327733,0.26751607669886746,0.9991099389368473,0.9527127974183264
2017-11-27,0.9943947887416155,-0.07086842726857072,0.3768475986762991,0.6306417678972549,-0.9446128965234224,0.9997266231702491,-0.9863593190933431
2017-12-04,-1.0,0.9999999958163448,0.9999999994976413,-0.8625996478715182,0.20572746807868056,0.40727884093178673,0.24959334359758628
2017-12-11,-0.23766353829061274,-0.5990729073882148,0.5755159106979134,-0.7128909691284852,0.46588598058287245,0.5469599982954554,0.9612598131046514
2017-12-18,0.07748518456920313,-0.8091367940073023,0.631048539519444,-0.25298316795973874,0.10045199053339521,0.5850504449038735,0.6680555802371261
2017-12-26,-0.027294464489683624,0.05992394902218499,0.9789923957134438,0.3025013186287155,-0.6383495395175246,0.7857582342702835,-0.46153189375216214
2018-01-02,-0.30572990177954423,0.9970483022682024,0.3063727060712341,0.9966772514293398,-0.9986448504696306,-0.9956451550263313,0.9998245348284108
2018-01-08,-0.9998588096347255,-0.8570625411074458,0.999999815456788,0.9997255598198476,0.4366590069616296,-0.2512403646305842,0.6715179930212335
2018-01-16,0.9899144220926476,0.398837968980834,-0.7886443607697035,-0.15897868002852786,-0.15109673338578394,0.1110476850288245,0.5989229658282978
2018-01-22,-0.8186195959072485,0.9981659881467823,0.22352768075086374,-0.9927065889925262,0.4316955149837218,0.15792385235877288,0.9997718235256511
2018-01-29,0.9802972736335734,0.9999999999991095,-0.9999999999998542,0.7084963050507844,-0.5209505785657828,0.8321569998814012,-0.999999999999232
2018-02-05,0.9634864475799879,-0.40933825585343425,0.6700317291624134,-0.600602604243668,0.03352725992571613,0.133940700163061,0.20895472326592368
2018-02-12,-0.7126573627577417,-0.23268461185275238,0.7720522781548802,-0.4935113244137808,-0.1585402714787574,0.9381329571815741,0.8872083351665779
2018-02-20,0.4080412326649038,0.6682874343900186,-0.1317114132375228,0.8945774975993055,-0.7964692855390711,0.1037573268851149,-0.14648279276274867
2018-02-26,0.9978819889794113,0.9987653066881761,-0.6428087760298516,-0.46523878274807917,0.07955734761282217,0.9999999289868455,-0.9682011583919675
2018-03-05,-0.05154111527470431,1.0,1.0,-0.1436639460635345,-0.3596138901683307,0.015285849529109604,-0.46071452287729797
2018-03-12,0.03836091799545479,0.9295884620917887,0.7027591994779588,-0.3773940699187685,0.11403550306902344,0.592077924706716,-0.999392035914569
2018-03-19,0.36050615237537964,0.999999999999999,0.9999999999999999,-0.7737016216582662,-0.5868045307171131,1.0,-0.9999999999999992
2018-03-26,-0.3159033357619313,0.9999176298853814,0.000417580801038716,-0.1863680440630762,-0.1566706571642818,0.9726808510583073,-0.31429609743522435
2018-04-02,0.31529224466093675,0.9926234918345265,0.308537316972781,0.9987005580563645,-0.8843506220225958,0.267123573928636,-0.9986276221568933
2018-04-09,-0.5804832380496334,0.9999999999973657,-0.8104611826679596,-0.7797909717960374,0.17073539252706693,0.9999999999967433,0.9999999999924546
2018-04-16,-0.3602528343076047,0.7319488606453888,0.892134824527927,-0.9433704601140963,0.2985064395015327,0.5392866744623103,-0.15826844195819284
2018-04-23,0.5089184874829682,0.6856337851762082,-0.8671153118489668,0.5110531337512227,-0.5745752807756223,0.9263299820058649,-0.19024479579167483
2018-04-30,-0.09192396017678174,0.9152124641645659,0.07636146451581476,-0.7513800302846964,0.014304335874873727,0.9706186949235345,-0.1332859983219019
2018-05-07,0.9778989791759112,0.8284381116752831,0.7452274622321788,-0.15795191191372582,-0.09812761041863727,-0.29641203049234305,-0.9999953906865879
2018-05-14,0.9692756001709562,0.5568666864804516,0.8447741718489384,0.3257137634294922,-0.674685588116292,-0.5742601684905008,-0.44825535308636394
2018-05-21,-0.9992518519089933,0.9998266380456933,0.43510948272270444,0.37289689961757216,-0.33181935888462166,0.2799734599926386,0.24328511750086987
2018-05-29,-0.8965295783743908,0.8092352207360198,0.9948725832316572,-0.6763421579785563,0.08070792220039331,0.7099645033754115,-0.021892950456696102
2018-06-04,0.9962652361424267,0.9594152264158013,0.9482407226509575,0.23789521784722165,-0.7540012913451664,-0.9826116497539055,-0.4052066732652374
2018-06-11,-0.2050987124557828,0.6316745144635092,0.9983106073525758,0.6667826961686464,-0.5813144474863194,0.48792951380189337,-0.9983106146952824
2018-06-18,0.34341331348809806,-0.4049586293142675,-0.9993453185405986,0.15427917593033172,0.07248451811263323,0.9471920012637394,0.8869538984082646
2018-06-25,0.6707803827364158,0.9992716211365076,-0.9975088069704076,-0.2946077502769844,-0.27804667998947674,0.6137325179722671,0.2863362139146381
2018-07-02,-0.031603975213422425,0.16646916976211976,-0.07434282671995797,0.9654810319166606,-0.9358949716705752,0.9665948594137999,-0.05670338997148607
2018-07-09,0.8383689360498063,0.9053338128761875,0.33270639397134977,-0.4917417254436189,-0.21610529025427408,0.45727023243198184,-0.8258490782445779
2018-07-16,-0.3443232407286232,-0.24033453331146765,0.9996617267828991,-0.2772907564438558,-0.07900519519030663,0.9997815361273932,-0.05848992664776417
2018-07-23,-0.9999446250225099,0.8882132578736639,0.9986324060694709,-0.8869196992663319,0.45826172213650757,0.09572762845986439,0.4460144675443049
2018-07-30,-0.9889441527206347,0.640751607251427,-0.9984631456917077,0.3534586860532357,0.44032220525916804,0.9992342131404636,0.5532603415277179
2018-08-06,-0.865507847706083,0.9997076599424476,0.9999243739799927,-0.2727007915959544,0.0005586019471246639,0.4184926251554523,-0.2806477835572056
2018-08-13,0.31379177972256983,-0.6961333832935072,0.7707673392433512,0.08552492502391795,-0.7604570956794472,0.6553819780856925,0.631067787968322
2018-08-20,-0.26555358822265007,0.9982795727222532,0.9791597394942906,-0.2137708054178356,-0.19584605671103883,-0.08154487284415496,-0.22072636861733622
2018-08-27,0.19660461918150307,0.7378984598515048,0.4626693699520796,-0.292763812138426,-0.1921842855085269,0.9266262136117018,-0.8388505649498363
2018-09-04,-0.8359893307100443,0.1764861351200456,0.959482503688654,-0.5297634917672271,0.0503762724177022,0.21767953608999174,0.9617283501331992
2018-09-10,0.3387034742640692,0.9967527521618538,-0.011669065831247808,-0.9885379914566085,-0.3318870880216307,0.007581771120463253,0.9885382894263937
2018-09-17,-0.07237515845394715,0.5282527944248144,-1.0,1.0,-0.13393357194379207,0.35216704131205645,0.32582272669242707
2018-09-24,0.4866629552642951,-0.6776860407841461,0.9038142775655522,0.9973008184155531,-0.99903787335091,0.3840444540389151,-0.09509859179049739
2018-10-01,-0.31820865602693915,0.5916317937713835,0.5809744974957836,-0.6526427246696771,0.20889391063680404,0.9670707473215614,-0.37801198508708833
2018-10-08,0.8477615102539695,0.8351022572768297,0.9998947266796856,0.6777683573396153,-0.9315631106749512,-0.9993699899254107,-0.42959375094973795
2018-10-15,-0.683276586669267,0.9996920632587969,0.24253012554294198,-0.7982096328112452,0.22290871947755544,0.9985689644830159,0.017525064178480848
2018-10-22,-0.1831802235073716,0.9258795920189745,0.020079491252570504,0.9763638201015342,-0.8038829247619551,-0.48422768952919343,0.5489442705756086
2018-10-29,-0.30633282881302765,0.3829643104555146,0.9902853750664179,-0.975941312837472,0.1543440459503727,0.29162935389827355,0.4629552774245122
2018-11-05,-0.25174566998685766,-0.5877808729881233,0.5290314544240758,-0.14491653472993177,-0.10936329831721261,0.9339473095906855,0.6308083819812174
2018-11-12,0.19816023683271156,0.9999999999989221,0.9999999999991955,-0.020901699629055862,-0.4478366473546489,-0.3304634688071416,-0.398958421039983
2018-11-19,0.9267066050783028,-0.7084949798347316,0.7093859846771854,0.7784828248553768,-0.9805387240011635,0.18396349994530797,0.09049474501144956
2018-11-26,0.45835547035259727,0.9999950733806843,0.16788386123529284,0.1961203311588343,-0.8223615126711886,0.999760297818738,-0.9999935024179487
2018-12-03,0.031325676348863046,0.8775668968095536,-0.987522203005419,0.6481277528294986,-0.6226131249742622,0.9651646972842962,0.08795988376636311
2018-12-10,1.0,0.9999268880672387,-0.3071349464954017,0.4891833016965233,-0.8202207034955324,0.6382271501401184,-0.9999922942394522
2018-12-17,0.13316717145474968,0.1997567903862033,0.9311468160338786,0.704053206679861,-0.973873528206197,0.9337788387258787,-0.9280292950743741
2018-12-24,1.0,-0.9556607904112943,0.21245414625736156,-1.0,-0.21959805290235507,1.0,0.9628046967375691
2018-12-31,-0.9999851512175555,1.0,-0.052778549106618375,-0.7943965087281598,0.20693216858095076,0.9999990679205567,0.640219481307506
2019-01-07,-0.19890704134162068,0.1544184295354511,-0.8595136696722782,0.09526234880106509,-0.1653377129507307,0.9937420532490548,0.9803347852408658
2019-01-14,0.7287807372678533,-0.965807870711614,0.2065737492811366,1.0,-0.6498280898711535,-0.3197191432832714,1.0
2019-01-22,1.0,1.0,-1.0,0.09349533896792529,-0.35821682362914914,0.05598852398819821,0.20873300055140695
2019-01-28,0.024889010304822705,-0.9109780074781233,0.9537609204249069,0.0821128165886715,-0.5439617826593734,0.9857639105585504,0.4084308063592217
2019-02-04,0.9326826220558572,0.5767100294625119,0.33061447022641727,0.6662352956914142,-0.9314681874316159,0.19018827696116059,-0.7649625069657459
2019-02-11,-0.0041152846002093955,0.9921816055962815,0.9430423445981345,-0.9932034947252563,0.07588641697164282,0.22563946857002856,-0.23943533326673325
2019-02-19,0.8917491593575678,-0.005866363874542921,0.9746763070186164,0.5651068227487669,-0.9629412918940037,-0.07759993250638199,-0.3851247008500227
2019-02-25,0.2989015569350822,-0.1628761685474358,0.5332398560233413,0.27162736658292286,-0.8163916768690083,0.9191304336836544,-0.04365330203282472
2019-03-04,-0.5253817119847602,0.43176637133590795,-0.010814718273544369,-0.9857423441496772,0.43950014735876713,0.6643684929526192,0.9863061628750316
2019-03-11,0.6394597545405178,1.0,1.0,-1.0,-0.12259231639705306,-0.4855033239526619,-0.031364114190864274
2019-03-18,-1.0,0.33184614490869474,1.0,0.870514727412972,-0.8083336496843895,0.9999999994728683,-0.3940272389057617
2019-03-25,-0.12505989642635285,0.9486207684701861,-0.0027740838116973358,-0.32593925276843644,-0.17560418595008231,0.9852139320405912,-0.3055077492421817
2019-04-01,-0.47453693935217334,0.4804124049091566,0.9434120107920226,0.42548517551818826,-0.6411754071315954,0.9079435961391928,-0.6411825778757014
2019-04-08,1.0,0.9999999999645713,-1.0,-0.8263491892312501,0.2522143061759979,0.5106109149139798,0.06352396865304766
2019-04-15,-0.3069999348271261,0.6118079248395565,0.996679737934613,-1.0,0.1131430534769808,0.03977278953707881,0.5455964664974541
2019-04-22,-0.6111290263777984,-0.4573039831737488,-0.14738141097714952,0.7450401016178639,0.8109850923291584,0.9616920029789846,-0.3020469225762131
2019-04-29,0.8513027762238908,-0.7016893534228502,0.4539284704321276,-0.783730941970045,-0.10713027871982779,0.6341736713258271,0.6530927989662972
2019-05-06,0.8119832500290255,-0.07427034987617398,0.3783699134351035,-0.22455467302488114,-0.348510764494421,0.4085131403531569,0.04846948357818998
2019-05-13,0.0070942251007456315,0.9999999999999978,-0.03747765687323215,0.6322165210988896,-0.9999999999999982,0.9999997454747696,-0.6018330319084781
2019-05-20,-0.08027519009255916,0.9994664181025557,-0.25066226515518114,-0.4562263727970336,-0.02660138102816662,0.9999813477612304,-0.1857553506057147
2019-05-28,-0.11683971924451042,0.9738270877019203,0.998722156072725,-0.2890703276183971,-0.296057177212464,-0.19447976507971132,-0.07610482358699472
2019-06-03,-0.9445366017146171,0.9962042711261149,0.9862078359387757,-0.8941250806799059,0.05467467283448392,0.9994409934289724,-0.19790767888290542
2019-06-10,-0.8846798231269072,0.7190690537078418,0.9799833362334676,-0.8279252966060092,0.14475840485092192,0.6506650471303855,0.21812856498885919
2019-06-17,-0.8233473631000096,0.9999866321858312,0.8784458601902343,-0.9526804502260254,0.07944339317756088,0.9997998244390096,-0.1816478966666009
2019-06-24,1.0,1.0,-1.0,0.9582387563188672,-0.1348285174867074,-0.05084237752135637,-0.7725678613316728
2019-07-01,0.8033613184673237,0.37596478627315544,0.8209813619773599,-0.2356464832534864,-0.48725001587547867,-0.9905833416917108,0.7135329024720339
2019-07-08,0.9995975115846018,0.01589298250939227,-0.9934882732918444,-0.1614817381216117,-0.09139989035805825,0.9917890493761703,0.2390903583013501
2019-07-15,0.04433087969265119,0.9084817596185287,0.9991647507392557,-0.6374200387776287,-0.1446310262407102,0.16497982419460938,-0.3349064062633615
2019-07-22,-0.25181634562999505,0.9918793470312308,0.10181047573810671,-0.9992933798457103,0.3753302719118603,0.3617916391638104,0.42030975962810285
2019-07-29,0.9788391200689284,1.0,0.9108362919568267,0.8536381175259451,-0.7433135295161774,-1.0,-1.0
2019-08-05,-0.9112642393033378,1.0,0.9999999999696051,-1.0,0.2586468527156393,-0.14450085300152662,0.7971182396928441
2019-08-12,0.2835049171317445,0.9890499362571213,0.9966938224525099,0.23946574319958822,-0.7819565956292073,-0.3767119220028272,-0.3500459463576532
2019-08-19,-0.30310335025616747,0.9999793449647927,0.9999117650014376,0.4294091353559927,-0.8085393383405413,0.6151975012548734,-0.9328949439231522
2019-08-26,0.6441500067520259,-0.11314575725558808,-0.886469328739644,-0.7439625667804607,0.24431996835309272,0.9335191053934553,0.9215883295954956
2019-09-03,0.787817979435545,0.9276261142952049,0.6040236459934701,0.35395854704430263,-0.7121274346209275,0.03612247896469056,-0.9974439384648651
2019-09-09,0.3830438085351867,0.6334997370027081,-0.5880603160243124,0.9882443123553645,-0.7511253768741947,0.9841398226837654,-0.6499243601803976
2019-09-16,0.17417473317229504,0.08224970214358793,0.6084280694871644,0.637731931297942,-0.770589414121219,0.1975543177562737,0.07045066026395574
2019-09-23,0.07006131735054806,1.0,0.450881131748199,0.9999996170021783,-0.8053549401116288,0.03830908537607582,-0.7538973065438613
2019-09-30,0.024191065476508927,-0.02070264816132081,0.9999896994361355,-0.9537756156630716,0.02536272578218997,0.19610449995092444,0.7288302113004513
2019-10-07,0.5608814284657644,-0.9381768613385454,0.8759917644742842,-0.40040136641873836,-0.14476743954456273,0.42385775568305345,0.6226147547622894
2019-10-14,-0.2886618749295691,0.40851220859352966,0.04331291785185536,-0.9999133534283094,0.4087568654065353,0.431878732241722,0.9961157871990394
2019-10-21,-0.7419760449723962,0.9939611284192011,0.8208862524731416,-0.3249529352907093,0.21208865325334153,0.9974163429707023,-0.9575790320767846
2019-10-28,-0.15030060837948547,0.9825722561967781,0.7547071890751511,-0.7080238357018326,-0.21714021656588325,-0.6610825567799059,0.9992296547936174
2019-11-04,-0.07759186433688423,0.9998604701446229,0.9999671872351673,-0.2457822651479116,-0.37198892026398583,-0.10770579693835299,-0.19682223300999854
2019-11-11,-0.5721690532406675,-0.6165241479733184,0.09022489975069437,0.6626661751758103,0.24331591457741325,0.9999396747636633,0.19254653694640456
2019-11-18,-0.07784886819602421,0.456576839425703,0.36509992471659036,-0.5760661124668024,0.3504636953313814,0.954632285785242,-0.47286701037220946
2019-11-25,0.37967008356880705,-0.08939868881304362,0.9529927865037425,-0.31137575367732667,-0.5892123696062121,-0.07446075628598832,0.7309415162086969
2019-12-02,0.7935752501696193,-0.046142278505853326,0.6695426181078394,-0.8062067184290898,-0.098207914421327,0.3549627993072234,0.13247263431471124
2019-12-09,0.9014442753905205,1.0,-1.0,-0.1008737725377496,-0.34268652196502186,-0.4578839808119358,1.0
2019-12-16,-0.8929477846412003,0.9999999999999956,1.0,-0.03381838875431024,-0.32033583624338663,1.0,-0.7528979903611046
2019-12-23,0.9995665885688981,-0.46638936729746444,-0.2444142157315263,0.4724328957104701,-0.4895483345893919,0.9996288027722858,-0.2724686516440519
2019-12-30,-0.6989405264042046,0.9461789643838481,0.9999580955264047,-0.8674752974707152,-0.011538123205527993,0.9511088537480283,-0.31968739889208503
2020-01-06,0.8669012720241303,-0.20907461674911448,0.9998635299398565,0.31524970888107257,-0.9906772233281518,-0.9816208717039594,0.9993582009361663
2020-01-13,0.9970985350505125,0.9968451180815388,0.3034746566688522,-0.4103052727128233,0.01115115904131977,-0.7833556212783548,-0.11494773003602164
2020-01-21,0.36394037734404605,1.0,-1.0,0.17102647144250138,-0.04536995730294899,1.0,-0.4895968914835101
2020-01-27,-0.24643721253285084,0.9999945298632329,0.9999965911521872,-0.9999890512507787,0.5436372373626421,-0.4104218771906518,0.11322301153034642
2020-02-03,0.2363765285500209,0.6249754334473377,0.9998594615032669,-0.9994542608089236,0.0786223174507027,-0.18126057175477994,0.24088122502515388
2020-02-10,-0.4824028143057453,0.9999163596126766,0.9998081664493219,-0.9210637154383461,0.21889306543921216,-0.19653391444098425,0.38116702094006477
2020-02-18,0.13755640266490402,0.9976011145051299,-0.46299263942389346,-0.9903226187804521,0.5212035056052373,-0.06041337505919894,0.8574530221695806
2020-02-24,0.03899949938087251,0.9859478490942668,-0.3424948352013298,-0.988965422747103,0.2888284891628877,0.20367184613071998,0.8140119528398034
2020-03-02,-0.26045115346363357,0.9994858641500957,0.9899990373165165,-0.7127410794604574,0.01346413247858851,-0.22488728850531575,0.19520584025477647
2020-03-09,0.09480290458617553,0.9722928940770714,0.960164509229911,0.16357281206356558,-0.7207414385690426,-0.15739652226649542,-0.31278618144028614
2020-03-16,-0.19167630737164176,1.0,1.0,-1.0,0.49620598044086334,-0.11352801174506216,-0.19100166132415938
2020-03-23,0.98434511011287,0.6702657539627894,0.16109530320883733,-0.7222910501189362,0.27276244733665883,-0.993049486223736,0.6268489930732172
2020-03-30,0.7522500852589517,0.9999999752119184,-0.9997829971092074,-0.6670039964337086,0.29033330141982616,-0.17579878493903908,0.8000024605968714
2020-04-06,0.9393199467196903,0.9999999988745685,0.6897725529639982,0.16165906770027832,-0.717651188465351,-0.9999250992805568,-0.0732043091584006
2020-04-13,0.9320372287767674,0.9595374190167149,-0.999911776659485,0.4397017230373322,-0.7150738022618881,0.999999989389396,-0.6162916314594674
2020-04-20,0.7848428171489702,0.9554234736812597,-0.9271209354219057,-0.588851216002258,0.429272219086894,-0.3962369321555999,0.7421474638948882
2020-04-27,0.9991356695813847,-0.7485754761300151,-0.1335018813925053,0.24579688264300473,-0.499332982418311,0.9999854412668814,0.13647156797409948
2020-05-04,0.30098207899416785,-0.29280786486416255,0.5762362777884836,-0.9287138144003785,0.13474063961361343,0.27194999817702326,0.9376126846912527
2020-05-11,0.9128096474310092,-0.15137293865611676,-0.9978858320034971,0.1594259624162,0.85461247376827,0.9969254830187737,-0.7745147959746389
2020-05-18,0.9033183319809437,-0.9047590028090516,0.7758867685768757,-0.6475664998265063,0.024046992636672204,0.15498477746360317,0.6940483207559027
2020-05-26,-0.8973932569994131,0.9998311076647464,0.537589938365608,-0.9998194205288402,0.49599146184828685,0.6713410851715649,0.19254112735393009
2020-06-01,0.6692551850920936,1.0,0.26152890723359234,-0.2530275632384511,-0.13220318056866182,-1.0,0.45444665147128327
