Week,0,1,2,3,4
2008-11-10,0.24813545314404942,0.0816771278772438,0.2174698351505051,0.2105776025758753,0.24213998125232644
2008-11-17,-0.006013970998760959,-0.023957806045704643,1.0,0.024043591847938566,0.005928185196526879
2008-11-24,0.009045867669805915,0.0015324115670830745,1.0,-0.0023337755184759863,-0.008244503718413025
2008-12-01,0.2976928400585879,0.008227185474965718,0.327997605067614,0.35679753918663537,0.009284830212197032
2008-12-08,0.03655128114547868,0.02138562978416217,0.5463291590698458,0.38900125044520756,0.0067326795553058595
2008-12-15,0.005139842302923298,-0.05533098637679961,1.0,0.014428062460402574,0.03576308161347376
2008-12-22,0.015831009345121116,-0.010828229124942124,0.9999999999999999,0.043839012423631536,-0.04884179264381062
2008-12-29,0.03125281558343707,-0.03872855994563005,0.5362857290841109,0.5122061274095273,-0.04101611213144512
2009-01-05,-0.01665092622383623,-0.013678698360617728,0.7365451687536708,0.34171409792911606,-0.04792964209833298
2009-01-12,0.025233481734979586,0.031003505485647332,0.9210839197388337,0.02126208609368081,0.001417006946858638
2009-01-20,0.4367758597725119,0.04444478082219027,0.9995073028875708,0.3551520739062556,-0.8358800197393382
2009-01-26,0.01654991671266547,-0.028185764987806967,0.39692004955067567,0.47639387455961413,0.13832192416485167
2009-02-02,0.015950250765369788,-0.009553901410563812,0.3761944585856448,0.16987624956537212,0.4475329424941771
2009-02-09,0.06375087878297024,-0.0561043896853674,0.7007734510821216,0.20973357211575872,0.08184648770451691
2009-02-17,0.012849636957984677,0.017114982625612393,1.0,-0.06891187278564483,0.03894725320204755
2009-02-23,-0.08285878472935637,0.13302124406481466,0.5218034457747932,-0.011938432981655683,0.4399725278714041
2009-03-02,0.0010709512794939687,-0.01314133046022276,0.8596068453403161,0.15012480353239227,0.0023387303080205524
2009-03-09,-0.0128576313658099,-0.017375030189626044,0.9999999999999999,0.03710778414675364,-0.0068751225913176684
2009-03-16,0.0018249092474485566,-0.015601093518112738,0.5855343052155142,0.18192785132295408,0.24631402773219596
2009-03-23,-0.04176836806974735,0.05210581871592489,1.0,-0.09839868217890246,0.08806123153272488
2009-03-30,0.09049873871150202,0.16602376361061907,0.22557911989619614,0.28271969022152604,0.23517868756015659
2009-04-06,-0.0342284980935746,0.018266998630393227,0.036153753279938326,0.7600049733508226,0.21980277283242042
2009-04-13,0.21690404947963066,0.23109032078923392,0.5836346722567339,-0.24787699452342357,0.216247951997825
2009-04-20,-0.023614548159353033,-0.018103083892334837,1.0,0.018883310648742928,0.022834321402944942
2009-04-27,-0.015248985902787858,0.01617650304901647,0.9999999999999999,-0.05439825023839154,0.05347073309216309
2009-05-04,-0.12170913767319548,-0.1754855764542964,0.7640593546852161,0.5640752555095382,-0.030939896067262444
2009-05-11,-0.006857808400978538,0.029852376089898908,0.9345393678042793,0.017444024527684742,0.025022039988140097
2009-05-18,0.041891846565190564,-0.049390309382077176,0.5847107082322732,0.4846178918355814,-0.06183013725096801
2009-05-26,-0.03791195407239762,-0.004269513009407783,0.9323427892209059,0.1907340654443656,-0.08089538742309028
2009-06-01,0.008401464365562234,0.10330661584819341,0.280525971475392,0.24895056746318728,0.3588153808476651
2009-06-08,-0.04508107648190138,-0.05708175483769866,0.9206975822673419,0.01376282040595425,0.16770242864630394
2009-06-15,0.15227453925092876,-0.058787409611249335,0.9201578843819944,0.16369950652896792,-0.17734452055064173
2009-06-22,-0.05857636201330455,-0.005278978781939664,0.9999999999999998,-0.034657117954735826,0.09851245874998028
2009-06-29,0.03026675136032705,0.034825400725884956,0.9259791850372264,-0.0463892779649598,0.05531794084152134
2009-07-06,0.011195405078833433,0.02286619233947205,0.3878389425815561,0.4258914457770737,0.15220801422306468
2009-07-13,0.04501646938410349,0.01569577344928,1.0,-0.06232088235319149,0.0016086395198079792
2009-07-20,0.11533227649226661,0.0038813656618149357,0.9416394883626438,-0.012254701344372345,-0.04859842917235292
2009-07-27,0.07176954367612012,-0.031808360940671396,0.4904775737637354,0.44502752182235383,0.024533721678462125
2009-08-03,0.00682047617939049,0.02749314544830353,0.8071941921607861,0.13052812156064741,0.02796406465087245
2009-08-10,0.008067056957028819,-0.02335534699981057,0.9999999999999999,-0.06021663555097674,0.07550492559375845
2009-08-17,0.09728071665865212,0.017338536643141226,0.3714084740722079,0.47059471735588376,0.04337755527011504
2009-08-24,0.0729378111118698,0.014269177755401312,0.6957687310844028,0.19937274303120978,0.017651537017116248
2009-08-31,-0.004479086215583428,-0.10260127315850938,0.9999999999999996,0.05918478481064885,0.047895574563444426
2009-09-08,-0.0026802228777415274,-0.00708319471753759,0.8326304850143277,0.15427271810765952,0.02286021447329199
2009-09-14,-0.012036710773717698,0.021536629500327167,0.3306358470323075,0.3907274150534573,0.2691368191876257
2009-09-21,-0.04863996497836893,-0.08989824549670092,0.48462569948149703,0.4575814002961411,0.19633111069743175
2009-09-28,0.03917434527260294,0.012755050966209361,1.0,-0.03110211012959389,-0.02082728610921887
2009-10-05,0.00402222036436342,-0.011392255823973362,0.9084324195964403,0.12360496253514403,-0.02466734667197451
2009-10-12,0.13319450655696727,0.06827152215705344,0.7146242042915515,0.31553855629412286,-0.23162878929969513
2009-10-19,-0.054808087013157716,-0.0006427145924578285,0.9370004743399822,0.02166362755376692,0.0967866997118665
2009-10-26,0.137631206671365,0.01019594374135602,0.7039751063562895,0.20369712242299462,-0.055499379192005115
2009-11-02,0.010047890490026657,0.0005653181020807491,0.7641767175692566,0.15654004817838804,0.06867002566024788
2009-11-09,-0.09117647221773278,0.263324167195085,0.30409742158722497,0.291232347768075,0.23252253566734782
2009-11-16,0.12292198577339425,0.25462649177208363,0.5779540477000982,-0.3163109169517506,0.3608083917061745
2009-11-23,0.0026938546425465766,-0.006444754256687397,1.0,0.019860596175429186,-0.016109696561288366
2009-11-30,0.16035469555708964,0.007307050286814739,0.36400564883817427,0.43734627427069245,0.03098633104722886
2009-12-07,-0.02761809728804379,0.0668935141948179,0.24608611078714976,0.17964070093877751,0.5349977713672986
2009-12-14,0.18263730361733618,0.05471603737785203,0.17011300155948414,0.5763750861206897,0.016158571324638035
2009-12-21,0.07138960329986954,0.06490589029150107,0.890489985473233,-0.19911056499897536,0.17232508593437174
2009-12-28,-0.00032213630546541847,0.04540620573791358,0.3887260362624497,0.49836331533509054,0.06782657897001156
2010-01-04,0.22685571857392306,-0.042718825500008724,0.9361617457351861,-0.07367737154236563,-0.0466212672667348
2010-01-11,0.012254736379877373,-0.007237348963161255,0.9999999999999999,0.05640172469965342,-0.061419112116369516
2010-01-19,0.16565008068390763,0.08714323505600179,0.746359620171699,0.02985449393778994,-0.029007429849398414
2010-01-25,0.0981201583156064,0.03216658633453581,0.31106938219629954,0.4440016825886889,0.11464219056486932
2010-02-01,-0.04566897057496677,-0.010340971811496732,0.9999999999999999,-0.030070564300997703,0.08608050668746126
2010-02-08,-0.06931748596892397,-0.1358486280034189,0.6697021246805305,1.0,-0.46453601070818756
2010-02-16,0.043155623998599665,0.05286501327731361,0.6610979200668581,0.25012108250535486,-0.007239639848126164
2010-02-22,0.010458245333782612,0.12936618208136022,0.28267891222282665,0.2095976066601689,0.36789905370186154
2010-03-01,-0.0023727250534347224,0.009436204152805697,0.9999999999999999,-0.061402240892530296,0.05433876179315926
2010-03-08,-0.002687104831117281,-0.00023286428291037433,1.0,-0.04907203572862435,0.05199200484265201
2010-03-15,0.09673534687499102,0.029933300454646223,0.9999999999999998,-0.07298382070502708,-0.053684826624609966
2010-03-22,0.01610530745637944,-0.011938024715798846,1.0,0.05215272718058534,-0.056320009921165995
2010-03-29,-0.024187838504781817,-0.00974778239189972,0.9999999999999999,0.08811854718189996,-0.05418292628521843
2010-04-05,0.07749739366983764,0.05732386088150029,0.2546251773463955,0.3750395917144262,0.23551397638784044
2010-04-12,0.014287256476505743,0.07296175250300174,0.6492244791676514,-0.02290871342649237,0.2864352252793334
2010-04-19,0.024013330254882247,0.027223301179784488,0.9999999999999999,-0.16108286982130704,0.10984623838664037
2010-04-26,0.10972722047699703,-0.019248281270055432,0.6772538238993911,0.2811020748623326,-0.04883483796866526
2010-05-03,-0.02483089153497207,-0.009021854462501954,1.0,0.048704682126028916,-0.014851936128555007
2010-05-10,-0.32254070489500963,0.037955605889030915,0.695302720815037,0.35064348260982625,0.2386388955811155
2010-05-17,0.005496722808268967,-0.004992468324583366,0.4562166146044129,0.49170541560392345,0.05157371530797816
2010-05-24,-0.07841629545586264,-0.0032945770898637435,1.0,-0.009131718846594937,0.09084259139232136
2010-06-01,0.3898097630540715,0.05689344748280723,0.021562131054613538,0.2888300674510339,0.24290459095747385
2010-06-07,0.23334110290217416,0.032913965482272094,0.2648719215201988,0.3043515506628468,0.16452145943250818
2010-06-14,0.07319735925682984,0.00530389321815107,1.0,-0.11718673088855998,0.03868547841357896
2010-06-21,0.011300197038202732,-0.0019532568386867845,0.9665441724661119,-0.0158900387242335,0.03999892605860568
2010-06-28,0.0832890529932829,-0.02451170979238904,0.6929588761470418,0.3989724670033039,-0.1507086863512396
2010-07-06,-0.014561523157748222,0.002870548405054618,1.0,-0.01935406407569988,0.031045038828393445
2010-07-12,-0.0028730777506257243,-0.035975936796468475,0.9469608808102805,0.1810594933530867,-0.08917135961627302
2010-07-19,-0.061829443908984524,-0.0036432309544667434,0.9999999999999998,0.0023656394010673626,0.06310703546238411
2010-07-26,-0.0008333445789090021,0.013829920404292902,0.8570937216941118,0.04658753884774802,0.08332216363275627
2010-08-02,0.07110648074906217,0.09701044667253064,0.7123454374524879,-0.238391451069497,0.35792908619541625
2010-08-09,-0.03226683985469535,-0.011583187794166313,0.9810054141675172,-0.01590962477911915,0.07875423826046361
2010-08-16,0.0053981353244797175,-0.057148865561013715,0.6369010126756439,0.42799190308530616,-0.013142185524415997
2010-08-23,0.04971102534931893,0.005346525246775877,0.682002526514179,0.15596628888047787,0.10697363400924831
2010-08-30,0.02996462675146919,-0.007612368634367509,0.9653253537280249,0.03297724599374605,-0.020654857838872696
2010-09-07,-0.08663506922456991,-0.02151102098234726,0.6023028242505297,0.4729367007176304,0.03290656523875704
2010-09-13,-0.05582317987239911,-0.022203773497563785,0.42624874496553605,0.48215279282322876,0.16962541558119817
2010-09-20,0.10312976248939887,0.008389766827592226,0.27700575464444305,0.3144560630353772,0.29701865300318864
2010-09-27,-0.004369241990904872,-0.009369313445979601,0.9964632230708073,0.048355251205800365,-0.03107991883972319
2010-10-04,-0.01157153482656573,-0.01336362978195997,0.9999999999999997,0.012237387249668118,0.012697777358857786
2010-10-11,0.03219266076039914,-0.022033360374679237,0.7057618679534898,0.30080160296187075,-0.016722771301080554
2010-10-18,0.02131996599137004,0.04973972705355964,0.5400908140848399,0.4998677045508845,-0.11101821168065398
2010-10-25,0.018664947632580343,-0.014524788301015312,0.952723468578509,0.06177987509843972,-0.01864350300851371
2010-11-01,0.011918078714177063,0.0032883594635710976,0.851729424710289,0.11998234702556472,0.013081790086398164
2010-11-08,-0.0005598468502030561,0.008129935195131915,0.9312073453666415,0.0343480462422739,0.026874520046155613
2010-11-15,0.012167068394840566,-0.007632449179984657,0.9057509565029401,0.17228377500418782,-0.08256935072198392
2010-11-22,0.08231836152449433,-0.0009264065035324391,0.9551859741995723,0.040881229461656274,-0.07745915868219039
2010-11-29,-0.0323789245992034,-0.002542676153052568,0.3604085675737636,0.5182758214744261,0.15623721170406626
2010-12-06,0.21194370298220536,-0.002134385530571884,0.2873186382968973,0.352081239126865,0.15079080512460424
2010-12-13,-0.07435673205423518,-0.016897438129838894,1.0,-0.022659571666063767,0.11391374185013783
2010-12-20,0.05665889391165427,0.03695934989184932,0.7049748442079323,0.02704990802036498,0.1743570039681992
2010-12-27,-0.6325147657044248,0.07949272045039366,0.9875054909909928,0.5673332349651162,-0.0018166807020780665
2011-01-03,-0.013543878735115849,-0.016872584865771433,0.8750032754096442,0.337285956942476,-0.18187276875123287
2011-01-10,-0.06595193693035452,-0.05175645294962727,0.9788736194750718,0.06421966537678599,0.07461510502812399
2011-01-18,0.007296595876172869,-0.008436426942084846,0.9999999999999999,0.024694034311451486,-0.023554203245539414
2011-01-24,-0.1606590480753378,0.057322543701268144,0.7560616055081668,0.04290005852403209,0.3043748403418708
2011-01-31,0.00248043531577961,-0.015445542217659156,0.509650537057004,0.4941402074224362,0.009174362422439382
2011-02-07,-0.005135505706267536,0.0074624102146648415,0.7828648836887715,0.07479761590370003,0.14001059589913112
2011-02-14,0.05005234448118915,0.007709736243111354,0.8869501409607929,0.047453836936497476,0.007833941378409192
2011-02-22,-0.3006199314834911,0.021675736323580514,0.9613522751010032,0.46817390090349664,-0.15058198084458924
2011-02-28,0.11998519283274722,0.059973602892487564,0.2615536525004388,0.16331599934742644,0.39517155242689994
2011-03-07,0.1411846745514359,-0.011491722055027631,0.26344309057657983,0.4723853072491996,0.1344786496778122
2011-03-14,0.0909116283782977,0.00793381319767914,0.6936650299108567,0.20167697059255926,0.005812557920607277
2011-03-21,-0.05022678218886302,0.015167086829892791,0.9666302433524232,-0.2205290246857651,0.2889584766923122
2011-03-28,-0.028408120039752516,-0.011210947996541433,0.9901106965293388,0.054688914891477584,-0.0051805433845223394
2011-04-04,0.01235546074659169,-0.0016726089122845657,0.5293013124342261,0.5494854931833567,-0.08946965745188983
2011-04-11,0.02955989333259822,-0.008092717380932712,1.0,-0.03820630626827225,0.016739130316606662
2011-04-18,-0.04803728225135682,-0.009016313689973944,1.0,-0.09915343229542231,0.15620702823675317
2011-04-25,0.25477816745038473,0.03580817533057265,0.2354217348245999,0.2068698888024222,0.2671220335920205
2011-05-02,-0.019279781287359125,-0.010791850026377291,0.8684796045771416,0.09919641822329997,0.062395608513294884
2011-05-09,0.274991364954264,0.1550058177322197,0.45759340116403907,0.30588923267720575,-0.1934798165277285
2011-05-16,0.034368490717795894,-0.0753714351133612,0.756873839923429,0.5395114961047375,-0.25538239163260124
2011-05-23,-0.06835649740185246,-0.011520347653068998,0.9859560002408275,0.11448609449306041,-0.020565249678966523
2011-05-31,0.013729450711217782,0.0003470634257289475,1.0,0.002156003280599438,-0.01623251741754615
2011-06-06,-0.1668506254384262,-0.03506093988052067,0.8253543226282373,0.398969700690178,-0.022412457999468404
2011-06-13,-0.17113502399729386,-0.06202212095392202,0.873498576120756,0.243101975683803,0.11655659314665692
2011-06-20,0.03388795542592489,0.027294445716175147,1.0,-0.16551119154880867,0.10432879040670864
2011-06-27,0.021917627719660663,3.1356290627771356e-05,0.9999999999999999,-0.004826560119234967,-0.017122423891053343
2011-07-05,0.1039631822909584,0.0007046460695019127,0.30263341948930994,0.29233565716006643,0.30036309499016334
2011-07-11,-0.12852342534664488,-0.036288182990555015,0.5445284433439322,0.4438887212079854,0.17639444378528227
2011-07-18,0.10850364554042272,-0.049062804189092195,0.9999999999999998,0.15328042404578018,-0.21272126539711042
2011-07-25,0.08575573393716665,-0.054246128167402485,0.5746981224228258,0.48493426767039116,-0.09114199586298104
2011-08-01,0.02441797014278527,0.015302920577047728,0.8726003198311144,0.06536118812057233,0.02231760132848029
2011-08-08,-0.04376550828440454,-0.013339867280503048,0.9999999999999999,0.049907911092957925,0.007197464471949706
2011-08-15,-0.02056070123418593,0.006857797647706462,0.9918084359627793,-0.014631183120566736,0.036525650744266926
2011-08-22,-0.0889176788751657,0.02761497333039678,1.0,-0.11406930712276775,0.17537201266753663
2011-08-29,0.0004972079135423371,-0.004859969482022057,0.8890239767066864,0.10777173920591918,0.0075670456558740865
2011-09-06,0.13416791416461352,-0.038354722905997396,0.9113225255077335,0.022891581305992805,-0.03002729807234242
2011-09-12,-0.08853289965563249,-0.05063039022091864,0.7253179962082449,0.43983821105191295,-0.025992917383606796
2011-09-19,-0.012771860209404415,0.007050100036605809,0.9999999999999998,0.0022671158267875084,0.0034546443460113994
2011-09-26,0.008476716390437216,0.009061563020907722,1.0,-0.0206268342789806,0.0030885548676355696
2011-10-03,-0.02635467157161775,-0.010398409882395442,0.9455928561351081,0.07667467447341536,0.014485550845489824
2011-10-10,-0.010149811762960504,0.010728795445557372,0.40530953590039676,0.4773498888847136,0.11676159153229271
2011-10-17,0.004566076905120674,0.0010390234903397565,0.9999999999999999,-0.026216662820363563,0.02061156242490335
2011-10-24,0.005262737674357717,0.0005271133443263993,0.9999999999999999,-0.010975084477772002,0.005185233459087991
2011-10-31,0.05396014805292955,-0.01700093821842296,1.0,0.001387769095741375,-0.03834697893024787
2011-11-07,0.10441718967771663,-0.048105597086436996,0.5589467585955096,0.503759073759836,-0.11901742494662523
2011-11-14,0.004964551394113586,0.001839413178611984,0.9995486856965597,-0.015629355127099558,0.009276704857814198
2011-11-21,0.07669107214997287,-0.0011244665933005525,1.0,0.007944235697121963,-0.08351084125379438
2011-11-28,0.12553195935945144,-0.03647245277232619,0.6353112200004932,0.4443773213826527,-0.16874804797027107
2011-12-05,0.04261535669197485,-0.017461189314647914,0.5225574734370613,0.47620025628402113,-0.02391189709840923
2011-12-12,0.01525935503703918,-0.0005838685908727268,0.826902358539595,0.14163450172118158,0.01678765329305685
2011-12-19,-0.020954608122703076,0.003965637605155266,1.0,-0.007000016062686426,0.02398898658023422
2011-12-27,-0.01125763623763727,-0.0072358652732242585,0.9999999999999967,0.012380700609436215,0.006112800901428696
2012-01-03,0.03910208249495501,0.033125667353986046,0.27614022038948666,0.36333405777851735,0.28829797198305496
2012-01-09,-0.17792296592813678,0.31147118656076284,0.8758857185031854,-0.09119245057098944,0.0817585114351779
2012-01-17,0.008988361248754928,-0.009796670847218688,1.0,0.01848231470244277,-0.017674005103979172
2012-01-23,0.07801952708451926,-0.0007414523615306754,0.3267332792970052,0.4325567640982495,0.16343188188175672
2012-01-30,-0.003822654649161341,0.005744049030588042,0.9948716788255793,0.0014839942273811337,0.0017229325780910368
2012-02-06,0.003211089854280876,-0.009827399975525716,1.0,0.037718284906299325,-0.031101974785054567
2012-02-13,0.2566789226603596,0.043793873779735884,0.8933401403106774,-0.23525944248804037,0.041446505737267575
2012-02-21,-0.00043781236518073503,-0.0022132664398476954,0.9999999999999998,-0.012390091647298254,0.015041170452326922
2012-02-27,0.20158147542633545,0.05176014124821404,0.5933937350230618,-0.30508091859188635,0.458345566894275
2012-03-05,0.15788765619648354,-0.001729391048106667,0.4682468013171858,0.4760452291030652,-0.10045029556862785
2012-03-12,-0.009850599879082558,0.0033531897210357306,0.9784558880647979,-0.005500145642472003,0.033541667735720995
2012-03-19,-0.042046446280495205,0.0004517278044484739,0.9219239551024556,0.07801400174932685,0.041656761624264224
2012-03-26,0.01757051710538421,0.014436213794022976,0.9999999999999997,-0.04568939504824727,0.01368266414884024
2012-04-02,-0.006127862503725295,-0.030026118286575917,0.47151859018893777,0.5031063699756368,0.06152902062572651
2012-04-09,0.0866352603013246,0.015535591191040721,0.4312590052565493,0.5275545399547018,-0.06098439670361648
2012-04-16,-0.012227160599626476,-0.003937195591154078,0.9829834890901421,0.03340493650016132,-0.00022406939952297934
2012-04-23,-0.08452739227622562,-0.037065051333624775,0.7033846602056915,0.4511826818940254,-0.03297489848986644
2012-04-30,0.016639489329603543,0.002468044847459219,0.9999999999999998,-0.009594409335060351,-0.009513124842002259
2012-05-07,0.001811446295698375,-0.015873898144559855,0.9999999999999998,0.07691717508525045,-0.0628547232363888
2012-05-14,-0.022335418716529443,-0.01252990411640299,0.4378055997790911,0.4577965368846841,0.13926318616915725
2012-05-21,0.006759742941831906,0.0017025034477141363,0.9408408499733587,0.05413639717031884,-0.003439493533223555
2012-05-29,-0.0038812584155916603,-0.008690013796819707,0.9431285268533522,0.08268028243787434,-0.013237537078815184
2012-06-04,0.079480009126498,-0.02869352450941967,0.45380774144855046,0.46416955350654726,0.03123622042782393
2012-06-11,-0.00569734022867247,0.007678166291682844,0.9966353928811305,-0.028187010785162392,0.029570791841021488
2012-06-18,0.01984284277595553,0.00027913496520760503,0.9357223046423031,0.05313960489586767,-0.008983887279333873
2012-06-25,0.02646850293928251,0.001857677561159518,0.9979330825813961,-0.00209283646929644,-0.024166426612541748
2012-07-02,-0.004998383290503682,0.0030794571511476186,0.986326321065236,-0.0009824045802381738,0.016575009654358347
2012-07-09,-0.0012073970809656552,-0.1138224807272308,0.4896369355668996,0.4550766668408875,0.17031627540040947
2012-07-16,-0.0034364462280075925,0.0012318338597840962,0.9999999999999998,-0.0010596296372109622,0.0032642420054346533
2012-07-23,-0.0015693005503274102,-0.006507509425558353,0.9696932751605702,0.05139887653243481,-0.013015341717119284
2012-07-30,0.0045360814194085955,0.0004099507253257073,0.9467511648021829,0.03623925341285261,0.012063549640230117
2012-08-06,-0.01086171414610347,-0.0006301906446738987,0.9204069143536882,0.053786676663537314,0.037298313773551924
2012-08-13,-0.10227492184960542,0.002619200626520131,0.8611039392147012,0.17398212132000024,0.06456966068838386
2012-08-20,-0.015116480477838413,0.005653737726190272,0.9999999999999999,-0.04218801435332218,0.051650757104970434
2012-08-27,0.023618780885504752,-9.420805997332022e-05,0.9253389234428773,0.08990350001266283,-0.03876699628107149
2012-09-04,-0.008193356522393065,0.003572573587164519,0.9950596215360298,-0.0005708355058169255,0.010131996905015761
2012-09-10,0.2753231709485007,0.03598434236252506,0.34611117568876726,0.3755130033488125,-0.03293169234860552
2012-09-17,-0.08381000580403036,-0.0011354483967393571,0.8899150103223272,0.02465917537462244,0.17037126850382014
2012-09-24,-0.028407751764459293,0.0008054694796385903,1.0,0.011291748536110051,0.016310533748710575
2012-10-01,0.029324894154462464,-0.03573281650528381,0.8838782027749167,0.3527267996586031,-0.23019708008269846
2012-10-08,0.09348763028036926,-0.004991804822924442,0.462986841832693,0.4982967382423207,-0.049779405532458465
2012-10-15,0.012770753081960212,-0.004162817529070372,0.9400227585226837,0.05834895153588084,-0.006979645549359238
2012-10-22,-0.09922323220129874,0.036704240426676055,0.9519172956332221,-0.11084250181295573,0.2214441979543563
2012-10-31,-0.001077604745956289,-0.017669298472578674,0.5117986262274185,0.5054882076418257,0.0014600693492907886
2012-11-05,0.07837956361795013,0.04023242598410767,0.26634678539459705,0.2865881465092096,0.3284530784941356
2012-11-12,0.03244945503855682,-0.011853693722654268,0.4708893914384653,0.49496362733906196,0.013551219906570197
2012-11-19,-0.02486652394389995,-0.0001327902757811861,0.5155817164051087,0.49106098144833027,0.018356616366242078
2012-11-26,0.003470276730438354,0.05079709074946996,0.4993375591312011,-0.04307891862750267,0.4894739920163932
2012-12-03,0.0219833279603521,-0.006412381819776974,0.9005621871807803,0.12677647955037832,-0.04290961287173373
2012-12-10,0.0022469614657197223,0.0020151277129149985,0.9999999999999999,-0.014379619150676667,0.01011752997204197
2012-12-17,0.002945809966708323,-0.0013386763183924908,0.920722497224613,0.07026784022871291,0.0074025288983582795
2012-12-24,-0.08200112524791447,0.003105536321507874,0.48757744481474347,0.489135274377606,0.10218286973405714
2012-12-31,0.04053196521409561,0.002986282909047898,0.6108114917222214,0.7009938551709615,-0.35532359501632627
2013-01-07,0.07207022728664307,0.021334966040115224,0.33391883029370206,0.4459716349488992,0.12670434143064044
2013-01-14,-0.007224359410845993,-0.030959398640126,0.9527770201816963,0.04997268213802655,0.035434055731249164
2013-01-22,-0.06529826410203271,0.02516927631144461,0.419686165249061,0.4573153332032462,0.16312748933828103
2013-01-28,0.04950171227509644,-0.24999719378569904,1.0,-0.07170601506112521,0.27220149657172704
2013-02-04,0.02715607131483983,0.0056589569836276565,0.7680924010333982,0.16770959345192743,0.031382977216206996
2013-02-11,-0.018483423225892963,-0.002510736238545154,1.0,0.03191607647200689,-0.010921917007568886
2013-02-19,0.06844607282784512,-0.010210968876697965,0.6557891819457926,0.4529340224661854,-0.16695830836312517
2013-02-25,-0.024576008488246776,-0.0075615791552453146,0.4363162911171787,0.48055722250893357,0.11526407401737986
2013-03-04,-0.005980513802399936,0.0008409632301880213,0.9803780266142859,0.009881472459506773,0.014880051498419285
2013-03-11,-0.003968055792176319,0.0038717268418527444,0.9999999999999998,-0.004496476985322429,0.0045928059356461414
2013-03-18,0.0017195338990837398,-0.002557586038879641,0.9400968639025421,0.03682397458016282,0.02391721365709095
2013-03-25,0.034452066926700664,0.021258065336938314,0.36054617433802216,0.1338983324627675,0.4498453609355713
2013-04-01,0.022059919988621352,-0.009122240627744435,0.9999999999999999,0.04348403175137517,-0.056421711112251874
2013-04-08,0.014418570654301292,0.02709145716561484,0.36239944714476535,0.43528773089048245,0.16080279414483617
2013-04-15,0.004558570668373965,0.005751951849979002,0.9087703620435043,0.08231841180652405,-0.0013992963683812875
2013-04-22,3.013849723175489e-05,-0.00044188405303647135,0.9999999999999999,0.0036075548153403515,-0.0031958092595355744
2013-04-29,-0.0016971658195201783,0.0026862768425947384,0.9718991014498198,0.016484634157930014,0.010627153369175617
2013-05-06,-0.038444258579011556,0.01626645905524347,0.9999999999999999,-0.17228240336650055,0.19446020289026883
2013-05-13,-0.0007078826224392934,-3.8551924259424045e-05,0.9783324985516431,0.017247092727350654,0.0051668432677051245
2013-05-20,-0.0064002698231393935,0.02181008511009967,0.5837902321334212,0.478935892848928,-0.07813594026930959
2013-05-28,0.005069866874736973,-0.008222803750648811,0.934307330582416,0.06553027827933079,0.0033153280141650803
2013-06-03,0.12768420780051917,0.03766396308442616,0.34980944630432814,0.47546806045038925,0.009374322360337337
2013-06-10,0.09806593631672517,0.01797429299986805,0.29123707164470075,0.3616128298903499,0.23110986914835602
2013-06-17,0.030099381358939928,0.011008775017960501,0.9999999999999999,-0.08831493759704533,0.04720678122014486
2013-06-24,0.008608331524849773,0.004289103422246414,0.8031692253296151,0.15445762482708136,0.02947571489620738
2013-07-01,0.005899355747725899,-0.007789597559833378,0.9999999999999999,0.07747484580372795,-0.07558460399162059
2013-07-08,0.1047593792106213,0.06744707326050328,0.2561639761168137,0.5369773294911792,0.03465224192088255
2013-07-15,0.07395302446449925,0.23659937566456024,0.3517406992820467,0.41146671248900435,-0.07375981190011054
2013-07-22,0.061005860462909,0.010115204414760418,0.3803494781780277,0.4810951666831075,0.0674342902611953
2013-07-29,0.04293573849612384,0.015837062430410928,0.39453681209513164,0.48604594294433684,0.06064444403399672
2013-08-05,0.01700332154032598,-0.013363510977423968,0.8318170479731605,0.27236383173559325,-0.10782069027165571
2013-08-12,-0.0017944420204809603,0.0025286087307279225,0.9656905343634886,0.0057620916001759,0.027813207326088423
2013-08-19,-0.003863090138417716,-0.0013758805491513879,0.9999999999999998,0.05261717489903352,-0.04737820421146441
2013-08-26,-0.016200604159104952,0.0021179546865484353,0.9564996581036458,-0.01130043349393667,0.06888342486284747
2013-09-03,-0.013150553546426486,-0.004970921934440377,1.0,0.0026376965955798425,0.015483778885287052
2013-09-09,-0.032899780373783494,-0.015023437387596324,0.9611641109706164,-0.062282420347696016,0.14904152713845942
2013-09-16,0.02297683388939496,0.024557112260583335,0.3422952578504125,0.45940611183127167,0.1507646841683376
2013-09-23,0.0013123640221943504,-0.0061473539520250225,0.8554215869941724,0.14207197722910006,0.007341425706558322
2013-09-30,0.07506116162791766,0.01685394453956664,0.419963037246602,0.48118813237463604,0.006933724211277727
2013-10-07,-0.003029883953924147,-0.0039477665659563435,0.9999999999999996,0.007720055540797185,-0.0007424050209162686
2013-10-14,-0.09000213423948876,0.03210127241383249,0.46815462067990865,0.4897686557510022,0.09997758539474541
2013-10-21,-0.0037935611746172417,0.0011987261441693858,0.9999999999999998,-0.005642202166143178,0.008237037196591237
2013-10-28,0.016650858495710342,-0.016697919052980712,0.7673495510594986,0.3459753238324745,-0.1132778143347028
2013-11-04,0.06305691063636427,-0.012484725414155908,0.3985718166855601,0.47897979247079586,0.0718762056214357
2013-11-11,-0.0006173484241331227,-0.0034596028733879535,0.9293977100625481,0.0698768685767586,0.004802372658214262
2013-11-18,-0.031835466910249875,-0.03315513682290134,0.5558848256839659,0.4904944387222315,0.01861133932695395
2013-11-25,0.02803389563871559,-0.01755335531900908,0.9999999999999999,0.0737758590876094,-0.08425639940731575
2013-12-02,-0.07481067603305229,0.06492758151610657,0.4072543465335464,0.46366498504687653,0.13896376293652285
2013-12-09,-0.005805467457615561,-0.0005081367177973546,0.8653923946272137,0.10867986364107693,0.03224134590712227
2013-12-16,0.06606016938891848,0.020537233414602236,0.48635477476071826,0.49645096452482645,-0.06940314208906546
2013-12-23,-0.006496821647232234,0.008516112626043012,0.8164732113164608,0.10931086255548571,0.07219663514924271
2013-12-30,0.11153525711419392,0.055217882324129136,0.5615387102896192,-0.00010941753005630637,0.2718175678021141
2014-01-06,-0.05269903208106249,0.027458473741895698,0.4490420745225608,0.4839597941061615,0.0922386897104446
2014-01-13,0.0789591946258527,0.05132914720225071,0.5177525999061763,0.35375830774193545,-0.0017992494762149717
2014-01-21,-0.019297670970819032,0.0039766978065335495,0.9016492911855916,0.12399234084024918,-0.010320658861555195
2014-01-27,0.08013583811136385,-0.02371948183249335,0.6692777271384506,0.4104943376293992,-0.13618842104672021
2014-02-03,0.020509660283577907,-0.01605100096086197,0.5477235589165788,0.4981112948286386,-0.050293513067933254
2014-02-10,-0.018305908733386857,0.004525454043571627,0.9506137967245152,0.033631434637660884,0.029535223327639075
2014-02-18,0.0004260306438554362,0.002241409634006376,0.867895699026219,0.13409313140337217,-0.0046562707074529214
2014-02-24,-0.0823856192843847,-0.030852848111483127,0.5434458034833723,0.4800860021642284,0.08970666174826715
2014-03-03,0.004233866636641274,-0.006971882640847805,1.0,0.009853876178503444,-0.007115860174296889
2014-03-10,-0.07449423182021928,0.020143207638468878,0.9999999999999998,-0.06439343022402155,0.11874445440577225
2014-03-17,0.006974750106162599,0.008237289057922209,0.4197066731053663,0.4853151921856967,0.07976609554485223
2014-03-24,-0.03321020738380402,0.002652502042375865,0.9999999999999999,0.047138727032084715,-0.016581021690656516
2014-03-31,-0.06442847083173635,-0.012281241065318645,0.5052827334813912,0.4947769933998925,0.07664998501577142
2014-04-07,-0.0035192804068612965,0.05011814944708949,0.8035772842840894,0.05277853082053112,0.09704531585515147
2014-04-14,0.056684591993482795,-0.0017544378830542083,0.6814975239052894,0.27676936624655646,-0.013197044262274367
2014-04-21,-0.043561853049984056,-0.028932949086450714,0.6458005174704726,0.4842978329776614,-0.05760354831169916
2014-04-28,-0.00411800514534162,0.02964894575594061,1.0,-0.06308179148772552,0.03755085087712641
2014-05-05,-0.026247982929992926,-0.041783525394189544,0.6904947952572704,0.3831149037125253,-0.00557819064561342
2014-05-12,0.09217124082809634,-0.012401972785669554,0.9999999999999999,-0.04121579757236712,-0.038553470470059546
2014-05-19,-0.0030676151969334983,0.0014802161889354733,1.0,-0.014719186075834624,0.016306585083832516
2014-05-27,0.1673073645321012,0.00425718175139469,0.3503516912446445,0.463901080814742,0.014182681657117682
2014-06-02,-0.04217396835749491,-0.10331294546958544,0.7861954515170025,0.35599223190385976,0.0032992304062180984
2014-06-09,0.11598291884797467,-0.001601252305116083,0.4987884081291719,0.40738683070625964,-0.020556905378290153
2014-06-16,-0.022627922582675975,-0.005758125621047086,0.9766235383357054,0.0813924701311297,-0.029629960263112015
2014-06-23,0.012079009169744257,0.010122818120204387,0.7666293592294108,0.1547718147380571,0.05639699874258356
2014-06-30,0.005645371528275982,0.0015072754793083343,1.0,-0.02014517381684525,0.012992526809260848
2014-07-07,-0.4232323859469925,0.1325451774824025,1.0,0.5277942951121096,-0.2371070866475197
2014-07-14,0.15450021206056178,0.07951200347466245,0.25989534196989267,0.35927600823609623,0.14681643425878688
2014-07-21,0.005092015557521144,0.0024705836405034915,0.6857648942531199,0.2538270834693947,0.05284542307946056
2014-07-28,0.005382832740304661,0.0021400905344165417,0.8795207208834475,0.06928098427590468,0.043675371565926796
2014-08-04,0.10823227324233306,0.015602963197381593,0.40464680729425156,0.38419191646207623,0.0873260398039575
2014-08-11,0.0037984500742711254,-0.02506508720386179,0.6140355282008044,0.5302447671430566,-0.12301365821427046
2014-08-18,-0.026683472675260184,0.005083712520898321,0.541024453783394,0.4867131001703011,-0.006137793799333236
2014-08-25,-0.0023825918052443732,-0.010062655507446472,1.0,0.07198187045992824,-0.059536623147237414
2014-09-02,-0.005665016779532278,-0.03347930686610985,0.8892166517239273,0.28474803558447137,-0.13482036366275665
2014-09-08,0.16429911549699136,0.08262857872978989,0.2378692073830733,0.3180948268344504,0.19710827155569502
2014-09-15,-0.0071879225735620444,0.005168863769968654,0.9910557876437431,0.03515093449530731,-0.024187663335457153
2014-09-22,0.13039555772476918,0.06742933835991365,0.2513255061113754,0.22100436160095865,0.32984523620298317
2014-09-29,-0.010386319937450879,0.0020838940743126543,0.9188201010602198,0.04505647800890733,0.04442584679401109
2014-10-06,0.11470169462847708,0.010626714706501202,0.3848862078963131,0.45938095542373497,0.030404427344973575
2014-10-13,-0.0008170110202234508,0.003553051271235713,0.9417928844584035,0.03975792924168761,0.015713146048896745
2014-10-20,-0.03465941126350478,0.0023810350966961447,0.9703328696744853,0.09830186614281954,-0.03635635965049622
2014-10-27,0.037991341650739585,0.011037134653939676,0.8046233015788337,0.10143006043680232,0.04491816167968474
2014-11-03,0.012016230389084457,-0.0017678274367412211,0.8891310678102446,0.12436958183070367,-0.023749052593291423
2014-11-10,-0.0030075710024172206,0.004435728354750256,0.9400092801266313,0.057017408298423555,0.001545154222612085
2014-11-17,-0.009812974570497669,0.020920446294968937,0.9126930706547918,-0.03484695605174752,0.11104641367248451
2014-11-24,-0.06071363524774869,0.06508725578378084,0.4035765700570128,0.12902645385820855,0.4630233555487466
2014-12-01,-0.010172666187254622,-0.05127244540069716,0.732381338945611,0.43240160782537485,-0.10333783518303408
2014-12-08,0.057672926642919405,0.04738296179919761,0.26886783879190346,0.31407494264586244,0.31200133012011716
2014-12-15,0.009475634204285214,0.003451783249247036,0.8452569771772188,0.14348110630246172,-0.001665500933212803
2014-12-22,-0.00764405799481507,-0.0021168850466710904,0.9683556503485694,0.022460601190952726,0.018944691501964057
2014-12-29,0.06723951761663208,-0.05962067930778678,0.34114565663353347,0.41383743423642666,0.23739807082119455
2015-01-05,-0.01567517009888224,0.01015923575944541,0.6078401925890132,-0.058925373548952484,0.45660111529937597
2015-01-12,-0.01217926805772398,0.010634498539280059,0.9218425905336414,0.027378099553302712,0.05232407943149975
2015-01-20,0.009852366848408739,0.003846870158422184,0.9571684792051519,-0.06653600729978171,0.09566829108779884
2015-01-26,0.09831991273426831,0.06294811481156402,0.35199263751753235,0.023700054842647148,0.46303928009398815
2015-02-02,0.003718917947641518,-0.008562719560500138,1.0,0.046158105798061344,-0.04131430418520268
2015-02-09,-0.008518155411039337,-0.012022872251605076,0.3405774148307574,0.3914316954023053,0.2885319174295818
2015-02-17,-0.036089405092742936,0.01868661702049944,1.0,-0.07367326061408763,0.09107604868633111
2015-02-23,-0.05335503774732164,-0.013257920852690184,0.9571881654538507,0.25153555716325215,-0.142110764017091
2015-03-02,0.024343165291904865,-0.0003685681401646743,0.8599834736205095,0.0768353629590594,0.039206566268690755
2015-03-09,-0.03543516932881693,0.006717253844465478,0.9999999999999993,-0.06964778382819302,0.09836569931254502
2015-03-16,-0.0489492179921735,0.027097539994177078,0.36304186480007755,0.2674840841797898,0.3913257290181291
2015-03-23,-0.014525073341533206,0.0088028328555432,0.7653164517409623,0.07847847816110898,0.1619273105839187
2015-03-30,0.12529783202285474,-0.02304258376265488,0.9067501669799775,0.23319591318152383,-0.2422013284217011
2015-04-06,0.06495655059433865,0.03192634852490952,0.3460806510728571,0.09127508303897762,0.4657613667689171
2015-04-13,0.026918958981926602,0.008427461950821868,0.7178413635993782,0.17036055685669177,0.07645165861118172
2015-04-20,-0.06160091387002521,-0.029847957880531326,0.8426965923701549,0.36492728400233254,-0.11617500462193085
2015-04-27,-0.011910320190444051,-0.009997164759300231,0.9999999999999998,0.0574073541443855,-0.035499869194641084
2015-05-04,0.03250455986246675,0.011348804169517838,0.6973619364348551,0.42581499100846176,-0.1670302914753015
2015-05-11,-0.058441976669996586,0.0076978298320602686,0.8905112459564738,0.11383477018254946,0.04639813069891307
2015-05-18,0.1404244060413139,-0.02513887801984724,0.4981161225360683,0.4747170971723665,-0.08811874772990143
2015-05-26,0.0324099944285717,-0.023940626591673706,0.8289777538986081,0.22307267778427664,-0.06051979951978254
2015-06-01,0.0787144437525507,0.08145081029992542,0.588635860517046,-0.2794254333401949,0.5306243187706728
2015-06-08,-0.0652207941956036,0.030213790283040335,0.8116735833057525,-0.0707363437379463,0.2940697643447572
2015-06-15,-0.022488015420657398,-0.00020427490577302817,0.9999999999999999,-0.01376414888990935,0.03645643921633946
2015-06-22,0.04706525710930319,0.02428225514796066,0.2911336698669975,0.343260858688079,0.2942579591876597
2015-06-29,-0.08946206263991398,0.0012327752986375944,1.0,0.13554099841370634,-0.047311711072429895
2015-07-06,0.065431967270488,0.004404636228217348,0.5293967460040359,0.5066456984347703,-0.1058790479375115
2015-07-13,0.004017716942436437,-0.002676872631320055,0.961316716745943,0.004922418017600279,0.03242002092534033
2015-07-20,0.004209159246277795,0.002891229235330765,0.8902310656714111,0.08309429419545236,0.0195742516515279
2015-07-27,-0.003881977064438534,-0.0017221149639932748,0.9521211613156014,0.029574615563978498,0.023908315148851854
2015-08-03,-0.012558669408552665,-0.004792699369632349,0.9491814295221931,0.10524407820386615,-0.03707413894787408
2015-08-10,0.02048899477200281,-0.0071704205390469965,0.7525784700567183,0.25424565239834307,-0.020142696688017086
2015-08-17,-0.008499576226445222,-0.004690448870547141,1.0,-0.031392949435465375,0.04458297453245775
2015-08-24,-0.0013104699487228024,-0.0056746674175136465,0.9999999999999997,0.06874921856762295,-0.061764081201386094
2015-08-31,0.0006854266289940141,0.004954619432321184,0.8425513005047014,0.1649432327497045,-0.013134579315721002
2015-09-08,-0.017220129926998333,0.00472822909034446,0.9999999999999999,-0.025291279135644665,0.03778317997229867
2015-09-14,0.02860267196861794,-0.004589348598627699,0.5725077521916111,0.4331794687995643,-0.029700544361165565
2015-09-21,-0.028124371982053482,0.02104246537619023,0.7491114533719562,0.10035170900921375,0.15761874422469332
2015-09-28,0.06417673809772519,-0.020791839565267766,0.7977959362567082,0.4223860539949304,-0.2635668887840961
2015-10-05,-0.01768132678587534,-0.006372050106597076,1.0,0.022940046402898324,0.0011133304895740387
2015-10-12,0.01888918290578161,-0.029217485123780074,1.0,0.06499833307562547,-0.054670030857626964
2015-10-19,-0.00976696369070849,-0.0004964727535938733,0.9350107930809795,0.06550687749343134,0.009745765869891435
2015-10-26,0.011944893759809483,0.0046529461822477965,0.9713964236199851,-0.0069020622740116975,0.018907798711969452
2015-11-02,-0.03303873131380883,0.04190197717557353,0.5369003525636448,0.4902437348337717,-0.03600733325918121
2015-11-09,0.01629500393819586,-0.0025054621243918067,0.7996479329924433,0.11896577586293774,0.06759674933081487
2015-11-16,0.009408112045561669,0.024091393856930564,0.3888890853169106,0.4514771657706288,0.12613424300996834
2015-11-23,-0.0020524334536086686,0.008976845022309344,0.9071644446501981,-0.015118489313641851,0.10102963309474314
2015-11-30,0.023186142726287585,-0.0006831836943542755,0.5951209919853508,0.4370378496465999,-0.05466180066388408
2015-12-07,-0.008601842321804378,0.001415684271524595,0.9922855894450748,0.021176018203171557,-0.006275449597966584
2015-12-14,-0.0037268668807915128,-0.0047101372898890196,0.9924945273250373,-0.004920829948633521,0.02086330679427674
2015-12-21,0.025064240041578045,0.05651383575717245,0.30926461344477396,0.17584246853992597,0.43331484221654953
2015-12-28,0.04087269101848596,0.00029055660553782813,0.8727361084293983,-0.12645451610764857,0.21255516005422648
2016-01-04,-0.02834094310528566,0.006615584310641622,0.7228199566957486,0.2435679634422307,0.05533743865666474
2016-01-11,0.011174861188236032,-0.005665278151199616,0.9999999999999954,-0.017258562039135797,0.011748979002103881
2016-01-19,0.06476146734074661,0.004379834404559333,0.4320009428157864,0.48279194728661295,0.016065808152294758
2016-01-25,-0.002686680472433295,0.03078602806219324,0.33406790311587686,0.4045156352623215,0.23331711403204172
2016-02-01,-0.000837048761555615,0.006576032886314047,0.9999999999999998,-0.01756911545084893,0.011830131326090919
2016-02-08,-0.01685625792751204,-0.044159459160242415,0.95425685062575,0.134256024667515,-0.027497158205510595
2016-02-16,-0.008481373952093519,-0.009830774266515447,1.0,0.016832771654906698,0.0014793765637023694
2016-02-22,-0.005745587090965978,0.05044258337743339,1.0,-0.10384382200779282,0.05914682572132535
2016-02-29,-0.028341762706433463,-0.00027226304776792245,0.9999999999999999,0.04771462954322539,-0.019100603789023875
2016-03-07,-0.01993290513036618,-0.0017257740170010276,1.0,0.0013246926365646505,0.0203339865108024
2016-03-14,0.029298017744089484,0.010881607567066432,0.7772332184905132,0.11331877454110074,0.06926838165723027
2016-03-21,-0.02710597997392315,-0.019688827879919636,0.9999999999999998,0.10300875868813167,-0.05621395083428862
2016-03-28,0.04274411734316539,-0.0007517273076281252,0.6855987668378742,0.4032468508513828,-0.13083800772479423
2016-04-04,-0.007721921151996812,0.020837137259063648,0.3040012139146648,0.43773740953619833,0.2451461604420701
2016-04-11,-0.0062421971461268525,-0.018598418786773232,0.6682378825966182,0.4333468101304512,-0.07674407679416935
2016-04-18,0.02140996074132882,-0.013952735216665587,0.7469745609911411,0.3548002667293674,-0.10923205324517168
2016-04-25,0.02895940201602156,-0.006474720292884078,0.797162775328417,0.1444879557927316,0.03586458715571394
2016-05-02,0.033858785315857946,0.01899966631527453,0.44709901991469253,0.49829918193958683,0.0017433465145880779
2016-05-09,-0.015397893919053603,-0.016881196760081964,0.999568826517302,0.03127390179129518,0.0014363623705384524
2016-05-16,0.015940719328345145,-0.00502808212783723,1.0,0.05607295155967479,-0.06698558876018275
2016-05-23,0.02472529795892293,0.011145629580515265,0.4281341454456166,0.45680167938548694,0.07919324762945816
2016-05-31,-0.00906310433689908,0.006216067617412427,0.9351110346983774,0.032884232597302485,0.0348517694238067
2016-06-06,-0.012712755070032146,0.0017747016065096332,0.9999999999999999,0.02044268327170719,-0.00950462980818487
2016-06-13,-0.0004718761871479823,0.004808684338279607,0.9746186337044007,-0.022534124996720195,0.04357868314118798
2016-06-20,-0.01841030598622195,-0.0001329334002505864,0.9999999999999999,0.033778633615301853,-0.01523539422882923
2016-06-27,-0.02649464140365841,0.0030581805630073232,0.9733445082170963,0.0035971705547944094,0.046494782068760364
2016-07-05,0.11551869948319618,-0.03839987436983495,0.4016148201096469,0.46215291901563865,0.05911343576135328
2016-07-11,0.022132150553627584,0.07453283469741939,0.5355627974335895,-0.1893267486276975,0.5570989659430611
2016-07-18,-0.0031054964420891657,-0.02828379530019871,0.7844504141308032,0.16542808148125707,0.08151079613022756
2016-07-25,-0.010124099398141597,0.01641818332443218,0.6202562744146165,0.3318173753386758,0.04163226632041724
2016-08-01,-0.009783414098246465,0.00399437279309173,0.9445531014138424,0.05759803448714651,0.003637905404165754
2016-08-08,-0.04655546641531857,0.017311044849414776,1.0,-0.05453922920120726,0.08378365076711097
2016-08-15,0.355248047937812,-0.12117852327727884,0.48440866396577414,0.16146241040349338,0.12005940097019932
2016-08-22,0.1386209853506374,0.019927491551573397,0.5013108335553386,0.46445738981247336,-0.12431670027002262
2016-08-29,-0.029463978583721635,0.05368457238804682,0.5617103106951262,-0.016566927520604943,0.43063602302115345
2016-09-06,-0.02047729100328603,-0.0029176754029243157,0.7261500933697429,0.05109324074440376,0.24615163229206377
2016-09-12,0.012081624335696579,0.01696635778791953,0.3197301663758437,0.4020745662289251,0.24914728527161492
2016-09-19,0.08743601596851282,0.029490339574569258,0.2791354729307143,0.3795819449786013,0.2243562265476023
2016-09-26,0.008346116654090543,0.02201838321873126,0.781080763598679,-0.09062448637716157,0.2791792229056609
2016-10-03,-0.023137581866591907,-0.01218652527587536,0.9999999999999998,0.17662271447734954,-0.14129860733488217
2016-10-10,0.0008899967615038622,0.0037962590239995074,0.8317176681585061,0.11806336513237822,0.04553271092361228
2016-10-17,-0.025387717856671967,0.010459581779521753,0.9831030075130833,-0.07520241429919677,0.10702754286326366
2016-10-24,0.05910662743191817,0.023699010597625986,0.4436322402471749,0.515431697140322,-0.04186957541704109
2016-10-31,-0.0037817882829782484,-0.0033828908185902107,1.0,0.004713858937727455,0.0024508201638406167
2016-11-07,0.0041859913122172365,0.004748176691237106,1.0,-0.01621907162575023,0.007284903622295846
2016-11-14,0.012888017601490569,0.0012644509137359854,0.9734513613796637,0.01889963901946064,-0.006503468914350917
2016-11-21,0.0030753104038759105,-0.001324914471385962,1.0,0.041061328245811574,-0.0428117241783016
2016-11-28,0.008728936926769008,-0.016442561293257274,0.9592988313758204,0.09517834650782442,-0.046763553517156595
2016-12-05,-0.019940436367736385,0.008965335778146908,0.9999999999999999,0.027377152615592888,-0.016402052026003505
2016-12-12,0.007164436578553775,-0.0027834642858279965,1.0,0.02671665077433443,-0.031097623067060157
2016-12-19,-0.02975423328528834,0.010413671116637794,0.9999999999999999,-0.013619426122052542,0.03295998829070309
2016-12-27,-0.01108648954943227,0.020913763269463665,0.8941499570540326,0.08351473307122012,0.012508036154715936
2017-01-03,-0.00461564589198505,-0.06544949706546208,0.7055702208472406,0.3773240287355221,-0.012829106625315586
2017-01-09,-0.04270022466523242,-0.006377091411686324,0.48262483452961163,0.10311119580782925,0.46334128573947786
2017-01-17,0.16346094178766563,-0.02375648166886955,1.0,-0.07814465782658303,-0.061559802292213285
2017-01-23,0.1078397176051249,-0.0026450701850721237,0.31191645662300155,0.15841027881216024,0.4244786171447855
2017-01-30,-0.013683101661068266,0.03244744384319641,0.31774612708685795,0.314598918980938,0.34889061175007596
2017-02-06,-0.036028791072110496,0.0029797320445531976,0.9400236706807735,-0.06813152798306878,0.16115691632985246
2017-02-13,0.026066085221520062,-0.03687308991639253,0.8628316088132849,0.0915421174332482,0.05643327844833929
2017-02-21,0.11091710836942976,-0.00849611292254901,0.3059677709242709,0.3879525960757947,0.20365863755305358
2017-02-27,0.13734053363774465,-0.0325768578892706,0.8678527511873027,-0.15324903915065868,0.1806326122148819
2017-03-06,-0.0030451468669259593,-0.00031121651953175644,0.9020882119521597,0.0885722363181285,0.01269591511616953
2017-03-13,-0.019351687945958332,-0.020567383192939923,0.48332950509900824,0.16215531451761814,0.39443425152227196
2017-03-20,-0.020400579540693024,-0.014975009599053008,0.9374437630538239,0.10501225708784086,-0.007080431001918913
2017-03-27,-0.026952147643232508,-0.0006086618536904368,0.9999999999999999,0.04631405494954707,-0.018753245452624086
2017-04-03,0.10910749892289824,-0.019724592706143768,0.5704349915192803,0.475587594320558,-0.13540549205659283
2017-04-10,0.026367732523958732,0.000991084294073005,0.7961303746919631,0.27308652105814885,-0.09657571256814361
2017-04-17,0.019188739676398725,-0.05731694723733121,0.5184694579525574,0.027950526717335885,0.4917082228910394
2017-04-24,-0.01329048631302632,-0.011768292493770371,0.9468471539460872,0.11492211182873,-0.03671048696802036
2017-05-01,-0.0077638317360721855,-0.0009597779224706339,1.0,-0.042881796167863154,0.05160540582640582
2017-05-08,-0.016053003784981784,-0.007974777831783771,0.9228815184022928,0.09521281302503533,0.005933450189437311
2017-05-15,-0.001723953782238995,0.0007408155333483689,0.879077018613242,0.14010661278706238,-0.018200493151413633
2017-05-22,0.006858770580963322,0.001131616410434321,0.8750341903755503,0.08113629873645378,0.03583912389659831
2017-05-30,0.007145484414146918,-0.008921956387826802,0.754865341687772,0.21546572137266878,0.03144540891323915
2017-06-05,0.13694531905023308,0.03002378559459395,0.28542989219595505,0.4646871569942177,0.08291384616500022
2017-06-12,0.02657028076573818,0.020808362359669926,0.43613912842241637,0.47857628721625145,0.037905941235924015
2017-06-19,0.0049272008768883975,0.05462249691046711,0.3972492773376163,0.09245133290042393,0.45074969197460435
2017-06-26,0.031265581788165464,0.006314782750717642,0.7802834892449113,0.16556004729560633,0.016576098920599136
2017-07-03,0.009106461452540258,0.004712004583883392,0.9897584606873345,0.004147373734014494,-0.007724300457772793
2017-07-10,-0.10287998428932234,0.031985259395115484,0.39572952726551225,0.40679317147175914,0.2683720261569354
2017-07-17,-0.0015315788392849248,-0.0059535241683494,0.9946763164860816,0.06653605463843569,-0.05372726811688303
2017-07-24,0.4062707105429208,-0.04313360904505498,0.36037486390839474,0.25111265344096817,0.025375381152771284
2017-07-31,0.04888785673736123,0.06090715705690727,0.2799848061419912,0.42551393062757853,0.18470624943616182
2017-08-07,0.040987627498376845,0.0031350454388424805,0.8936259576210293,0.12360168552477199,-0.061350316083020495
2017-08-14,-0.04302347605047611,-0.007904408821741064,0.9372195457960272,0.22017197448146664,-0.1064636354052767
2017-08-21,-0.1276668429301079,0.027136668605035167,0.5967085840749978,0.04879309153911815,0.4550284987109568
2017-08-28,0.028067312269914543,-0.0032460958281624822,0.8605168813285549,0.22432278382000487,-0.10966088159031186
2017-09-05,0.10958880843741245,-0.006587417534132401,0.392526880537644,0.5053075756303731,-0.0008358470712971152
2017-09-11,0.1172543378659319,-0.01979405152863768,0.5588394156285659,0.5151791724004794,-0.1714788743663394
2017-09-18,-0.004378999410357093,0.002466563243329805,0.95295419568223,-0.008544202804415412,0.05750244328921264
2017-09-25,-0.02329222754904038,0.005754689656109831,0.9739185641217608,0.06777129584610228,-0.02415232204492626
2017-10-02,-0.00955284472959458,0.001939575586906146,0.9999999999999999,-0.010737920113367376,0.01835118925605603
2017-10-09,0.043186125662732576,0.01032842244455994,0.5858155592423568,0.1265750653442818,0.23409482730606893
2017-10-16,0.04885740033038005,-0.004995986531994726,1.0,0.07593141417819606,-0.11979282797658138
2017-10-23,-0.04966800280785911,-0.0038326522097692187,1.0,0.019758666985967784,0.03374198803166044
2017-10-30,-0.006738360629734479,0.0033940827841789987,0.9999999999999998,-0.0006870595334450172,0.004031337379000612
2017-11-06,0.03066749012115417,0.005635913175880885,0.685015863897779,0.2100240788179945,0.06865665398719134
2017-11-13,-0.029148370008044076,-0.00327709397811123,0.9999999999999999,0.03682623573511262,-0.004400771748957293
2017-11-20,0.0730440845190357,0.005866933037016821,0.909857622572267,-0.05773947232516028,0.06897083219684086
2017-11-27,-0.00954991471696768,0.046965324310198064,0.3084619054512159,0.3970736306701709,0.25704905428538277
2017-12-04,0.011385260251754518,0.007480179523111965,0.9999999999999998,-0.02393298333167282,0.005067543556806623
2017-12-11,0.04371167829107523,0.009957382293240185,0.39350185453289926,0.50920698524697,0.043622099635815446
2017-12-18,0.029957275124100506,0.015592667181100646,0.3332921146302039,0.4350266584258249,0.18613128463877007
2017-12-26,-0.09737196026067191,-0.009590308161244001,0.824929247081971,0.2825918933635846,-0.0005588720236396941
2018-01-02,0.030691238994048107,-0.0040324721536822835,1.0,0.009756387151861326,-0.036415153992227105
2018-01-08,0.13737329855411615,0.004777086105481652,0.44618882289536266,0.4826145528614546,-0.07095376041641502
2018-01-16,-0.002903528961786065,0.006522982415187131,1.0,-0.014546402908027221,0.010926949454626116
2018-01-22,0.0019918118255760372,0.007286623362623797,0.8117300982965017,0.35182184215511114,-0.17283037563981263
2018-01-29,0.11661610010036855,-0.02548722483684882,0.6537731515986593,0.49172546991508387,-0.23662749677726286
2018-02-05,-0.18270788978830027,-0.022765869474967983,1.0,0.08881362344061439,0.11666013582265368
2018-02-12,-0.061709828887197095,-0.003432179867404015,1.0,0.10062454756771484,-0.035482538813113605
2018-02-20,0.07722102918011561,0.010014935727658467,0.7357840655216714,0.14759764294229416,0.029382326628260517
2018-02-26,-0.005548261803981785,0.00047002026653626943,1.0,0.005744616736463146,-0.0006663751990177972
2018-03-05,-0.013639507337887968,-0.006773530290171513,0.9999999999999999,0.06446063147262229,-0.044047593844562895
2018-03-12,0.002721057605240046,-0.0029038814072934018,0.9999999999999999,-0.020779189771053152,0.020962013573106484
2018-03-19,0.03571754174204691,0.014303219922151677,0.5393294244024561,0.47350635816253356,-0.0628565442291883
2018-03-26,0.12501975531116907,0.029891870089729808,0.39720405554668087,0.25534223476852363,0.19254208428389663
2018-04-02,-0.0503897372262057,-0.010043650317603244,0.9999999999999998,0.04810100564550751,0.01233238189830159
2018-04-09,-0.20998155145960887,0.03843518557687692,0.6206851166775563,0.42476498896167614,0.1260962602434995
2018-04-16,-0.005785939236489142,-0.004487652575164646,0.9999999999999998,0.003276022659641005,0.006997569152012783
2018-04-23,0.003263435455316083,0.009015478498580193,1.0,-0.028571062472391405,0.016292148518494677
2018-04-30,-0.013077619579147064,0.0002453858415156408,0.9999999999999998,0.016433620199824486,-0.003601386462192718
2018-05-07,0.14758411361606738,0.04792361484582837,0.2919213165085874,0.14228275572413643,0.3702881993053805
2018-05-14,0.010894758902556713,-0.00631476035085406,0.9641363179110739,0.01853574569652313,0.012747937840700396
2018-05-21,-0.027833681019845985,0.003344594656011096,0.900314540680793,0.06264964360442618,0.06152490207861575
2018-05-29,0.012711381309391447,-0.009275385510636742,1.0,0.12177236055146357,-0.12520835635021849
2018-06-04,-0.0436749789788526,0.003524491410515934,0.9999999999999999,-0.23661561053479083,0.27676609810312763
2018-06-11,-0.03369591341697006,-0.028296156422848794,0.5962984194167675,0.5540975778857621,-0.08840392746271074
2018-06-18,0.012257167349077306,0.009114979661375543,0.984784123001594,-0.06654932823932475,0.06039305822727784
2018-06-25,-0.01507487570656847,-0.003272411805106432,1.0,0.0004435721659462395,0.017903715345728547
2018-07-02,0.008507334309529112,0.00019319219423694385,0.9999999999999998,-0.019840486474335506,0.011139959970569642
2018-07-09,0.04689419586164093,-0.010926410630987243,0.6851592052884671,0.30051990401881085,-0.021646894537931557
2018-07-16,0.022512653653524676,-0.0265993736293371,0.6322599703026633,0.4558980996314043,-0.0840713499582551
2018-07-23,0.07695146090996292,0.01032394395572538,0.790598283168521,0.09709891814439185,0.02502739382139896
2018-07-30,0.013341182684714736,0.03998184406876344,0.36500387889399044,0.46631290708422024,0.11536018726831117
2018-08-06,0.05770576248971132,0.012867706597291508,0.5216530247119678,0.4387109970277581,-0.030937490826728913
2018-08-13,-0.01910327118045365,-0.009930144844420383,1.0,0.06840825801334469,-0.039374841988470695
2018-08-20,-0.009698869845321662,0.003163944187532105,0.8749165733876683,0.025658762204565425,0.10595959006555589
2018-08-27,0.024390906274613117,0.010295522914687303,0.8766631294047557,0.09154021306631205,-0.0028897716603681445
2018-09-04,-0.052707058298043764,-0.002141038702821906,0.9999999999999998,-0.051126002763530715,0.10597409976439659
2018-09-10,0.05114405415656528,0.0036616046019001883,0.5089173332574672,0.5355218615863095,-0.09924485360224225
2018-09-17,0.062026313711739424,-0.047278582820224194,0.9546352034466186,0.1781729740005443,-0.14755590833867807
2018-09-24,0.013494823509727603,-0.00033506174807122557,0.9421329459703973,0.05559904519178008,-0.010891752923833731
2018-10-01,0.005545878185154251,0.009982481878078415,0.8703598934405276,0.10476818118244245,0.00934356531379727
2018-10-08,-0.032261797485436824,-0.005533971897828704,0.7873186572424788,0.31449563115099016,-0.0640185190102034
2018-10-15,0.018500391160782424,-0.008403988943319498,0.8953352543218576,0.15046173438952126,-0.05589339092884168
2018-10-22,0.08247727432783528,-0.05849159225838631,0.7767187381571241,0.4582755926610681,-0.25898001288764116
2018-10-29,0.005936448758253752,-0.005573234722482673,0.9207368538057632,0.06968086465567983,0.009219067502785925
2018-11-05,0.021430339594018605,0.057128348462352894,0.960199914201493,-0.15726283806593477,0.1185042358080703
2018-11-12,-0.03553100306583731,0.006853071431331719,0.7314988233415252,0.22438250406322918,0.0727966042297513
2018-11-19,-0.01187184107514456,-0.0003286347864325908,1.0,-0.003371313054202155,0.015571788915779233
2018-11-26,-0.002731874066940851,-0.021996953324780463,0.6270107485166025,0.45929090012314316,-0.06157282124802435
2018-12-03,-0.018106367576856033,0.0021801610646520865,0.9999999999999999,-0.0032015497963779616,0.01912775630858198
2018-12-10,0.28468164854163996,0.05064265149080964,0.18185244118899185,0.24759920347763975,0.23522405530091883
2018-12-17,-0.06107315201564808,0.0036713297280520805,1.0,-0.0398222762859626,0.09722409857355832
2018-12-24,0.01499563717944864,-0.012935884492426806,1.0,-0.019224673308826858,0.01716492062180493
2018-12-31,-0.008729064403086071,0.028481878111202244,0.4948982899624232,0.4724174243413332,0.01293147198812748
2019-01-07,0.17834635720167563,0.03459273874374045,0.2564465100011631,0.34740065929163766,0.18321373476178318
2019-01-14,-0.0077715813417319765,-0.01117415205940119,0.908718673050928,0.027709531896229118,0.08251752845397609
2019-01-22,-0.008105315663697779,-0.01447396627698149,0.7569969750941081,0.35494695742708976,-0.08936465058051866
2019-01-28,0.21154339693177876,-0.03260085829671258,0.5721627183155036,0.43518768508957956,-0.1862929420401494
2019-02-04,-0.11463745582641295,-0.009666197670939097,0.8916467244365742,0.27609404141695626,-0.04343711235617838
2019-02-11,0.04279726261764248,0.0010159311646329122,0.47662565756420383,0.48429512672683545,-0.004733978073314837
2019-02-19,-0.0027222119770973266,-0.015014552561951581,0.7782785899263666,0.20452236891823217,0.034935805694450144
2019-02-25,0.0382760732187456,0.013700373494930125,0.40665551944111655,0.5099324392637732,0.031435594581434544
2019-03-04,0.15168049370756115,-0.0010969906984709765,0.26987036899368555,0.43814521883362567,0.1414009091635986
2019-03-11,0.014196560760395271,0.004044213610799876,0.971701443430062,-0.017037229584236716,0.02709501178297958
2019-03-18,-0.004594108132826182,0.003599548516936253,0.951023477470886,0.0084947131415306,0.04147636900347339
2019-03-25,-0.16689078516521313,0.08610943615937579,0.5000913987536588,0.09105920723546766,0.4896307430167108
2019-04-01,0.017045283376032498,0.009795788947053354,0.4399727033184449,0.4853895990093083,0.04779662534916102
2019-04-08,0.11543683103241778,0.009333263317305406,0.2605019201052191,0.2698519689712867,0.34487601657377104
2019-04-15,0.05404500433888093,-0.005407764931540456,0.3086803850392019,0.3680987631471592,0.27458361240629836
2019-04-22,0.03561398125849845,0.036428888558407986,0.377841613249752,0.42081860458193066,0.12929691235141086
2019-04-29,-0.03378794857723989,-0.004210584097513569,0.9999999999999999,0.06195425913307122,-0.023955726458317506
2019-05-06,0.02807875203869049,0.011468389462006588,0.6429440122451415,0.2570184405475566,0.06049040570660481
2019-05-13,0.12507789381375312,0.0026578973369250376,0.25946006808962985,0.3907793408562557,0.22202479990343635
2019-05-20,-0.01946571369689088,0.0032498475893018783,0.6897878920107114,0.313965719476104,0.012462254620773439
2019-05-28,0.028441141066938454,-0.01850053850375873,0.9097229328639316,0.15772148929181962,-0.07738502471893095
2019-06-03,0.06567828678865925,-0.0036822739531182716,0.45426374400440317,0.5303174365772013,-0.046577193417145515
2019-06-10,0.15688231100288258,0.022422782868830034,0.3039128483406723,0.40876575859705916,0.10801629919055601
2019-06-17,-0.021205211099764438,0.04756242624486158,0.3268311450755508,0.5527660946751424,0.09404554510420975
2019-06-24,0.01831929823351733,0.012406059150858857,0.7499688783046317,0.3314019942683051,-0.11209622995731283
2019-07-01,0.032143525676128645,-0.011605893928986128,0.21889039505058486,0.7559252822676118,0.004646690934660916
2019-07-08,0.05158820767711512,0.038653664515391616,0.33356184652794935,0.20307678575302487,0.373119495526519
2019-07-15,-0.006646480567532087,-0.016308124274339735,0.5284097002130742,0.49630372826112823,-0.0017588236323305923
2019-07-22,-0.02445347157712581,0.002148569707067045,0.9999999999999996,0.09064021529379995,-0.06833531342374072
2019-07-29,0.05323541598608903,0.022629235166687182,0.38832953025266276,0.49329351559093715,0.042512303003623846
2019-08-05,0.009445386581014745,-0.005858539349296758,0.7870348569987765,0.25101234578598697,-0.041634050016481336
2019-08-12,-0.015340133074122627,0.007993377544277596,0.49447185796807935,0.4847982329921545,0.02807666456961118
2019-08-19,-0.07016947742038661,-0.004171455268789756,0.9247490134078422,0.1689787036102503,-0.01938678432891633
2019-08-26,0.009532562891286673,0.0011912449560720665,0.5146091590563102,0.5171778908210465,-0.04251085772471553
2019-09-03,0.008655531675072516,-0.0009417613563800867,0.8944522464481137,0.03537624620187245,0.06245773703132147
2019-09-09,0.024028389392958007,-0.007538205319070575,0.442554967043324,0.46636862969288717,0.07458621918990142
2019-09-16,-0.04957711197560944,-0.015707152865211554,0.9739959079532492,0.18885241223553126,-0.09756405534795945
2019-09-23,-0.002094126690075528,-0.01341709079022276,1.0,0.041550085857209366,-0.026038868376911068
2019-09-30,0.0038019162153878003,0.009448009289368764,0.5645357163124132,0.47176117866847933,-0.04954682048564896
2019-10-07,0.07133767353603306,0.027035274524896905,-0.0013776488548506109,0.6634045686200728,0.23960013217384776
2019-10-14,0.06419775958791533,0.02134943657426415,0.5180600722932653,0.1257302667241121,0.2706624648204432
2019-10-21,-0.05706328480617665,0.045156929427958827,0.4573120324273882,0.48890030324360206,0.0656940197072276
2019-10-28,-0.005563198122625413,-0.0058709672150413774,0.9726955270418348,0.022707924564899694,0.01603071373093224
2019-11-04,0.007257667984904075,-0.0050668680209670506,0.4097312268515868,0.5609252091783163,0.02715276400615994
2019-11-11,-0.03260842296375929,0.005604031588302534,0.9999999999999982,0.03554618129145079,-0.00854178991599236
2019-11-18,-0.08188584954236165,0.0016382013949870452,0.6658553036858197,0.40315184092706896,0.011240503534485951
2019-11-25,-0.01069766789242494,0.00419040375038827,0.8491602025771834,0.1372167242143163,0.020130337350536997
2019-12-02,0.008586335751751785,0.0007730354154799216,0.6510927395418756,0.34435515466589117,-0.004807265374998597
2019-12-09,-0.06348787350478621,0.013638348971282655,0.9999999999999998,0.0018442768042639703,0.04800524772923978
2019-12-16,0.11050246965626252,0.005585856085094931,0.29070872872221604,0.6011638936415588,-0.007960948105132398
2019-12-23,0.023784117990357966,-0.009868521277444033,0.644724299557272,0.2031022038338107,0.13825789989600332
2019-12-30,0.1883625511432988,0.136830170876976,0.2702962258125947,0.020391940403731282,0.3841191117633992
2020-01-06,0.021351384510861108,-0.018306041150215207,0.6510382389869558,0.48139106143785093,-0.13547464378545265
2020-01-13,-0.008736988491920722,0.009960414850360384,0.9249537419637339,-0.0021614787817954622,0.07598431045962184
2020-01-21,0.0041945859619435845,0.11336011590344142,0.32706219774495887,0.42015880607309075,0.13522429431656535
2020-01-27,0.010230297414560928,0.000900536518779554,0.9999999999999999,-0.046984208797171835,0.03585337486383146
2020-02-03,-0.021734695257444633,-0.0033993193011614057,0.9999999999999998,0.02772571289876825,-0.0025916983401620877
2020-02-10,-0.006918039814000788,-0.006461133755925949,0.6928994842250595,0.3079333213563218,0.012546367988545418
2020-02-18,0.0009142242618183949,0.017676591482844218,0.9022776090247325,-0.06341499213192835,0.1425465673625332
2020-02-24,0.040076119350166375,-0.01751343660981801,0.7581967034045457,0.3797590665647472,-0.16051845270964127
2020-03-02,-0.02642524242314113,0.0012188894331144123,0.5535204044401911,0.4934463229252056,-0.02176037437536999
2020-03-09,-0.0259790149939262,0.0018803027683543805,0.9999999999999999,-0.053077105072147565,0.0771758172977194
2020-03-16,0.09225453039633481,-0.06472925859738296,1.0,0.26661640418971744,-0.29414167598866936
2020-03-23,-0.03709700735991877,0.05512142966014961,0.977739193512543,-0.2530001317853781,0.2572365159726042
2020-03-30,-0.023779313864407774,0.03690345259762008,0.5194925305759085,0.3665207971370155,0.10086253355386376
2020-04-06,-0.005830367120737241,0.0007005573499557795,0.9999999999999999,0.022875152070640302,-0.017745342299858656
2020-04-13,0.03077706500808629,0.06127130247116344,0.4660975982076573,0.4796882268840056,-0.037834192570912584
2020-04-20,-0.0006135146952900336,-0.0063181105775825044,1.0,0.022034981219686316,-0.015103355946813675
2020-04-27,0.009518851053876787,-0.00025005100510230806,0.9999999999999991,-0.007820891134094442,-0.0014479089146791097
2020-05-04,-0.004332384945349069,0.006873922738337419,0.49059305376945866,0.46964060800517166,0.037224800432381466
2020-05-11,-0.0033100841207079823,-0.017668885617883094,0.6351050334885943,0.2819863681160625,0.10388756813393439
2020-05-18,-0.010273925675605778,-0.004749113276991497,1.0,0.041452044349412576,-0.026429005396815274
2020-05-26,-0.015240426538733039,-5.031725203508822e-05,0.9999999999999997,0.0021068174029188775,0.01318392638784958
2020-06-01,-0.06917663585155584,0.06685680655753654,0.403008545558818,0.4761901562632572,0.12312112747194412
2020-06-08,-0.009655431261460108,0.012947637268425306,1.0,-0.04248349643376602,0.03919129042680067
2020-06-15,-0.004972010706207029,0.004348040640558393,0.9468431063865045,0.02238584736450519,0.03139501631463897
