Week,0,1,2,3,4
2008-11-10,0.24813545314404942,0.0816771278772438,0.2174698351505051,0.2105776025758753,0.24213998125232644
2008-11-17,-0.0060139219020713215,-0.023957749506684955,0.9999999999999997,0.02404352194937285,0.00592814945938371
2008-11-24,0.009045921263045641,0.0015322990611716797,1.0,-0.0023339938564520967,-0.008244226459371068
2008-12-01,0.2976928212240366,0.00822718659196616,0.3279976568115563,0.35679750689435885,0.00928482847808213
2008-12-08,0.036551284025304505,0.0213856317000104,0.5463291223631551,0.38900127922347755,0.006732682688052536
2008-12-15,0.005139740633262473,-0.055331119596815095,0.9999999999999999,0.014428219725946352,0.03576315923760633
2008-12-22,0.015831969334626748,-0.010814459074667184,1.0,0.043830691647455906,-0.048848201911693354
2008-12-29,0.03125301196354694,-0.03872922651071093,0.5362862994966554,0.5122061561056789,-0.041016241053985804
2009-01-05,-0.016651081930768207,-0.013678554665837872,0.7365453417269735,0.3417137162133797,-0.04792942134374701
2009-01-12,0.02523347690249985,0.031003506258685073,0.9210839985438958,0.021262009800938918,0.0014170084939804076
2009-01-20,0.4368175868107075,0.04444590252541663,0.999484445042057,0.3552023792524751,-0.8359503136306563
2009-01-26,0.01654983019050693,-0.028185565480917954,0.3969258930170935,0.476389423615416,0.13832041865790365
2009-02-02,0.015950195213205478,-0.00955390028454631,0.3761937578734187,0.16987652149900093,0.44753342569892124
2009-02-09,0.06375082647852123,-0.056104140675417774,0.700774265119902,0.20973270182225962,0.08184634724970984
2009-02-17,0.012849595520133546,0.017114959571732775,1.0,-0.06891185551358206,0.038947300421715486
2009-02-23,-0.0828582116464568,0.13302029970750862,0.5218059914552414,-0.011938152411710283,0.43997007289686746
2009-03-02,0.0005664005776476248,-0.012992558307153627,0.858763695896781,0.1505333013669756,0.0031291604638617326
2009-03-09,-0.012857591368003116,-0.01737500224987724,0.9999999999999999,0.03710769816215923,-0.00687510454199852
2009-03-16,0.0018248696990505484,-0.015601029390981071,0.5855339817531046,0.18192779734246672,0.24631438059685568
2009-03-23,-0.04176835144751368,0.05210581611099796,1.0,-0.0983986704726999,0.08806120582244159
2009-03-30,0.09049873871150202,0.16602376361061907,0.22557911989619614,0.28271969022152604,0.23517868756015659
2009-04-06,-0.034228590731405904,0.018267125480073077,0.03615252318833463,0.7600059020706592,0.21980303984257837
2009-04-13,0.2169040762835766,0.23109034058889488,0.5836346158642085,-0.2478769945057493,0.21624796176906927
2009-04-20,-0.02361452536013921,-0.018103194662430936,0.9999999999999996,0.018883336819284505,0.02283438319761224
2009-04-27,-0.015247877692575537,0.01617608434815331,0.9999999999999999,-0.0543974354513185,0.053469228795740995
2009-05-04,-0.12170876035458769,-0.17548520668881795,0.7640599250171086,0.5640738855068153,-0.03093984348015383
2009-05-11,-0.006857799998140022,0.02985237958904349,0.9345393472900421,0.017444038834364538,0.02502203428415683
2009-05-18,0.0418918695688324,-0.049390255968009014,0.5847106325756117,0.4846178055061789,-0.061830051712336596
2009-05-26,-0.03791353955855497,-0.0042695763404639936,0.9323501211373,0.1907301179541307,-0.080897123201367
2009-06-01,0.008401464383084522,0.10330662037888143,0.28052594999718977,0.24895056991390768,0.35881539532693657
2009-06-08,-0.045080722518817694,-0.05708150776775276,0.9206964088522535,0.013763454611062086,0.16770236681953127
2009-06-15,0.15227441682026113,-0.05878721048321853,0.9201577673947934,0.16369920574274685,-0.17734417947249953
2009-06-22,-0.058576352172649754,-0.005278971221658275,0.9999999999999998,-0.034657128898634836,0.098512452278418
2009-06-29,0.030266754412310276,0.034825405359263366,0.9259791693867053,-0.046389279419801914,0.05531795025938428
2009-07-06,0.011195417372373303,0.02286618197540951,0.38783881559355854,0.42589157934748684,0.1522080057111719
2009-07-13,0.045016856168049124,0.015695812698743223,1.0,-0.06232104212794837,0.0016083730828289184
2009-07-20,0.1153324783972017,0.0038813026377362537,0.9416396043949904,-0.012254933307478996,-0.048598452113669394
2009-07-27,0.07176952351434851,-0.03180831102534263,0.49047755300812057,0.44502752435716697,0.024533710111580457
2009-08-03,0.006820490891222779,0.02749314473487247,0.8071941615319621,0.13052818825441473,0.02796401458752805
2009-08-10,0.008067079514918555,-0.02335552023153258,0.9999999999999997,-0.060216367223159886,0.07550480793977421
2009-08-17,0.09728071665865212,0.017338536643141226,0.3714084740722079,0.47059471735588376,0.04337755527011504
2009-08-24,0.07293783321622742,0.01426918115096245,0.695768603570677,0.1993728439901316,0.017651538072001458
2009-08-31,-0.0044789856854823675,-0.10260057759611393,0.9999999999999998,0.05918345930048427,0.047896104003960084
2009-09-08,-0.0026801594720821556,-0.007083160084839784,0.8326304008522797,0.15427259035853713,0.02286032834618159
2009-09-14,-0.012036694655646003,0.021536627052073362,0.3306358341440734,0.39072739601570866,0.26913683744502936
2009-09-21,-0.04863972970852586,-0.0898979778919976,0.4846256470242192,0.4575814091684976,0.19633065140780667
2009-09-28,0.039174331969246176,0.012755048841464273,0.9999999999999999,-0.031102104856910437,-0.020827275947938484
2009-10-05,0.0040225548691096395,-0.011391607208254308,0.9084294601438553,0.12360668547051767,-0.024667093249383005
2009-10-12,0.13319454321352978,0.06827153553584912,0.7146241004338629,0.3155386643593522,-0.23162884355950505
2009-10-19,-0.055146242315951624,-0.000418640686409253,0.9357777586559581,0.022740411691596532,0.09704671265371217
2009-10-26,0.13763141733892775,0.010195950372761933,0.7039747702580672,0.20369732758596285,-0.05549946578674937
2009-11-02,0.010047814605752211,0.0005653249792899338,0.7641771625238638,0.1565395928132418,0.06867010507772738
2009-11-09,-0.09117644962981197,0.2633241454545305,0.3040974576635672,0.29123234453997293,0.23252250197174135
2009-11-16,0.1229219739460849,0.25462628453151176,0.5779540343610629,-0.3163104452743265,0.3608081524228624
2009-11-23,0.0026932502381102567,-0.006444521674216008,1.0,0.01986021347065508,-0.016108942048816233
2009-11-30,0.16035469555708964,0.007307050286814739,0.36400564883817427,0.43734627427069245,0.03098633104722886
2009-12-07,-0.027617912417323403,0.06689352378295375,0.24608579426599123,0.17964111658292378,0.5349974777858982
2009-12-14,0.1826375720526412,0.054716146056830055,0.17011203348452594,0.5763757227591577,0.01615852564684517
2009-12-21,0.07130854109841384,0.06486629529518845,0.8905633133436238,-0.19917589351328996,0.1724377439726969
2009-12-28,-0.0003219707342547093,0.045406146476401954,0.38872587777987033,0.49836340526987627,0.06782654120700321
2010-01-04,0.22684824300686524,-0.04271697516159962,0.9361636003638377,-0.07367729518112803,-0.046617573041129144
2010-01-11,0.012254664560773431,-0.007237053595063858,1.0,0.0564010731164571,-0.06141868404379931
2010-01-19,0.16565010967760285,0.08714331557902086,0.7463596675969174,0.0298542764469626,-0.029007369294896296
2010-01-25,0.0981201583156064,0.03216658633453581,0.31106938219629954,0.4440016825886889,0.11464219056486932
2010-02-01,-0.04566889462625805,-0.010340958670290685,1.0,-0.03007061579682998,0.08608046908737452
2010-02-08,-0.06931672521558267,-0.13584959872272148,0.669708665944231,1.0,-0.46454234200417394
2010-02-16,0.043353134474961134,0.05300017227601514,0.6607397589005433,0.25043400333960336,-0.007527068993639174
2010-02-22,0.010458245333782612,0.12936618208136022,0.28267891222282665,0.2095976066601689,0.36789905370186154
2010-03-01,-0.002372691712912188,0.009436212781037755,1.0,-0.061402264353981134,0.05433874328585543
2010-03-08,-0.002687091140000125,-0.0002329067712593388,1.0,-0.04907194595785404,0.051991943869113544
2010-03-15,0.09673533061267243,0.029933279944473763,0.9999999999999999,-0.07298376178378232,-0.053684848773363894
2010-03-22,0.016105065067260615,-0.011937916694081958,0.9999999999999994,0.05215242018757486,-0.05631956856075303
2010-03-29,-0.0241882805963391,-0.009747300092493246,0.9999999999999998,0.08811868947763503,-0.05418310879398086
2010-04-05,0.07749739366983764,0.05732386088150029,0.2546251773463955,0.3750395917144262,0.23551397638784044
2010-04-12,0.014287253370469846,0.07296175196765704,0.6492244809902897,-0.02290870626076157,0.2864352199337693
2010-04-19,0.02401219805952599,0.02722492731658951,1.0,-0.16108932363000447,0.10985219824738769
2010-04-26,0.10974711533499044,-0.019248018850161204,0.6772448865055678,0.28110646714303955,-0.048850450136084925
2010-05-03,-0.02482763880098152,-0.009021343174895969,1.0,0.048699324384351234,-0.014850342408473747
2010-05-10,-0.3225406558461442,0.03795560225180244,0.6953027000691283,0.35064347275825153,0.23863888074011463
2010-05-17,0.005500973946042509,-0.0049874702660594825,0.4562000886481206,0.49168523411,0.051601173564493556
2010-05-24,-0.07841638883868565,-0.003294365035135267,1.0,-0.00913348360350383,0.09084423753827232
2010-06-01,0.3898073604201761,0.056892985055529796,0.02156690571250026,0.2888295853041333,0.2429031635076606
2010-06-07,0.2333411202257599,0.032913967492740094,0.26487184764788174,0.3043515960564742,0.16452146857714403
2010-06-14,0.07319730487732662,0.00530389115221761,1.0,-0.11718674777317278,0.038685551743628394
2010-06-21,0.011301672040237984,-0.0019525993627942037,0.9665436603041114,-0.01589340178491946,0.04000066878470194
2010-06-28,0.08328887942483536,-0.024511530036516477,0.6929577234695502,0.39897248993130935,-0.1507075627891785
2010-07-06,-0.014561154212149912,0.0028705105046666437,1.0,-0.01935400829523979,0.031044652012807813
2010-07-12,-0.0028728959386627377,-0.0359755307621444,0.9469609910568744,0.18105798012244356,-0.0891705444723754
2010-07-19,-0.061829372351128044,-0.003643213340897011,1.0,0.0023655949264430225,0.06310699077367761
2010-07-26,-0.0008332142332559362,0.013830015527881491,0.8570924764299414,0.04658812248266875,0.08332259978946972
2010-08-02,0.07110648203004169,0.09701044551535704,0.7123454182169789,-0.23839143020457343,0.3579290844288371
2010-08-09,-0.032266832816179265,-0.011583166667424066,0.9810053941685838,-0.015909664292702665,0.07875426961103989
2010-08-16,0.005398176115442869,-0.05714871884459542,0.6369009083056415,0.4279915276501856,-0.013141893226674544
2010-08-23,0.04971102534931893,0.005346525246775877,0.682002526514179,0.15596628888047787,0.10697363400924831
2010-08-30,0.029965640282211322,-0.007613094414886121,0.9653291959626715,0.032976640391716654,-0.020658382221175005
2010-09-07,-0.08663502646024404,-0.021510975896479493,0.602302717603406,0.47293657745239565,0.03290670727228454
2010-09-13,-0.055822969273660136,-0.022203674002672036,0.4262499522616146,0.48215150321976813,0.1696251877949495
2010-09-20,0.10312976268737303,0.008389766704168241,0.2770057534021915,0.3144560639062142,0.2970186533000529
2010-09-27,-0.004368935909911685,-0.00936931337324367,0.9964630731507381,0.04835510646995576,-0.031079930341393537
2010-10-04,-0.011571500614485995,-0.01336360145157099,0.9999999999999997,0.012237410929852243,0.012697691170850456
2010-10-11,0.03219163222002793,-0.02203310859378833,0.7057680654924945,0.3007966236197404,-0.016723212726836353
2010-10-18,0.0213199669325785,0.0497397268156779,0.5400908071376146,0.4998676976163311,-0.1110181984760701
2010-10-25,0.01866317476723945,-0.014520583176456976,0.9527239254847056,0.061768949268708295,-0.018635466341960855
2010-11-01,0.011918096716668635,0.0032883720422965026,0.8517294428772479,0.11998246581762377,0.013081622546163197
2010-11-08,-0.0005598377016350918,0.008129936539817475,0.9312072853420706,0.0343480634403625,0.02687455237867545
2010-11-15,0.01216718367729515,-0.007632229848371271,0.9057498253219206,0.17228408391678363,-0.08256886307101044
2010-11-22,0.0823189727913731,-0.0009263192743676586,0.9551859919179024,0.04088089019119723,-0.07745953564979144
2010-11-29,-0.03237811062651002,-0.0025423389643451626,0.36040190456806503,0.5182798379940217,0.15623870699817963
2010-12-06,0.21194353200091282,-0.0021342467609741568,0.28731838338494553,0.3520808770952415,0.15079145427987437
2010-12-13,-0.07435663671271396,-0.016897324452492,0.9999999999999999,-0.022659351836110665,0.1139133130013168
2010-12-20,0.05665889391165427,0.03695934989184932,0.7049748442079323,0.02704990802036498,0.1743570039681992
2010-12-27,-0.6324014391356995,0.07947931351529147,0.9875773714483671,0.5671468949711711,-0.0018021413391813492
2011-01-03,-0.013543784771751628,-0.016872540636922867,0.8750031311831742,0.33728577220410083,-0.18187257797809775
2011-01-10,-0.06595159490932423,-0.05175670971223432,0.9788721764285371,0.06422168620593043,0.0746144419912489
2011-01-18,0.007296524656795439,-0.008436440685919182,0.9999999999999999,0.02469485924828871,-0.023554943428342044
2011-01-24,-0.16065846336170717,0.057322263465326206,0.7560623400418723,0.0429002839862176,0.3043735758683607
2011-01-31,0.0024805600777595364,-0.015445488782194953,0.5096502318769914,0.4941398370659015,0.009174859761542524
2011-02-07,-0.005135513545185028,0.007461772260341712,0.7828677081913704,0.07479783366070471,0.14000819943420093
2011-02-14,0.05005235408435953,0.007709729360128841,0.8869500701426908,0.047453877294650074,0.007833969118170803
2011-02-22,-0.3006204724647587,0.021675728926282965,0.9613515576820026,0.46817527261905023,-0.15058208676736343
2011-02-28,0.1199851864186852,0.05997359866634537,0.26155365307788747,0.16331603063564237,0.3951715312014396
2011-03-07,0.14118461000375224,-0.011491689475372902,0.2634431343401545,0.4723851690456357,0.13447877608583045
2011-03-14,0.09091147744147467,0.007933687777524985,0.6936659863310799,0.20167698273648837,0.005811865725279978
2011-03-21,-0.050231776506240444,0.015166079831595533,0.9666202374713393,-0.22051461148629992,0.28896007068992846
2011-03-28,-0.028408192612087296,-0.011210917220508005,0.9901104345114236,0.05468888540619743,-0.005180210057710881
2011-04-04,0.012355504273663453,-0.0016725695225971184,0.5293011548762514,0.5494853519313212,-0.08946944155383942
2011-04-11,0.029559891057515296,-0.008092691389745475,0.9999999999999999,-0.038206230575905546,0.016739030900667615
2011-04-18,-0.048037288337940305,-0.00901631331187888,1.0,-0.0991534341155681,0.15620703576538705
2011-04-25,0.25477816745038473,0.03580817533057265,0.2354217348245999,0.2068698888024222,0.2671220335920205
2011-05-02,-0.01927967562386244,-0.01079181975102554,0.8684806081841243,0.09919539351856801,0.06239549367219563
2011-05-09,0.2749913575174248,0.15500581668607968,0.45759340304695634,0.3058892155951334,-0.1934797928521142
2011-05-16,0.034365511633497735,-0.07538156597130066,0.7569428081952918,0.5395262927169852,-0.25545304657447393
2011-05-23,-0.06916060277556825,-0.011551424535326383,0.9865351145773211,0.11502542582367295,-0.020848513074963382
2011-05-31,0.013729435691004056,0.00034707223470686156,1.0,0.002155984697915568,-0.016232492649275124
2011-06-06,-0.16684737077609596,-0.035060191771744485,0.8253577173587687,0.3989614626648329,-0.02241161747085897
2011-06-13,-0.1711252864698784,-0.062020000267743326,0.8735029108057437,0.2430945111411824,0.11654786464691473
2011-06-20,0.03389371336203407,0.027297861088313915,1.0,-0.16552822948741489,0.10433665503706695
2011-06-27,0.021917623998270876,3.1358312351384036e-05,1.0,-0.004826568744048712,-0.01712241357484378
2011-07-05,0.10396318998028088,0.0007046500789313822,0.3026334047760994,0.29233566393479204,0.3003630912298963
2011-07-11,-0.1285234816681979,-0.036288142938286784,0.5445285225520237,0.4438885820847215,0.17639451997086877
2011-07-18,0.10849982952702873,-0.04906101167648553,1.0,0.15327467202304446,-0.21271348987389516
2011-07-25,0.08575548810603492,-0.05424603777346339,0.5746984856564625,0.48493394713364824,-0.09114188312268252
2011-08-01,0.024412396962791853,0.015301368525455465,0.8726065943196205,0.06535831412107565,0.022321326520708725
2011-08-08,-0.043765343372801795,-0.01333980124097662,0.9999999999999999,0.04990754953881528,0.00719759510861331
2011-08-15,-0.020560786277690535,0.00685754960703839,0.9918085323857334,-0.01462966410928959,0.036524368398564086
2011-08-22,-0.08892494508781215,0.027613103044602558,1.0,-0.11405495826274786,0.17536680030595742
2011-08-29,0.0004973934585246263,-0.004859943038274794,0.8890254626179352,0.10777004661534216,0.007567040350673193
2011-09-06,0.13415923619516934,-0.03835216639219294,0.9113552942068621,0.02286454930732622,-0.0300269132915032
2011-09-12,-0.08853147928916145,-0.050629400365630996,0.7253231266239983,0.439829860672374,-0.025992107663464308
2011-09-19,-0.012772997552933537,0.007048744407961639,0.9999999999999999,0.002271955891477922,0.003452297257840572
2011-09-26,0.00847672811667706,0.00906159755642838,0.9999999999999998,-0.020626910293779915,0.0030885844776547076
2011-10-03,-0.026354171684299182,-0.010398040647667377,0.9455955846925012,0.07667111030691717,0.014485517318052829
2011-10-10,-0.010149786964780678,0.010728781045404524,0.4053095433941189,0.47734990580609366,0.11676155671916356
2011-10-17,0.004566185369388825,0.001039085436874189,1.0,-0.02621676888648163,0.020611498080218647
2011-10-24,0.005262958150099761,0.0005269573551487381,0.9999999999999999,-0.010974733061729186,0.005184817556480976
2011-10-31,0.05396018997233759,-0.017000903733159125,1.0,0.001387627287035576,-0.038346913529009576
2011-11-07,0.10441688025605728,-0.04810515779222783,0.5589457706728015,0.5037581170720147,-0.11901561022431716
2011-11-14,0.004965439867450183,0.0018399006997141107,0.9995300067147612,-0.015616479666464662,0.009281132376256966
2011-11-21,0.07668753207290725,-0.0011257049746633864,1.0,0.007945303224803305,-0.08350713033010783
2011-11-28,0.12553184785861193,-0.03647254158763948,0.6353114058360808,0.444377311255911,-0.1687480232708255
2011-12-05,0.04261539493017249,-0.01746111719473796,0.5225573756687603,0.4762001609048312,-0.02391181432262962
2011-12-12,0.015268209311768144,-0.0005885550400005353,0.826646577908122,0.14183864197647686,0.01683512583975032
2011-12-19,-0.020954528332133095,0.003965622003262062,0.9999999999999996,-0.00699996304906706,0.023988869384653715
2011-12-27,-0.011257338440545626,-0.007235682032720056,1.0,0.012380307341125612,0.0061127131321395516
2012-01-03,0.03910208249495501,0.033125667353986046,0.27614022038948666,0.36333405777851735,0.28829797198305496
2012-01-09,-0.17792200840116576,0.3114694751695916,0.8758862955854165,-0.09119197521944,0.08175821280338427
2012-01-17,0.008988375203846294,-0.009796659142422833,1.0,0.018482328991115297,-0.017674045052538754
2012-01-23,0.07801948343629579,-0.000741447302433117,0.326733270481363,0.4325568273885848,0.16343186599601342
2012-01-30,-0.00382248912691972,0.005744194487010835,0.9948701100839762,0.0014851878432718794,0.00172299671593715
2012-02-06,0.0032110136206135384,-0.009827127962562954,1.0,0.03771732768896775,-0.031101213347018347
2012-02-13,0.25667837686357564,0.04379391895023829,0.8933408659811046,-0.2352598376215756,0.04144667588369272
2012-02-21,-0.0004377070567805045,-0.002213194572090588,1.0,-0.012390513214167556,0.015041414843038507
2012-02-27,0.20158137566424333,0.05176009696502617,0.5933934126735159,-0.30508033393199324,0.4583454486292079
2012-03-05,0.1578875060440433,-0.0017293662939487945,0.46824668698988287,0.47604517705064514,-0.10045000379062247
2012-03-12,-0.009849974113827993,0.003353087444869347,0.9784569491256657,-0.005500599730303086,0.0335405372855691
2012-03-19,-0.04206357037800143,0.0004525428437757861,0.9219462302932679,0.07798794499126464,0.04167685224686853
2012-03-26,0.017570517600066806,0.01443621394921716,0.9999999999999999,-0.04568939427585556,0.01368266267080867
2012-04-02,-0.0061277620863234745,-0.030026085557030017,0.47151857683997955,0.5031062930984326,0.061528977722528536
2012-04-09,0.08663525590829209,0.015535592584758732,0.43125901284049434,0.5275545138058622,-0.06098437514343248
2012-04-16,-0.0122268802680185,-0.003937126111702815,0.9829837650164422,0.03340426993840687,-0.00022402858322343372
2012-04-23,-0.08452718133024838,-0.03706513877938856,0.7033848311416719,0.45118267625969477,-0.032975187263224535
2012-04-30,0.016639051251376765,0.0024679460276836674,0.9999999999999998,-0.009594129328000939,-0.009512868038113576
2012-05-07,0.0018114887223955724,-0.015873898255925768,1.0,0.07691724138196226,-0.06285483184759877
2012-05-14,-0.02233518033755166,-0.012529856624172456,0.4378061768891053,0.4577971470877579,0.1392617129882771
2012-05-21,0.006763613573717749,0.0017028003061434302,0.9408281050329668,0.054134104639346654,-0.00342862355213278
2012-05-29,-0.00388122701642078,-0.008689997380012488,0.9431282634560089,0.08268042488198342,-0.013237463939779419
2012-06-04,0.07947983410713291,-0.02869331428948716,0.45380954164291226,0.4641672581123088,0.031236680428055358
2012-06-11,-0.005697358521412801,0.007678120084355496,0.9966355122195593,-0.028186950807466804,0.029570677032481056
2012-06-18,0.019842848431286704,0.0002791390843416748,0.9357223009356322,0.053139563131801536,-0.008983851578852323
2012-06-25,0.026468442586530517,0.0018576929995819664,0.9979329670642784,-0.0020928981233904577,-0.024166204553740245
2012-07-02,-0.004998498662301187,0.003079510015492322,0.9863272038530763,-0.0009832709871874957,0.016575055767314804
2012-07-09,-0.001207420528144701,-0.11382217596793051,0.489638143236042,0.45507530597323376,0.17031614728302383
2012-07-16,-0.003435810352332758,0.001231474606302098,1.0,-0.0010567775855252312,0.003261113331555763
2012-07-23,-0.0015693575288700115,-0.006507472605659861,0.9696935159521145,0.05139858920836543,-0.013015275026070585
2012-07-30,0.00453660975459909,0.0004101466464558123,0.9467512068812904,0.036238048240259446,0.01206398889813277
2012-08-06,-0.010861739681551774,-0.0006301536915290797,0.9204065994221229,0.053786730652847996,0.03729856329820535
2012-08-13,-0.10204379648877118,0.0025227602849022535,0.8607892402328348,0.17416817982630994,0.06456361614603724
2012-08-20,-0.015115677359186824,0.005653560153072345,0.9999999999999998,-0.04218513787980984,0.05164725504915098
2012-08-27,0.023617680177794528,-9.478211685947118e-05,0.9253467534979171,0.08989861782595615,-0.038768269395641125
2012-09-04,-0.00819332851792979,0.0035725850942246425,0.9950594263695179,-0.0005707961751733215,0.010132113123967246
2012-09-10,0.27532313672771935,0.03598434374329639,0.346111250021119,0.37551292376080053,-0.032931654253038956
2012-09-17,-0.08381092708720103,-0.0011351525533696764,0.8899084137395414,0.024662528443920848,0.17037513744821575
2012-09-24,-0.028407681647615105,0.000805486935980539,0.9999999999999998,0.011291710544133877,0.016310484219088497
2012-10-01,0.029324880733141188,-0.03573273455786622,0.8838774791921303,0.3527268771428952,-0.2301965025103005
2012-10-08,0.09348763202514102,-0.004991804410765561,0.46298684399664247,0.49829672981295775,-0.0497794014171844
2012-10-15,0.012770798761691064,-0.004162773182383395,0.9400229078653946,0.058348644529496244,-0.006979577977189928
2012-10-22,-0.09922273869413807,0.03670405270412592,0.9519172409459353,-0.1108418249856648,0.22144327008669457
2012-10-31,-0.0010775424259059161,-0.017669288953726527,0.5117988770572627,0.5054883342907068,0.0014596203793461244
2012-11-05,0.07837956361795013,0.04023242598410767,0.26634678539459705,0.2865881465092096,0.3284530784941356
2012-11-12,0.032449486681001595,-0.011853657504864102,0.47088934086724565,0.49496355256300023,0.013551277454846007
2012-11-19,-0.024866522526812995,-0.00013277464819463385,0.5155816217571901,0.49106087127590126,0.01835680416783001
2012-11-26,0.0034702807928777314,0.05079708679095227,0.4993375427710666,-0.043078887743966614,0.4894739773946641
2012-12-03,0.02198384715659882,-0.006412114431084499,0.9005569370326186,0.12677998026354584,-0.04290865002153829
2012-12-10,0.0022469586389672266,0.002015128480169035,1.0,-0.01437961481144476,0.010117527684642358
2012-12-17,0.0029458733931031836,-0.0013386847526898036,0.9207215500099506,0.0702684038382549,0.007402857510986739
2012-12-24,-0.0820010994224802,0.00310553794533013,0.4875774224881329,0.48913525355675475,0.10218288519299161
2012-12-31,0.040527488082959105,0.0029754619437119593,0.6106071127101571,0.7007226823952921,-0.3548327451580846
2013-01-07,0.07207022728664307,0.021334966040115224,0.33391883029370206,0.4459716349488992,0.12670434143064044
2013-01-14,-0.007224394682048396,-0.030959952223949927,0.9527751682350853,0.04997425372434195,0.035434924947852504
2013-01-22,-0.0652982458564901,0.025169275063349105,0.41968616335256526,0.4573153326031039,0.16312747483122655
2013-01-28,0.04950134599627898,-0.24999525826321808,1.0,-0.07170563390536508,0.27219954617230385
2013-02-04,0.02715607131483983,0.0056589569836276565,0.7680924010333982,0.16770959345192743,0.031382977216206996
2013-02-11,-0.018489844372948826,-0.002510621289881959,1.0,0.031923549003216194,-0.010923083300549781
2013-02-19,0.06844617492207804,-0.010210889915239583,0.6557892045436458,0.4529337731793253,-0.16695826272980951
2013-02-25,-0.024576409178124772,-0.007561095579914162,0.4363155395020529,0.4805531418831417,0.11526882337159204
2013-03-04,-0.005981056063716183,0.0008409118976672892,0.9803807332734076,0.009881109402654633,0.014878301487190224
2013-03-11,-0.003967899175173539,0.003871624925056692,1.0,-0.004496597879499703,0.004592872129616525
2013-03-18,0.0017194517698229037,-0.0025575592599734833,0.9400967641572375,0.0368234654729841,0.02391787786145351
2013-03-25,0.034452315777718845,0.02125820311888171,0.36054669087592695,0.13389606295029607,0.4498467272771764
2013-04-01,0.022058708242912176,-0.009121871250920625,1.0,0.04348258026894045,-0.05641941726121168
2013-04-08,0.014418571060154473,0.0270914577594332,0.3623994511188961,0.43528772184756903,0.1608027982139472
2013-04-15,0.004558569240082016,0.005751948566441117,0.9087703585113889,0.08231841036777192,-0.0013992867041167888
2013-04-22,3.0426962917199003e-05,-0.00044172603895830526,0.9999999999999999,0.0036059046095098125,-0.003194605520676255
2013-04-29,-0.0016971382150475162,0.002686221255611108,0.9718996193894173,0.016484144701347164,0.010627152875877009
2013-05-06,-0.038444239512770276,0.016266456772151435,1.0,-0.17228238523820238,0.19446016797882099
2013-05-13,-0.0007078667893860019,-3.82900703018459e-05,0.9783300004804536,0.017247712066547537,0.005168444312277569
2013-05-20,-0.006400230419892256,0.021810072026481848,0.583790186216369,0.4789358637931304,-0.07813589161935314
2013-05-28,0.005069816311370048,-0.008222710060725896,0.9343077740048191,0.06552990505982936,0.0033152146876159446
2013-06-03,0.12768420780051917,0.03766396308442616,0.34980944630432814,0.47546806045038925,0.009374322360337337
2013-06-10,0.09806593512516189,0.017974292971941516,0.29123707174166213,0.36161283408791284,0.23110986607332162
2013-06-17,0.030099389425776727,0.011008778311796516,0.9999999999999999,-0.08831497782263592,0.04720681012242509
2013-06-24,0.008608472999728108,0.0042891736417966855,0.8031687216646216,0.15445773427288292,0.029475897420970627
2013-07-01,0.005899314451339015,-0.007789532908824612,0.9999999999999999,0.07747428414320698,-0.07558406588351804
2013-07-08,0.10475920228953324,0.06744709428927875,0.25616406728526675,0.5369767568764093,0.03465287941554978
2013-07-15,0.0739530219985776,0.2365993719125741,0.35174074442093706,0.41146667811084553,-0.0737598164429342
2013-07-22,0.06100586371216538,0.010115201862362266,0.3803494754682738,0.48109516012734077,0.06743429882985776
2013-07-29,0.04293573819112554,0.015837062079858803,0.39453681158314235,0.4860459443113981,0.0606444438344753
2013-08-05,0.01706024758897493,-0.013379971113043763,0.8317537463564502,0.27246316626505185,-0.10789718908111405
2013-08-12,-0.001794408629345759,0.002528619688677701,0.9656904351050811,0.005762301163996425,0.027813052671592686
2013-08-19,-0.0038630884300717688,-0.0013758653610520194,1.0,0.052617046624812085,-0.047378092809135124
2013-08-26,-0.01620036125602874,0.0021180900711893734,0.9564973831538921,-0.011299016263506007,0.06888390430286453
2013-09-03,-0.013150543357599203,-0.0049709127396589305,0.9999999999999999,0.0026376688056598463,0.015483787369918288
2013-09-09,-0.03289964095531916,-0.015023491294604913,0.9611640058175385,-0.0622816749023278,0.1490408013313017
2013-09-16,0.02297683388939496,0.024557112260583335,0.3422952578504125,0.45940611183127167,0.1507646841683376
2013-09-23,0.0013123751157475205,-0.006147319779503273,0.85542153876142,0.14207190761818791,0.007341498287001159
2013-09-30,0.07506116816078841,0.016853939268291516,0.419963038444512,0.48118813259370047,0.006933721532707585
2013-10-07,-0.0030300224547489037,-0.0039477116686900925,0.9999999999999996,0.0077199550363023315,-0.0007422209129042127
2013-10-14,-0.09000209110640496,0.03210126414513041,0.468154631362319,0.48976863494647754,0.09997756065247804
2013-10-21,-0.003794573661882469,0.0011984070210612201,1.0,-0.005643057074196861,0.008239223715017837
2013-10-28,0.016650731179617167,-0.016697721257801567,0.7673494943886139,0.34597531998144976,-0.11327782429172957
2013-11-04,0.06305673380222658,-0.012484307981035652,0.39857155067413086,0.47898015426402385,0.07187586923805941
2013-11-11,-0.0006169148146689858,-0.003459712065588941,0.9293936062549781,0.06988276407672746,0.004800256547004819
2013-11-18,-0.03183543840692179,-0.03315509905158204,0.5558847969986894,0.4904943852607555,0.018611355199058956
2013-11-25,0.02803377828072403,-0.017553222432421245,1.0,0.07377525885594945,-0.08425581472825784
2013-12-02,-0.07481054417788685,0.06492750319138661,0.4072547138560905,0.46366467994680793,0.13896364718223803
2013-12-09,-0.005805696288437591,-0.0005081510318138549,0.8653931972392012,0.1086777572380605,0.032242892846453014
2013-12-16,0.06606016274656863,0.02053723405333153,0.48635475786241356,0.4964509520683841,-0.06940310672864698
2013-12-23,-0.00649746900571432,0.008516034742840982,0.8164783902021889,0.10930680634622666,0.07219623771314101
2013-12-30,0.1115352795422619,0.05521785381181592,0.5615388430154028,-0.000109508911312679,0.27181753257154695
2014-01-06,-0.05269896057992406,0.02745843700084199,0.4490427677619129,0.4839591659388502,0.09223858987872453
2014-01-13,0.07895905145621886,0.051329117353041326,0.5177530423585694,0.35375795261932913,-0.0017991637899779072
2014-01-21,-0.019291009781946474,0.0039742538685693905,0.9016602804980806,0.12397121796189588,-0.01031474251871024
2014-01-27,0.08013302760723337,-0.023718655238287575,0.6692853997718325,0.41048317920113364,-0.13618295133443858
2014-02-03,0.020509666910368627,-0.016050979126966337,0.547723572970394,0.49811119215916466,-0.0502934529170622
2014-02-10,-0.018306560936360464,0.00452548620512578,0.9506148354680144,0.033630796271609135,0.029535442992095765
2014-02-18,0.00042593468529592455,0.00224135230445452,0.8678947270550945,0.13409376141237092,-0.004655775460038469
2014-02-24,-0.08238492997534921,-0.03085255774829461,0.543447945299015,0.4800835716329627,0.08970597079335604
2014-03-03,0.004233711042864655,-0.006971840723343862,1.0,0.009853955235665488,-0.007115825610224051
2014-03-10,-0.07449409134187088,0.020143157777685293,1.0,-0.06439326958047933,0.11874420314466466
2014-03-17,0.006974750252130051,0.008237289068160281,0.4197066716865326,0.48531519329063205,0.07976609570254506
2014-03-24,-0.03321019700317305,0.0026525063930373494,1.0,0.04713868623712748,-0.016580995623836654
2014-03-31,-0.0644283446702278,-0.01228119761346539,0.5052827761238725,0.4947769455225027,0.0766498206373181
2014-04-07,-0.0035199321242999322,0.05012084103083592,0.8035609998213376,0.05278850602018294,0.09704958525189981
2014-04-14,0.056676237441325904,-0.0017505781562896147,0.6814682305694496,0.2767863450096772,-0.013180234807373594
2014-04-21,-0.043561775479763275,-0.02893287970516116,0.645800781281119,0.4842972256796489,-0.057603351772190364
2014-04-28,-0.004118072591041166,0.02964893687792674,0.9999999999999998,-0.06308172503291952,0.03755086075000986
2014-05-05,-0.026247910098505176,-0.04178336528985652,0.6904946860586367,0.38311476549391144,-0.005578176164186403
2014-05-12,0.09216830287655946,-0.012401357281365051,1.0,-0.041214545623716986,-0.038552399802844556
2014-05-19,-0.0030675921041847997,0.0014802203482314996,0.9999999999999998,-0.014719205911281957,0.016306577668327
2014-05-27,0.16730739902099437,0.00425718375850527,0.3503516841645962,0.4639010561281798,0.014182676927724425
2014-06-02,-0.0421737376529006,-0.10331240676913031,0.7861953087679358,0.3559916363617663,0.0032991992891724243
2014-06-09,0.11598922839181029,-0.0016033821943946189,0.4987884765131861,0.40739440340851485,-0.020568726113403425
2014-06-16,-0.02262780752611504,-0.0057581803265131125,0.9766222564181644,0.0813937319669825,-0.029630000488245833
2014-06-23,0.012079009169744257,0.010122818120204387,0.7666293592294108,0.1547718147380571,0.05639699874258356
2014-06-30,0.005644771465481159,0.0015071448765146098,1.0,-0.020147777360620848,0.012995861031358767
2014-07-07,-0.4232387022072836,0.1325472539779099,1.0,0.5278022842637614,-0.23711083603461536
2014-07-14,0.15450021206056178,0.07951200347466245,0.25989534196989267,0.35927600823609623,0.14681643425878688
2014-07-21,0.0050920158522849155,0.0024705839330081115,0.6857648800793574,0.2538270943418551,0.052845425793494494
2014-07-28,0.005382559651592032,0.0021401144074245306,0.879521791991245,0.06928079832560773,0.04367473562413074
2014-08-04,0.10823227324233306,0.015602963197381593,0.40464680729425156,0.38419191646207623,0.0873260398039575
2014-08-11,0.0037995014008483695,-0.025065108810415838,0.6140335636409815,0.5302432211878413,-0.12301117741925546
2014-08-18,-0.026683410834111097,0.005083722600578904,0.5410243657707042,0.4867130070338502,-0.006137684585096528
2014-08-25,-0.002354540748327032,-0.010050520484228493,1.0,0.0719338637568219,-0.05952880247916566
2014-09-02,-0.005665009563068894,-0.033479229738538105,0.8892165535250655,0.2847478361726059,-0.13482015039606432
2014-09-08,0.16429911549699136,0.08262857872978989,0.2378692073830733,0.3180948268344504,0.19710827155569502
2014-09-15,-0.007187880359364636,0.005168889036933951,0.9910554317286016,0.0351510401795817,-0.024187480570159396
2014-09-22,0.13039555772476918,0.06742933835991365,0.2513255061113754,0.22100436160095865,0.32984523620298317
2014-09-29,-0.009937116669554973,0.0017428452754102357,0.9237192209588895,0.042213500140509966,0.042261550663039986
2014-10-06,0.11470169462847708,0.010626714706501202,0.3848862078963131,0.45938095542373497,0.030404427344973575
2014-10-13,-0.000816613478835115,0.003553158210586002,0.9417919938423375,0.03975840154494769,0.01571305988170404
2014-10-20,-0.03465937280329392,0.0023810023526063162,0.9703336671691957,0.0983011526627551,-0.03635644921685453
2014-10-27,0.037992007399602616,0.011037288862690953,0.8046203105719337,0.10143191432608042,0.044918478839692313
2014-11-03,0.012016278239014135,-0.0017676754232529087,0.8891320016350295,0.12436805694447328,-0.023748661392168018
2014-11-10,-0.003008498022650368,0.004435699428455662,0.9399987834053669,0.05701978558790946,0.001554229576145119
2014-11-17,-0.009813668981739488,0.020921389226232056,0.9126956439070156,-0.03485021021506838,0.1110468458990077
2014-11-24,-0.06071361163145131,0.06508724557804586,0.4035766255100924,0.1290264859432723,0.46302325460004073
2014-12-01,-0.010172291647158986,-0.051272321439612564,0.7323872405055608,0.4324010594792779,-0.10334368673520992
2014-12-08,0.057672927521637614,0.047382961735955305,0.2688678355861619,0.3140749427046175,0.31200133245162764
2014-12-15,0.009562766150804546,0.003422501634354823,0.8456031169875481,0.14333660396161055,-0.0019249887325712674
2014-12-22,-0.007644101278262932,-0.002116884502967352,0.9683553997994164,0.0224609243873243,0.018944661603029656
2014-12-29,0.06723916010380372,-0.05962019616889592,0.34114573581440133,0.41383687193534446,0.23739842831551117
2015-01-05,-0.01567533290229168,0.010159211558811389,0.6078408150828702,-0.058925839081593566,0.4566011453457813
2015-01-12,-0.012179186169805584,0.010634463502496057,0.9218424780702633,0.027378253140580486,0.05232399145645401
2015-01-20,0.009852366441353644,0.0038468705670599785,0.9571684554774303,-0.06653598003104304,0.09566828754519904
2015-01-26,0.0983199098629481,0.06294811204429308,0.35199266301818855,0.023700051825922577,0.4630392632512447
2015-02-02,0.0037188720497909615,-0.008562682825388968,1.0,0.046157814000835316,-0.04131400322523753
2015-02-09,-0.008518143998867213,-0.01202277801634608,0.3405774242971918,0.39143101391955337,0.28853248379846813
2015-02-17,-0.036091843038284055,0.018687734614101333,1.0,-0.07367958736171047,0.09108369579304773
2015-02-23,-0.05335485067620354,-0.013257824206319215,0.9571883118254716,0.2515336415187577,-0.1421092784523135
2015-03-02,0.02434311505103794,-0.00036854589388932325,0.8599834946355204,0.0768353847849245,0.03920655142362538
2015-03-09,-0.035435108087559765,0.00671725942898562,0.9999999999999993,-0.06964769474497408,0.09836554307703077
2015-03-16,-0.04894918628346224,0.027097550462420853,0.3630418953849218,0.2674839926511729,0.39132574778494655
2015-03-23,-0.014546942344900296,0.008790170270420592,0.7653273458050861,0.07849195780750531,0.16193746871973497
2015-03-30,0.12529483922330198,-0.02304176080803286,0.9067510873407435,0.23319063227527298,-0.24219479803128563
2015-04-06,0.06495655082136277,0.0319263485897123,0.3460806484147477,0.09127508378629728,0.46576136838787996
2015-04-13,0.026918968873986794,0.00842746437653777,0.7178412749190912,0.1703606039522507,0.07645168787813335
2015-04-20,-0.06155617070229881,-0.02984127140814897,0.8426271149248732,0.36490872872769275,-0.11613840149327742
2015-04-27,-0.011910313445920768,-0.009997163053735396,0.9999999999999999,0.05740732280242779,-0.03549984624922562
2015-05-04,0.03250456011414411,0.011348805053179634,0.6973619200432846,0.4258149822544145,-0.16703026746502284
2015-05-11,-0.058442386535457816,0.007697773121436753,0.8905113254788023,0.11383531611063409,0.04639797182626797
2015-05-18,0.14042434064297027,-0.025138866525132125,0.49811612954970935,0.47471709631768483,-0.08811870016844875
2015-05-26,0.032409859980493894,-0.023940525971111223,0.8289780882335978,0.22307205284580328,-0.060519475094728346
2015-06-01,0.07871490992853747,0.08145076511690176,0.5886349552962696,-0.2794242111531197,0.5306235808114108
2015-06-08,-0.06522085138832096,0.030213712418756443,0.811673522441264,-0.07073626302249625,0.29406987955079694
2015-06-15,-0.02248802145679976,-0.00020424908230183846,1.0,-0.01376430516164041,0.036456575782994396
2015-06-22,0.04706525716540794,0.02428225514592796,0.2911336698264211,0.3432608587085099,0.29425795915373304
2015-06-29,-0.08946197999392434,0.0012327694869604712,1.0,0.13554084750663328,-0.047311636999669456
2015-07-06,0.06543183664871427,0.004404626235213081,0.5293973342264819,0.5066451087678803,-0.10587890587378182
2015-07-13,0.004017685308957088,-0.0026768551401958785,0.961316850282851,0.004922155644980982,0.03242016389570566
2015-07-20,0.004209159246277795,0.002891229235330765,0.8902310656714111,0.08309429419545236,0.0195742516515279
2015-07-27,-0.0038819660867886515,-0.0017221022129594707,0.9521209122378362,0.029574649468697433,0.023908506593294694
2015-08-03,-0.012558532610136555,-0.0047926679644954735,0.9491808995698167,0.10524442405547167,-0.037074123046303406
2015-08-10,0.020488846696007,-0.007170983961765401,0.7525803060331034,0.2542465117799235,-0.020144680417443127
2015-08-17,-0.00849960172265287,-0.004690406920503939,0.9999999999999999,-0.03139337217486703,0.044583380818023856
2015-08-24,-0.0013101765186880263,-0.005674602204897196,0.9999999999999994,0.06874823904788656,-0.06176346032430086
2015-08-31,0.0006854336453249653,0.004954625787840608,0.8425513803815287,0.16494300099384848,-0.013134440809090847
2015-09-08,-0.017221583851326813,0.00472835786208624,1.0,-0.025290055861663507,0.03778328185090403
2015-09-14,0.028580918505003838,-0.004600312851894304,0.5725871092575665,0.43321850675616447,-0.02978622166260034
2015-09-21,-0.028124378677858747,0.021042481687892595,0.7491113121575529,0.1003517688654327,0.1576188159663219
2015-09-28,0.06417702205602613,-0.020792046064217046,0.7977998971772512,0.4223846303827692,-0.2635695035518295
2015-10-05,-0.0177946698544507,-0.0063302691234961355,1.0,0.02254609753821233,0.0015788414397345046
2015-10-12,0.01888926344958091,-0.02921785259605197,1.0,0.06500000837781832,-0.05467141930238147
2015-10-19,-0.00976658538108712,-0.0004960373256374034,0.9350057526040845,0.06550433239440856,0.009752537603026879
2015-10-26,0.011991850977455667,0.004720554836190479,0.970682986084368,-0.006036870486852923,0.018641478588838818
2015-11-02,-0.033038707852177246,0.041901978457871566,0.5369003358201602,0.4902437170866836,-0.036007323512537964
2015-11-09,0.016295008031072342,-0.0025054445133291005,0.799648150833894,0.11896567854462335,0.06759660710402958
2015-11-16,0.009408129246211967,0.02409139410245804,0.3888890751677716,0.45147715092388685,0.12613425055967162
2015-11-23,-0.002047883161091824,0.009109548767571987,0.9054368402425697,-0.015084985792566818,0.10258647994907022
2015-11-30,0.02318627747124633,-0.0006832605225103445,0.5951198613470126,0.4370373523925604,-0.05466023064102365
2015-12-07,-0.008601920341186188,0.0014156911603110326,0.9922855459127584,0.02117539430442526,-0.006274711047880464
2015-12-14,-0.0037269062754375633,-0.00471011273854256,0.992494726984084,-0.004921077845652015,0.020863369879741578
2015-12-21,0.025064240041578045,0.05651383575717245,0.30926461344477396,0.17584246853992597,0.43331484221654953
2015-12-28,0.04087230082999825,0.00029067492176607405,0.8727353703424322,-0.12645391338763465,0.2125555672885422
2016-01-04,-0.028340568668063046,0.0066157346387321035,0.7228203407506995,0.24356659238519393,0.05533790088831796
2016-01-11,0.011174841479558963,-0.005665270413587631,0.9999999999999997,-0.017258537632906037,0.01174896656693359
2016-01-19,0.06476138373039604,0.004379837931235994,0.4320009582414769,0.48279206086254317,0.01606575923434799
2016-01-25,-0.002686673246902905,0.030786031290298405,0.33406784158523856,0.4045155969733322,0.23331720339758175
2016-02-01,-0.0008371273419163737,0.006576023573756669,0.9999999999999999,-0.01756893229099007,0.011830036132097349
2016-02-08,-0.016855155867439468,-0.044158176401791774,0.9542542586888415,0.1342547407662068,-0.027495667184664282
2016-02-16,-0.00848126461978418,-0.009830845163126697,0.9999999999999992,0.016832913943577443,0.0014791958395622812
2016-02-22,-0.005745578161684189,0.05044256832078113,1.0,-0.10384382892072491,0.059146838941371106
2016-02-29,-0.028339278588568547,-0.0002715051580438345,1.0,0.04770411340473919,-0.019093329671517258
2016-03-07,-0.019932900287759316,-0.0017257620789404905,1.0,0.0013246401305075633,0.020334022236192177
2016-03-14,0.029298017744089484,0.010881607567066432,0.7772332184905132,0.11331877454110074,0.06926838165723027
2016-03-21,-0.027105334923828564,-0.01968789255284882,1.0,0.10300553759564643,-0.05621231011896899
2016-03-28,0.04274417386829027,-0.0007517280385544962,0.6855984480197428,0.403247141834034,-0.13083803569131663
2016-04-04,-0.0077218327179848206,0.020837137081432797,0.30400117495126966,0.43773755894446337,0.245145961740819
2016-04-11,-0.0062421516852925124,-0.018598397457693285,0.6682376886746082,0.43334668148744715,-0.07674382130387601
2016-04-18,0.021409969189814408,-0.013952709421613587,0.7469743871581468,0.3548002136106216,-0.10923186037819492
2016-04-25,0.02895901365697115,-0.006474569463645623,0.7971643714343364,0.1444868090159459,0.03586437535845438
2016-05-02,0.03385867057193345,0.01899963482931651,0.44709883316225485,0.4982990487937042,0.0017438127538325701
2016-05-09,-0.015397740619534514,-0.016881065182713872,0.9995691471741794,0.03127283170463264,0.0014368269093561065
2016-05-16,0.015940661484977723,-0.005028029519001044,0.9999999999999998,0.05607314075475242,-0.06698577272072871
2016-05-23,0.0247252907407356,0.011145632690584027,0.42813413059588545,0.4568016794308406,0.07919326654195426
2016-05-31,-0.009063024946277047,0.006216087799681519,0.9351105430665588,0.032884429225067346,0.0348519648549694
2016-06-06,-0.012712761705795614,0.0017747109278319815,0.9999999999999999,0.020442505515617958,-0.009504454780287724
2016-06-13,-0.0004730268712330878,0.004811175448330924,0.9746115032498811,-0.022541725882475737,0.043592074099204924
2016-06-20,-0.018410365374431185,-0.00013294024589756472,0.9999999999999998,0.03377902838481772,-0.015235722795318114
2016-06-27,-0.026360421813695002,0.003070253049432137,0.9704738248730904,0.005333439027551934,0.04748290479172784
2016-07-05,0.11551861851317846,-0.03839983849582573,0.4016152455800424,0.4621525800528012,0.059113394358506384
2016-07-11,0.022132150736713308,0.07453283322120209,0.5355627966105204,-0.18932673861427976,0.5570989588497237
2016-07-18,-0.0031080273568737655,-0.02828653768868723,0.7844535702022476,0.1654287937139475,0.08151220113173792
2016-07-25,-0.010124422379936411,0.016418327362970615,0.6202570776090297,0.33181783353609284,0.04163118387339819
2016-08-01,-0.009783379398181163,0.003994413708845269,0.9445532055499306,0.057597811322690665,0.0036379488168505492
2016-08-08,-0.04655543555575805,0.01731103967295889,1.0,-0.05453924409128682,0.0837836399973402
2016-08-15,0.35523852036155007,-0.12117475712276807,0.48441397882977427,0.1614641363590454,0.12005812161080895
2016-08-22,0.13862098557244568,0.019927491235434736,0.5013108382732406,0.4644573901313525,-0.12431670464849116
2016-08-29,-0.029463938258618053,0.0536845621019989,0.5617100190557275,-0.016566440011545745,0.4306357971124374
2016-09-06,-0.020476962366477114,-0.002917570968593373,0.726147003058621,0.05109581196152626,0.24615171831492325
2016-09-12,0.012081617443751346,0.016966357147482014,0.31973019627572874,0.40207454132623466,0.24914728780680326
2016-09-19,0.08743601480360089,0.029490339173107567,0.279135475114137,0.37958194470771534,0.22435622620143922
2016-09-26,0.008286331851924622,0.021900817074844963,0.7816434674937203,-0.0895084763617423,0.27767785991847205
2016-10-03,-0.02314172496022632,-0.012187046193699652,1.0,0.17663647842154276,-0.14130770750792365
2016-10-10,0.000889985524872424,0.003796272649618989,0.8317179154312782,0.11806311844719973,0.045532707950661624
2016-10-17,-0.025391577897292263,0.010460138062953183,0.9831152801494712,-0.0752180187218217,0.1070341784155037
2016-10-24,0.05910667693585741,0.023698997127365753,0.4436322812784067,0.5154316933304139,-0.041869648807138796
2016-10-31,-0.0037817752762553526,-0.0033828700980688565,0.9999999999999999,0.004713779728900911,0.0024508656454232565
2016-11-07,0.004186045536956176,0.0047480442396142485,1.0,-0.016219483694567417,0.007285393917996729
2016-11-14,0.01288801899556974,0.0012644468994687506,0.9734518130883764,0.01889911897481996,-0.0065033979576718205
2016-11-21,0.00307529396369355,-0.0013249298446896766,1.0,0.04106138939717979,-0.04281175351618373
2016-11-28,0.008728995806003345,-0.016442632382838256,0.9592987440473388,0.09517866876640527,-0.04676377623506419
2016-12-05,-0.01994053967917054,0.008965450738343532,0.9999999999999999,0.027376937657581764,-0.016401848742266353
2016-12-12,0.007164289724817743,-0.0027834687359456003,1.0,0.026716527269119182,-0.031097348260508726
2016-12-19,-0.02975424073046759,0.010413725076018832,0.9999999999999999,-0.013619402751746201,0.032959918343541804
2016-12-27,-0.011086403202564352,0.02091374393481669,0.894150032016141,0.08351467012978839,0.012507957121186094
2017-01-03,-0.0046156272015131315,-0.06544935850794924,0.705570578399155,0.3773235236357351,-0.012829116322927384
2017-01-09,-0.042699979866612225,-0.006377061349528906,0.48262759222616114,0.10311095152421304,0.46333849746586475
2017-01-17,0.1634609733753767,-0.023756473672931665,1.0,-0.07814472610062503,-0.06155977360391114
2017-01-23,0.10777528112325259,-0.0026515087735045927,0.31201368893335185,0.15810650589262698,0.42475603282427316
2017-01-30,-0.01368305997848442,0.03244743110350333,0.31774611684067094,0.31459895874022936,0.34889055329408075
2017-02-06,-0.0357097150099545,0.0030235737587098474,0.9390026709748164,-0.06680639658026052,0.16048986685668878
2017-02-13,0.025921690943117217,-0.03676744642584185,0.862917070459355,0.09153351131986533,0.056395173708629245
2017-02-21,0.11091801940922622,-0.008495719508270237,0.3059688182472364,0.38795479067793914,0.20365409117386857
2017-02-27,0.13734051203874753,-0.03257681710589935,0.867852592296516,-0.15324882704825876,0.18063253924065314
2017-03-06,-0.003045130621872623,-0.00031120812016889046,0.9020884195895081,0.08857214394639988,0.012695775210846038
2017-03-13,-0.019351433225354854,-0.020567247723014454,0.4833296530856201,0.16215529728688982,0.39443373057585923
2017-03-20,-0.02040050315047164,-0.014974959210674616,0.9374434514736879,0.10501231878716308,-0.007080308136369735
2017-03-27,-0.026918088953095304,-0.0005718444679561488,0.9999999999999999,0.04617423201005964,-0.018684298606208516
2017-04-03,0.10910744450202518,-0.01972454993477258,0.5704347456306311,0.4755874530054595,-0.13540509320334335
2017-04-10,0.026367688048718106,0.0009910313236288304,0.796131366848049,0.2730862271793733,-0.09657631340364958
2017-04-17,0.019188667570317577,-0.05731684565889972,0.5184700354688391,0.02795061349955985,0.4917075291031937
2017-04-24,-0.013290100528087158,-0.011767967978789155,0.9468462957781061,0.11492144665429178,-0.03670967330342153
2017-05-01,-0.0077646637061339,-0.0009599573545304011,0.9999999999999999,-0.042877238088929626,0.05160185889677866
2017-05-08,-0.016052225345570395,-0.00797502200793821,0.922883185731426,0.09521228471372749,0.005931776906069713
2017-05-15,-0.001723279726651123,0.0007408414501807853,0.8790739662843706,0.14010788279259276,-0.018199410809268523
2017-05-22,0.006858388697229809,0.0011316341575165752,0.8750353982569347,0.08113532895336532,0.035839249934953646
2017-05-30,0.007217677950352722,-0.008790229052493662,0.7563051550695267,0.21365417662839403,0.03161321940506487
2017-06-05,0.13694531905023308,0.03002378559459395,0.28542989219595505,0.4646871569942177,0.08291384616500022
2017-06-12,0.026570282255645252,0.020808362419727403,0.43613911524346105,0.4785762982713751,0.03790594180979119
2017-06-19,0.004927191807520269,0.05462249233170125,0.39724928903449197,0.09245132405316085,0.45074970277312565
2017-06-26,0.031265581788165464,0.006314782750717642,0.7802834892449113,0.16556004729560633,0.016576098920599136
2017-07-03,0.0091064964574914,0.004712018538242576,0.9897582838642066,0.004147445433692186,-0.007724244290499838
2017-07-10,-0.10287986000333192,0.03198524283164014,0.3957295057946217,0.40679324711081444,0.2683718641338225
2017-07-17,-0.00152696290845257,-0.005954553171598925,0.9946653918784909,0.06654749166559591,-0.05373136746708488
2017-07-24,0.40627058744024963,-0.043133630566902025,0.3603749771357574,0.25111265761376056,0.02537540837713432
2017-07-31,0.04888785673736123,0.06090715705690727,0.2799848061419912,0.42551393062757853,0.18470624943616182
2017-08-07,0.04098720885802753,0.003135391505813737,0.89362778134242,0.12360173163839844,-0.06135211333848795
2017-08-14,-0.04254668168173802,-0.007868061556410129,0.9359005753046691,0.220355414457436,-0.10584124663686242
2017-08-21,-0.12766678943992305,0.027136664368933566,0.5967085473904906,0.04879313459752682,0.45502844310998086
2017-08-28,0.028067162746165168,-0.003246068383860347,0.860516938163154,0.22432279288166682,-0.10966082539708458
2017-09-05,0.1095887630225987,-0.006587382974533913,0.3925268124847631,0.5053074607060838,-0.00083565323891184
2017-09-11,0.11725207372808086,-0.019793603696579648,0.5588375443087686,0.5151788660530018,-0.171474880142086
2017-09-18,-0.004378770337770975,0.0024665468428563724,0.9529534664219613,-0.00854364254417461,0.05750239961740767
2017-09-25,-0.023292210321315537,0.005754689577543238,0.9739184809120893,0.06777132602909418,-0.024152286201553113
2017-10-02,-0.009552799954416338,0.0019396127720350757,1.0,-0.010738091716274552,0.01835127890562816
2017-10-09,0.04318616323494366,0.010328509019419101,0.5858147239478039,0.1265756633641831,0.23409494043365034
2017-10-16,0.048857064052579655,-0.004995962087036821,1.0,0.07593098869300194,-0.11979209039939794
2017-10-23,-0.04966755082711116,-0.0038336858996324726,1.0,0.01975846870565852,0.033742768021085064
2017-10-30,-0.006738104802614002,0.0033943465512150175,0.9999999999999999,-0.000688080668933634,0.004031838920332697
2017-11-06,0.03065399213092915,0.0056362437583517225,0.6850232972306521,0.21001479519599592,0.06867167168407104
2017-11-13,-0.029148371390328914,-0.0032770835668200497,1.0,0.036826221952760974,-0.004400766996548421
2017-11-20,0.07305108066234944,0.005871294698616881,0.9098657694420594,-0.05782480838866647,0.06903666365674331
2017-11-27,-0.009549926698446976,0.04696532553942337,0.30846189596860063,0.3970736456221649,0.2570490595651561
2017-12-04,0.011385273514909937,0.007480167402566925,0.9999999999999997,-0.023933006332359057,0.005067565446554351
2017-12-11,0.04371167829107523,0.009957382293240185,0.39350185453289926,0.50920698524697,0.043622099635815446
2017-12-18,0.029957271093199952,0.015592667625919236,0.3332921109110895,0.4350266643413308,0.18613128602846057
2017-12-26,-0.09737323440236577,-0.009594284263224544,0.8249458265517967,0.2825813284204681,-0.000559636306381655
2018-01-02,0.0306912452460374,-0.004032470492154135,0.9999999999999999,0.00975635523760478,-0.03641512998579001
2018-01-08,0.1373732718082223,0.004777087079471032,0.4461888957990922,0.48261445748146165,-0.07095371216725968
2018-01-16,-0.0029049629018353933,0.0065224208685064275,1.0,-0.014544816868260594,0.01092735890158942
2018-01-22,0.0019918072517686276,0.007286623267793562,0.8117301442238712,0.35182173711461284,-0.1728303118574049
2018-01-29,0.11661604953009926,-0.02548716803656917,0.6537730504084899,0.49172536008988366,-0.23662729200025012
2018-02-05,-0.18266853761971236,-0.02276028575311755,1.0,0.08877915180596233,0.11664967156686762
2018-02-12,-0.06157423522176656,-0.003437242467414814,1.0,0.10057188712859559,-0.03556040920992178
2018-02-20,0.07722333285683707,0.01001528364255651,0.7357798497040525,0.147600267072413,0.029381266724140914
2018-02-26,-0.005548069350577979,0.0004700769995591468,0.9999999999999999,0.005744331927866898,-0.0006663395771472222
2018-03-05,-0.013639775466912427,-0.006773437939036649,1.0,0.06445993251850639,-0.04404671909857095
2018-03-12,0.0027215861871531387,-0.002903910736663044,0.9999999999999999,-0.02077988291674608,0.020962207508028553
2018-03-19,0.03571724798122754,0.014303256852400447,0.5393294103287918,0.4735065629537409,-0.06285647812037243
2018-03-26,0.12501968893939158,0.02989183012419887,0.3972044503592425,0.2553422646747575,0.19254176590240957
2018-04-02,-0.05038967433969388,-0.010043567324563109,0.9999999999999999,0.048100661748217324,0.012332580011494551
2018-04-09,-0.20998143168899108,0.03843516615278177,0.6206851185054539,0.4247649627236873,0.126096184307068
2018-04-16,-0.0057833015724678,-0.004489622624307226,0.9999999999999998,0.0032749733685659126,0.0069979508306211346
2018-04-23,0.003263412012929621,0.009015471754276212,1.0,-0.02857100264440912,0.016292118877203367
2018-04-30,-0.01405682734593637,0.0005341069755842237,0.9999999999999999,0.015926232218844222,-0.0024035118484919665
2018-05-07,0.14758411361606738,0.04792361484582837,0.2919213165085874,0.14228275572413643,0.3702881993053805
2018-05-14,0.011485750985322054,-0.006447259862120741,0.96310381567124,0.019664431984315976,0.012193261220794033
2018-05-21,-0.02783324368041688,0.003344648064847769,0.9003133512376006,0.06265018477584969,0.061525059597455994
2018-05-29,0.012711839972370171,-0.009287812741751396,1.0,0.12190872483936459,-0.12533275206998346
2018-06-04,-0.04367497329909464,0.00352449159988177,0.9999999999999999,-0.23661561312768678,0.27676609463409246
2018-06-11,-0.0336964597175252,-0.02829625606423205,0.5962987938864451,0.5540979610947306,-0.08840403901872193
2018-06-18,0.012257103753352327,0.009114991428888641,0.9847839872517489,-0.06654919427659782,0.060393111830479684
2018-06-25,-0.015074839755537217,-0.00327238713860619,0.9999999999999999,0.000443357209957806,0.01790386968350506
2018-07-02,0.008506911460908357,0.00019337856614008755,0.9999999999999999,-0.01984133183929966,0.011141041885884918
2018-07-09,0.046893872132096,-0.01092593271363798,0.6851595875543572,0.30051728365714786,-0.021644810629809424
2018-07-16,0.022512572331483755,-0.026598830910393566,0.6322580584424489,0.4558971193323406,-0.08406891917884542
2018-07-23,0.07694198896110375,0.010324003481627689,0.7906121026023233,0.09708461952172581,0.025037285433219356
2018-07-30,0.013341182684714736,0.03998184406876344,0.36500387889399044,0.46631290708422024,0.11536018726831117
2018-08-06,0.05770576248971132,0.012867706597291508,0.5216530247119678,0.4387109970277581,-0.030937490826728913
2018-08-13,-0.019102653522775483,-0.009929964596146526,1.0,0.068405741903946,-0.039373123887752534
2018-08-20,-0.009699210085181235,0.0031639323383081818,0.8749170081858312,0.025658087434269183,0.10596018212648693
2018-08-27,0.02439090783674097,0.010295525667864777,0.8766628673052288,0.0915403731833008,-0.0028896739652161593
2018-09-04,-0.05270702877146123,-0.0021410349113085217,1.0,-0.0511260216877902,0.10597408532781467
2018-09-10,0.051144004083126464,0.0036615926808952885,0.5089175896253902,0.535521605454322,-0.0992447918437341
2018-09-17,0.06203275990597682,-0.04728429763810102,0.9546477665186927,0.17818325491920067,-0.1475794836954546
2018-09-24,0.013494980946144732,-0.00033476177009637907,0.9421282661181571,0.05560192244548877,-0.010890407750602819
2018-10-01,0.005545853062576254,0.009982490655328424,0.8703598109165605,0.10476820088273701,0.009343644615085835
2018-10-08,-0.032261224498732866,-0.005533780061110735,0.787316430612345,0.3144953860295951,-0.06401681208209656
2018-10-15,0.01849849935289333,-0.008402381978918913,0.8953324903075962,0.15045133076328995,-0.05587993846199171
2018-10-22,0.08247743761300079,-0.05849120215884799,0.7767175798632451,0.45827412362448927,-0.2589779389418871
2018-10-29,0.005936378260714881,-0.0055731504525842485,0.9207381666185909,0.06967934603747486,0.009219259567832275
2018-11-05,0.021430359684951918,0.05712836598879679,0.9601998627345797,-0.1572628475137156,0.11850425911074139
2018-11-12,-0.03553099233339176,0.006853069808638357,0.7314988826568621,0.22438244865860169,0.07279659120916569
2018-11-19,-0.01187134512310487,-0.0003284181637106564,1.0,-0.0033737145946894295,0.015573477800796784
2018-11-26,-0.0027328575203800984,-0.021996736163354184,0.6270205331138426,0.45928034137991725,-0.06157128081081471
2018-12-03,-0.018106705375019027,0.0021801157948480236,1.0,-0.003201593156477985,0.019128182741948677
2018-12-10,0.2846817988528319,0.050642681470027824,0.1818522533338036,0.24759906805212178,0.23522419829121505
2018-12-17,-0.06107312109265171,0.003671323611005874,1.0,-0.039822264375608415,0.0972240618572543
2018-12-24,0.014995545869310331,-0.012935827658185456,1.0,-0.019224725764267113,0.017165007550833517
2018-12-31,-0.008728989067120097,0.02848185976348151,0.49489831204158896,0.4724173329616463,0.012931484293065202
2019-01-07,0.17834635720167563,0.03459273874374045,0.2564465100011631,0.34740065929163766,0.18321373476178318
2019-01-14,-0.007771463771101176,-0.011174027664739197,0.9087185521249328,0.027709683018784015,0.082517256302392
2019-01-22,-0.00810811976516372,-0.014474326395719285,0.757014503819028,0.35493362722455235,-0.08936568487918185
2019-01-28,0.21154164040602055,-0.03260052928477632,0.5721662231710961,0.4351835925573764,-0.1862909268415596
2019-02-04,-0.11463885869982245,-0.009666567929583968,0.891659863883129,0.27608562129802483,-0.0434400585776055
2019-02-11,0.04279736100506959,0.0010159078322218508,0.47662564845998706,0.48429507757618,-0.004733994856308015
2019-02-19,-0.002720618192419382,-0.015014546398883702,0.7782722392058868,0.20452595403755575,0.03493697137381923
2019-02-25,0.03827607428307195,0.013700373498967711,0.4066555199808185,0.5099324381924756,0.03143559404466634
2019-03-04,0.15168040482432915,-0.001096957993281678,0.26987041409858414,0.43814571069791336,0.14140042837245498
2019-03-11,0.014196569800710447,0.004044221103260329,0.9717015594443821,-0.01703733583810869,0.027094985486756946
2019-03-18,-0.004594104225234267,0.003599539040863897,0.9510235202746833,0.008494729412951757,0.04147631551769787
2019-03-25,-0.16689065230189598,0.08610945577322612,0.5000914060228422,0.09105894674345301,0.4896308437623746
2019-04-01,0.017045283973179896,0.009795789628236516,0.4399726962874977,0.4853896049999586,0.047796625179513
2019-04-08,0.11543683104536374,0.009333262972741114,0.26050192000033806,0.2698519695081399,0.3448760164734172
2019-04-15,0.05404491925383162,-0.00540775111891193,0.30868040977050676,0.3680987628891535,0.274583659196265
2019-04-22,0.03561398125849845,0.036428888558407986,0.377841613249752,0.42081860458193066,0.12929691235141086
2019-04-29,-0.0337888096440381,-0.004211035171326618,0.9999999999999999,0.06195678549326625,-0.0239569406548345
2019-05-06,0.02807875203869049,0.011468389462006588,0.6429440122451415,0.2570184405475566,0.06049040570660481
2019-05-13,0.1250777455356218,0.002657772110842762,0.2594600637244837,0.39078150222814756,0.22202291640090419
2019-05-20,-0.01945193401485052,0.003248663440266733,0.689775171080494,0.3139663501330576,0.012461749354413194
2019-05-28,0.028437924922304368,-0.018497834223186595,0.9097264513442362,0.15770256691736265,-0.0773691089602145
2019-06-03,0.06567838144868854,-0.003682224072484785,0.45426346148456764,0.5303174277127011,-0.046577046547928165
2019-06-10,0.15688231100288258,0.022422782868830034,0.3039128483406723,0.40876575859705916,0.10801629919055601
2019-06-17,-0.021204977504331292,0.047562199159796474,0.3268311204406578,0.5527657931412789,0.09404586464678764
2019-06-24,0.0183193128115633,0.012406053001414922,0.7499688689041846,0.331401981551151,-0.1120962162683138
2019-07-01,0.03214168601099447,-0.01160368546819194,0.21880172966949038,0.7559861960710974,0.004674073718151807
2019-07-08,0.05158820767711512,0.038653664515391616,0.33356184652794935,0.20307678575302487,0.373119495526519
2019-07-15,-0.006646490517790448,-0.016308068957674438,0.5284095749160906,0.49630357510724726,-0.0017585904469141077
2019-07-22,-0.024453370275622718,0.00214856908166548,1.0,0.09064022430920315,-0.06833542311524625
2019-07-29,0.053235410642592906,0.022629234674602546,0.38832953652100494,0.493293523535489,0.04251229462631059
2019-08-05,0.00944540309250664,-0.005858502099097469,0.7870351965939464,0.2510123756841934,-0.041634473280941976
2019-08-12,-0.015340103804197106,0.007993371624952707,0.4944718592252005,0.4847982474684893,0.02807662548599491
2019-08-19,-0.07016862124709213,-0.004170315193848034,0.9247257306038454,0.16899286343603642,-0.019379657786280636
2019-08-26,0.009541547418631563,0.0011889136825984656,0.5146077015817117,0.5171777963828798,-0.04251595908631233
2019-09-03,0.008649154729199903,-0.0009406649699502211,0.8945044902993258,0.03532862283146703,0.06245839714139895
2019-09-09,0.024028192854503517,-0.007538061895133286,0.4425573704814231,0.4663662984873535,0.07458620011178498
2019-09-16,-0.049576727272820476,-0.015706839332015454,0.9739950079508134,0.18885216777196043,-0.0975636091206648
2019-09-23,-0.0020942106064620577,-0.013417146225358726,0.9999999999999998,0.04155115955020752,-0.026039802486497135
2019-09-30,0.0038019321722769653,0.009448021085964115,0.5645356322350088,0.47176112183365637,-0.049546707306818386
2019-10-07,0.07133780149644481,0.027035298952357383,-0.001379301349039272,0.6634060556649278,0.23960014523321965
2019-10-14,0.06419747316095906,0.021349620332409815,0.518066339240304,0.1257239794471754,0.2706625878191517
2019-10-21,-0.057063266060818754,0.04515691980609284,0.457312032356166,0.4889002945281189,0.06569401937693595
2019-10-28,-0.005562690062123036,-0.005870744140099295,0.9726986990479178,0.022702962000574024,0.016031773158622243
2019-11-04,0.007257830489918059,-0.005066868550919766,0.40973097654110274,0.5609252635317339,0.02715279800427151
2019-11-11,-0.03260831542458374,0.00560410004369124,0.9999999999999976,0.035546003935439795,-0.008541788530507155
2019-11-18,-0.08188594218072424,0.0016382066024941617,0.6658549945345242,0.40315224428436314,0.011240496753098052
2019-11-25,-0.01069759556357736,0.004190411794029679,0.8491597219958212,0.13721717651926793,0.02013028525242667
2019-12-02,0.008586356516564149,0.0007730556977368037,0.6510928492858394,0.3443547949925666,-0.004807056499547437
2019-12-09,-0.06348745016288845,0.01363836044570002,1.0,0.00184262776867286,0.04800646191480084
2019-12-16,0.11050248291989674,0.005585858923233178,0.29070849467339704,0.6011640278261656,-0.00796086434211825
2019-12-23,0.023784099039083267,-0.009868502879919397,0.6447236616567619,0.20310268525521885,0.13825805692885546
2019-12-30,0.18836255049974573,0.13683017069286105,0.27029622631300126,0.02039194062858065,0.3841191118658114
2020-01-06,0.02135107063057102,-0.018305858197845668,0.6510421633904067,0.4813859891705396,-0.13547336499367157
2020-01-13,-0.008736126034339993,0.009960417135079804,0.9249488766495197,-0.0021595214068138783,0.07598635365243815
2020-01-21,0.0041945859619435845,0.11336011590344142,0.32706219774495887,0.42015880607309075,0.13522429431656535
2020-01-27,0.010230437987424306,0.0009007601723519574,0.9999999999999999,-0.046987040591235894,0.035855842431459714
2020-02-03,-0.02173475518199629,-0.003399242688203145,0.9999999999999996,0.027725047857148185,-0.0025910499958219442
2020-02-10,-0.006917889663077612,-0.006461089879676793,0.6928995917746511,0.3079329757193576,0.01254641204659146
2020-02-18,0.0009142526983494235,0.0176765963848064,0.9022771304610302,-0.06341451507710423,0.1425465355007934
2020-02-24,0.040075778880280466,-0.017513298965863587,0.7581979785760689,0.3797567049490388,-0.1605171634383936
2020-03-02,-0.026425223716892886,0.001218886727118355,0.5535204049485529,0.49344625394491465,-0.021760321871160504
2020-03-09,-0.025979059800789815,0.0018802982214001362,0.9999999999999993,-0.053076994333988166,0.07717575587015214
2020-03-16,0.09225366544358458,-0.06472847562023641,1.0,0.26661293183275764,-0.29413812165610603
2020-03-23,-0.03709760672571196,0.055122256620019475,0.9777402067240267,-0.2530049376439264,0.2572400810277582
2020-03-30,-0.023779205881182888,0.03690337910257854,0.5194942024155726,0.3665194697345272,0.10086215462840856
2020-04-06,-0.0058301115001189695,0.0007005492995290255,0.9999999999999997,0.02287480833589818,-0.01774524613368505
2020-04-13,0.030777041161301154,0.061271261279648166,0.46609801440803766,0.4796878174633569,-0.037834134311877134
2020-04-20,-0.000613524216473207,-0.006318069688620544,1.0,0.022034824617058968,-0.015103230617582272
2020-04-27,0.009518732108983076,-0.00025003039264915016,0.9999999999999986,-0.007820915895956975,-0.0014477858203754525
2020-05-04,-0.004332299105857973,0.006873963989872719,0.49059297561880355,0.46964041926746025,0.037224940229721386
2020-05-11,-0.0033041582650543645,-0.0176565107212374,0.6352192732727978,0.2818905818476631,0.10385081386583077
2020-05-18,-0.010273902382710321,-0.004749079001464012,0.9999999999999999,0.04145169463128258,-0.026428713247108163
2020-05-26,-0.015240106172988398,-5.061368869931673e-05,0.9999999999999999,0.0021074728367862982,0.013183247035637403
2020-06-01,-0.06917655181663163,0.06685673313611186,0.40300906825363575,0.4761897658512398,0.12312098457677731
2020-06-08,-0.009655045772235447,0.012947339881340034,1.0,-0.04248356683432921,0.03919127272522445
2020-06-15,-0.004971963927203102,0.0043480365099820995,0.9468428425517441,0.022386094161472338,0.031394990704004457
