Week,0,1,2,3,4,5,6
2010-12-27,-0.03109090973161248,0.5211727257782401,0.4438084112761467,-0.14892692286021728,-0.27091308222681204,0.5091778203809709,-0.0232280426167159
2011-01-03,0.24683568754405658,0.90349051379764,0.13414876120639574,-0.2881811384493099,-0.2602089356570892,0.19994207065752395,0.06397304090078298
2011-01-10,-0.050923120753533536,0.6220280454685014,0.5130440274495203,-0.137347867971979,-0.13780537936651524,0.5402878456659074,-0.34928355049190124
2011-01-18,-0.005155633555353792,0.9526044513970631,0.5285802209486545,0.03301573855261936,-0.1404656225610029,0.43098099820467456,-0.799560152986655
2011-01-24,0.23319778082764983,0.48981926080431176,0.5602472726014088,-0.13893767294190007,-0.27703304721032523,0.24123058891978463,-0.10852418300092972
2011-01-31,0.295738636868129,0.6578708601353281,0.5909336255222322,-0.03879208275455951,-0.24929012010062845,-0.33601838005611084,0.07955746038560957
2011-02-07,-0.017473919560084657,0.5013746724661864,0.660060292472269,-0.32258114740460647,-0.17755757123023422,0.11956969446178549,0.23660797879468448
2011-02-14,0.3591643848934581,0.296513056745438,0.3173722117625344,-0.024567107056936714,-0.2630207260623792,0.27643668285562606,0.03810149686225952
2011-02-22,0.40562424944344994,0.25291582318843814,0.36516619989305565,-0.16836641724725881,-0.2445145419978217,0.29284387608486073,0.09633081063527603
2011-02-28,0.22432428471827978,0.40523125187123993,0.19458180375501974,-0.10189120018873116,-0.3470183734978381,0.1264800195047574,0.49829221383727246
2011-03-07,0.3051101541940552,0.3285673998153576,0.1454119318559956,-0.22431252598326032,-0.2990085258551326,0.25734646914249987,0.4868850968304847
2011-03-14,-0.2290881816294382,0.9908215210910022,0.5125053429687799,-0.500687961034977,0.00942431489086676,0.2532832642121348,-0.036258300472967415
2011-03-21,0.3543599831353525,0.36078133933271267,0.5141248044758554,-0.4506413603825102,-0.05570287771972821,-0.022345509825481606,0.2994236209837995
2011-03-28,0.2260359717393228,0.6550241683105155,0.5563827650577963,-0.2217834531364036,-0.1519631118121498,-0.2773717059363573,0.2136753657772762
2011-04-04,0.05937888821340154,0.45824067388810896,0.45583666987581856,-0.6018808244495374,0.05680018195113981,0.14987828895364694,0.4217461215674215
2011-04-11,0.22881141496488114,0.5850658053965667,0.5119254131110493,-0.4069288941877604,-0.21271768103410704,0.04158274934365919,0.2522611924057112
2011-04-18,0.3547247375245774,0.23923252571013431,0.255713701967885,-0.2182773336480685,-0.14029644214613915,0.2110792971124588,0.29782351347915226
2011-04-25,0.519223396482479,0.31418363387952675,0.20187144176365124,-0.2509068547130596,-0.15832827689370682,0.3390043497434028,0.03495230973770669
2011-05-02,0.2009183590696525,0.5725684983672057,0.6819470589353256,-0.18750945913205322,-0.19798378504230674,-0.2833540461825823,0.21341337398475854
2011-05-09,0.22393335280744367,0.23213810806102964,0.5264611381749489,-0.19301968297637787,-0.27568415938733487,0.23519218044621473,0.2509790628740758
2011-05-16,0.3242292718719148,0.36606013236969515,0.39990554495581665,-0.33644772293680414,-0.21879829129920575,0.33440929117680585,0.13064177386177736
2011-05-23,-0.08446507284378937,0.3234663000527115,0.82980154174457,-0.2953731496933452,-0.1953678264218375,0.3840154411374197,0.03792276602427088
2011-05-31,0.4829625487664125,0.5099525015545822,0.3396917767192106,-0.3708773826126257,-0.2779189830694887,0.05723378305786334,0.2589557555840458
2011-06-06,-0.021005612936557828,0.4879924408780929,0.5390094197434606,-0.2632440698051062,-0.18839428985277962,0.45219934577319004,-0.006557233800300086
2011-06-13,0.1987716385981613,0.6468610045653926,0.72346562916184,-0.20261600669079413,-0.31125818851027304,0.19657263770086494,-0.2517967148251918
2011-06-20,0.24049583905743516,0.19848574852752798,0.26726474084976787,-0.3659791654971562,-0.20174448166098463,0.47020237307210083,0.39127494565130905
2011-06-27,-0.1116148272186029,0.46447292083583114,0.6063831441744835,-0.34818087567885775,-0.11005001656101847,0.18479262114340417,0.3141970333047604
2011-07-05,0.11660778714790544,0.9472751308492081,0.5088805674283144,-0.5603645097926084,-0.35004826373018194,0.558341198943515,-0.22069191084615253
2011-07-11,0.18401204187726544,0.5191018978407403,0.5749719048723987,-0.19891398542726907,-0.39269229068462974,0.1169137605479478,0.1966066709735468
2011-07-18,0.17022042894525924,0.39383712877791666,0.5924280153427939,-0.3911074837225187,-0.14068994839636406,0.20679122715324622,0.16852063189966673
2011-07-25,0.0037166145031538216,0.459666722948547,0.22112238158736752,-0.4530805178828213,-0.06920226351031572,0.6185415677068782,0.21923549464719064
2011-08-01,-0.08252235274941595,0.888879920280042,0.2258624446165456,0.19214098583911543,-0.38846966866579147,0.20810348563667722,-0.04399481495717288
2011-08-08,0.4445068814247911,0.557400753199572,0.5512114653992184,-0.3745797932404792,-0.09851159669476255,-0.19196132082335696,0.11193361073501715
2011-08-15,0.11196300975566295,0.8786886569849841,0.24925990911181756,0.028511781194564118,-0.536540804560762,0.3749210670101938,-0.10680361949646056
2011-08-22,0.13670402719151206,0.42935988380587664,0.5974596829751816,-0.3439291450403874,-0.16767256493804056,0.2571035350416911,0.09097458096416658
2011-08-29,-0.23172545706275566,0.2811033650489175,0.473483041468437,-0.7343314164051341,0.16693642025835867,0.8240538305918627,0.22048021610031393
2011-09-06,-0.008492249529829009,0.5625950355804115,0.3129309419428768,-0.19534404755317875,-0.2911796827559753,0.7445904066996203,-0.12510040438392553
2011-09-12,0.35474814790569364,0.382397846228846,0.5029654665904585,-0.2960364753844147,-0.2955269063702838,0.20955744774743681,0.14189447328226362
2011-09-19,-0.06743081001531952,0.9999999999999994,0.9505669528241235,-0.29479855571546426,-0.6891219285508172,0.22090484940304642,-0.12012050794556835
2011-09-26,-0.11820284908296523,0.6717806107643952,0.6220197886469214,-0.3400211651023188,-0.1292014951259725,0.3553464816067025,-0.061721371706762666
2011-10-03,0.11947405926923818,0.5248755123454605,0.775705922579871,-0.2220113841743924,-0.26873663724952884,0.043230764911265464,0.027461762318085985
2011-10-10,0.24062517346353063,0.42045844858036074,0.5457788642617363,-0.5116319385338561,0.021771073688971247,0.2038204103203665,0.07917796821889081
2011-10-17,0.09191058294400452,0.4047625850221786,0.6069585020936186,-0.25168557496784005,-0.23475302851410818,0.3313786178676001,0.05142831555454644
2011-10-24,0.1317097896229251,0.417151708168059,0.4496376598383811,-0.4593394884823624,-0.1477620643217244,0.22378671864904748,0.38481567652567417
2011-10-31,0.056798135000428435,0.9999999999999999,0.680152227470588,0.10027373529985185,-0.2780908309445052,0.4408667331736368,-0.9999999999999999
2011-11-07,0.4217888955799734,0.24841918256868994,0.18330381141320562,-0.38527859893512634,-0.12843004152379814,0.6120924858292764,0.048104265067778935
2011-11-14,-0.05641025508096784,0.5921379423740749,0.505958513463666,-0.43801695513179356,-0.11474148892711962,0.11954335565567863,0.3915288876464614
2011-11-21,0.19695035836091795,0.3860527600238835,0.38145533432241446,-0.3005706684790221,-0.19063662140924456,0.5637887247463224,-0.03703988756527148
2011-11-28,0.11160378850250335,0.3090933840427104,0.4626917387965265,-0.265011233932159,-0.1825839050317184,0.4688144177703794,0.09539180985175762
2011-12-05,0.13225992387797839,0.8363366193249263,0.6980094176698729,-0.2828515257209045,-0.24152555394768585,-0.09422672739080021,-0.04800215381338732
2011-12-12,0.1522932140874454,0.5565633402744893,0.7881953930209628,-0.241270577284661,-0.24782733196660298,-0.052268956353357404,0.044314918221723905
2011-12-19,0.038397848994695526,0.3994831839074818,0.5519092836251724,-0.3697472751871626,0.053949039698816974,0.06890815870042323,0.2570997602605726
2011-12-27,0.5988357213866923,0.8279738262488603,0.18532060986589266,-0.13754006949119724,-0.36215897411417375,0.26110609008132973,-0.3735372039774039
2012-01-03,0.43774567109341345,0.2784012070148734,0.3896861700242034,-0.3858210585758737,-0.13376871868204981,0.2811567706514308,0.13259995847400236
2012-01-09,0.25977856842560865,0.3331867690976428,0.45107834849549705,-0.3235100699907821,-0.1175382982730785,0.4359478766046743,-0.03894319435956205
2012-01-17,0.19280061580221391,0.4416319657973496,0.26240346554138083,-0.12285845605245418,-0.30068945649407125,0.5936051497066294,-0.0668932843010483
2012-01-23,0.09502631698303775,0.7711786453829469,0.5335717270130427,-0.45301499687908037,-0.04491683078206971,0.07343647123707459,0.024718667045048142
2012-01-30,-0.03216201459166445,0.39392491239122596,0.4213803756492387,-0.48909826508211485,0.08833430616082118,0.4051453949384911,0.21247529053400233
2012-02-06,0.10945111557842666,0.5565063791803793,0.7729827251480078,-0.2852335343504149,-0.18004307442697656,-0.027057595316710134,0.05339398418728791
2012-02-13,-0.12647631439569954,0.6079030148198585,0.7300232688134267,-0.39944389550047926,-0.16411388260696602,0.3061589625568298,0.04594884631302974
2012-02-21,0.10935965650035569,0.498662925642225,0.7951116257635849,-0.4152501336325571,-0.10379162422543597,0.0686571243113631,0.047250425640464486
2012-02-27,-0.057808150102888076,0.45135913764505226,0.4951313622766145,-0.18407288328982707,-0.2382375055546295,0.40633275212150677,0.1272952869041712
2012-03-05,-0.007871074011957609,1.0,0.83720062706894,0.09666435696571178,-0.3446603687467871,-0.0884761213587841,-0.49285741991712295
2012-03-12,-0.07710140584445929,0.6561533310588891,0.6672121180725151,-0.2820544611794137,-0.14165813791961052,0.20680019348002768,-0.029351637667948245
2012-03-19,0.6720884371769722,0.1853421107680152,0.40395078751156804,-0.4210053296566214,0.02688393985670804,0.27108481919677985,-0.13834476485342206
2012-03-26,0.03856159027905548,0.4513307627042098,0.5034075882097497,-0.25843514025210357,-0.24731601653900953,0.411237890700528,0.10121332489756996
2012-04-02,0.180037586386508,0.36384095347495155,0.6066371678935399,-0.3883115072870455,-0.1910562415119961,0.32271053240842185,0.10614150863562011
2012-04-09,0.3225514696383083,0.26528245141498324,0.3030487754795742,0.05286808652327098,-0.35497255439071385,0.1337358662075903,0.2774859051269869
2012-04-16,0.24459397271417654,0.6034804138737255,0.6276472219204088,-0.18457373706234492,-0.3986576129108428,-0.043186889568509204,0.15069663103338615
2012-04-23,0.24142204861974118,0.3296150571037812,0.1626136602630208,-0.058968180696206095,-0.27729736748562706,0.4579079934267619,0.1447067887685281
2012-04-30,0.24413336654335088,0.4938874617871096,0.5025938415156864,-0.41634225613844383,-0.1029844908190034,-0.21242678105594,0.4911388581672402
2012-05-07,0.190577055032582,1.0,0.31241760920935574,-0.3886420631492718,-0.06224753151614349,0.0036463772572790346,-0.05575144683380147
2012-05-14,0.15577608075426416,0.5512244233983331,0.615254116807002,-0.04486307449471283,-0.2940959977965661,-0.059260460532028304,0.07596491186370785
2012-05-21,0.1963083288098212,0.3899174718946994,0.7580285429908922,-0.3356896234504059,-0.26446968793860065,0.3860853341071262,-0.13018036641353242
2012-05-29,-0.04835728142693214,0.5007684288073251,0.6020773968770377,-0.321131837532376,-0.13223518144056423,0.295894726918514,0.10298374779699569
2012-06-04,0.2826685478582185,0.3988412629706492,0.49715853828485246,-0.4199377332487204,-0.15183853622008614,0.3227579496723208,0.0703499706827656
2012-06-11,0.10765447136521188,0.40428790048292834,0.37699809454501954,-0.3158491411698608,-0.20488631512687858,0.5157724641143339,0.11602252578924568
2012-06-18,0.11879747291793818,0.37985807417577466,0.5430293660763017,-0.48437340908961984,0.0023743738026007137,0.2968779073062238,0.14343621481078075
2012-06-25,0.032174508683980994,0.29074308503413826,0.4386784028320823,-0.2813564293613199,-0.1777197060167073,0.5797233051937453,0.11775683363408038
2012-07-02,0.37625466139311253,0.5045805582800194,0.33282121796825576,-0.39538792321675115,-0.17714863204406076,-0.17430894221402896,0.5331890598334531
2012-07-09,0.4240020002654319,0.35053609613897363,0.10378883734180902,-0.04443353812862716,-0.37365169173799884,0.30599296380682167,0.23376533231358973
2012-07-16,0.2816305863922703,0.3644904477113838,0.5116631468807441,-0.5079514725292995,-0.05977246969775204,0.1945282393688862,0.2154115218737671
2012-07-23,0.19534180878598453,0.320823101982095,0.46345535148374734,-0.15669820831206435,-0.22149991738937963,0.009246805389910906,0.38933105805970625
2012-07-30,-0.04414148999135074,0.4264164851101593,0.7046025621906652,-0.4507277952247013,-0.06159961009884868,0.3264276025959311,0.09902224541814529
2012-08-06,0.20275758478521608,0.44875861052917043,0.5379959834317036,-0.29101975794396256,-0.3460703147530737,0.12511470343331935,0.32246319051762656
2012-08-13,-0.04464771612244023,0.46490554146788926,0.7420851020050034,-0.28769180213136775,-0.21306735525576354,0.21975693823976883,0.11865929179691001
2012-08-20,-0.04314056201599917,0.5999808663170438,0.4679828112225997,0.07314109188019254,-0.445591641210677,0.029457144479660097,0.31817028932718006
2012-08-27,0.1597189685415598,0.45951958082031374,0.6567954238762199,-0.23465058420892437,-0.32003150282054804,-0.003846518134994116,0.28249463192637303
2012-09-04,0.3671214092729492,1.0,1.0,-0.6311387954392793,-0.17603593681677726,-0.3926058160937197,-0.16734086092317302
2012-09-10,0.09270725843060465,0.37248926010321753,0.49153976057553933,-0.4132771952824836,-0.1433420889537227,0.4176035066660504,0.18227949846079436
2012-09-17,0.27895387745038985,0.338634241455705,0.42232885033902434,-0.3798284935459653,-0.1607324786451581,0.3070699602591516,0.1935740426868527
2012-09-24,-0.34750543142381096,-0.5045186238176822,0.8673058311576022,0.9024286267510641,0.5878174762705467,-0.07113303718742073,-0.434394841750299
2012-10-01,0.055094883649324876,0.9848444214150623,0.4487262110692537,0.0640322900728488,-0.3911630587457082,0.5048930073963374,-0.666427754857119
2012-10-08,-0.13997683836935765,0.6855398757429333,0.6454987911242578,-0.3152081450511743,-0.12755965184933168,0.0801568743170559,0.17154909408561655
2012-10-15,-0.13863075711245212,0.39821458839104246,0.5372900660849415,-0.08299010466844582,-0.17496337486213032,0.33915121193651043,0.12192837023053395
2012-10-22,-0.17711418131191828,0.576731818978144,0.4885076542937987,-0.4926499988830696,-0.013299981107854457,0.1367619619532773,0.4810627260776225
2012-10-31,0.06785263944717675,0.2779221660789719,0.3323602067496385,-0.24041592692573288,-0.1685488686906086,0.3148432103963271,0.41598657294422725
2012-11-05,0.2500872518512443,0.2752530995545867,0.18769131256232713,-0.09584739634632207,-0.23504473104264462,0.33016288827320256,0.2876975751476059
2012-11-12,0.07534988895921647,0.3589620007212451,0.519014680491694,-0.4565661255030636,-0.038459338473129455,0.26174513659203497,0.2799537572120027
2012-11-19,0.15911492889636666,0.3768972669202147,0.8800564578213798,-0.3291254520215877,-0.09096070466619278,0.012777989181752242,-0.008760486131932903
2012-11-26,0.21061608845726662,0.42117559488965517,0.42646761972006264,-0.3416807907041064,-0.1373114993485349,0.24013303551941723,0.18059995146623986
2012-12-03,0.12913259709709762,0.3126361562985993,0.5643257576582043,-0.4141188664976396,-0.08200633774442749,0.20553891131560065,0.2844917818725653
2012-12-10,-0.06885555344359028,0.421505759036967,0.5791352947074226,-0.4040389993739649,-0.06227962619616059,0.10616849710139398,0.42836462816793225
2012-12-17,-0.14378993681260688,0.9201094985182305,0.5539712716260271,-0.16578805251635573,-0.2467024350711098,0.13826314241944515,-0.05606348816363034
2012-12-24,0.1417650379081936,0.6478993158376368,1.0,0.17762604182078043,-0.5883695045815098,0.6210791090148988,-0.9999999999999996
2012-12-31,0.42395543430934185,0.20156154605975468,0.18698965948343693,-0.13965553932740832,-0.07768954487377368,0.17275285728865603,0.23208558705999244
2013-01-07,0.272044439466398,0.3018385849081064,0.24915280464529044,-0.2895662257008804,-0.1333416690400521,0.574700899476576,0.02517116624456171
2013-01-14,-0.2286801728128739,0.5290747047342242,0.5118498882722426,-0.3626448099648634,-0.06093016991108253,0.5668541696144577,0.044476390067895256
2013-01-22,0.32082571329030285,0.19074308520737338,0.22287659120243733,-0.2625724942501247,0.014234221058439854,0.17798905272494944,0.3359038307666217
2013-01-28,0.10639651150628247,0.24601296637905928,0.4803060074104762,-0.06572121833814631,-0.16360729273062366,0.12371594824011503,0.2728970775328369
2013-02-04,-0.3038807750433046,0.6160397121088468,0.5820798344023517,-0.33054014474409915,-0.0758122015036488,0.5161459598968464,-0.00403238511699234
2013-02-11,-0.06378364961068485,0.4542979251396316,0.527681910978954,-0.4878766389193559,-0.05324675244747118,0.3033850487461537,0.3195421561127727
2013-02-19,0.07217470014825705,0.27032259771225847,0.5119824414420079,-0.08540827498692768,-0.03002560241277914,0.2664477431405056,-0.005493605043322152
2013-02-25,-0.033822727255987124,0.46155158626470566,0.30362458217090366,-0.5473718957571148,-0.014549117091711767,0.4351746396613683,0.39539293200783593
2013-03-04,0.3344773347410233,0.603886553856159,0.8219656720155313,-0.45698742574086865,0.12991920586664735,-0.405116897601456,-0.02814444313703616
2013-03-11,0.14738081800182615,0.3214346226619049,0.6094070862612022,-0.2368624327861983,-0.2051437021224637,0.06756136909304533,0.2962222388906834
2013-03-18,0.546818702845695,0.81207282059114,0.41706546115108634,-0.6151564445332263,-0.37953767308675124,-0.7806819205145621,0.9994190535466182
2013-03-25,-0.709345784977905,0.9979200982830834,0.6138803658943072,-0.02925767150261981,-0.5103070771964597,0.16173786015801864,0.4753722093415755
2013-04-01,0.5438323632238873,0.20202454385111318,0.34735254931001475,-0.29614005215060446,-0.2501484104148939,0.2823836973564568,0.1706953088240265
2013-04-08,0.137716775776227,0.7794312065871863,0.8959016816268025,-0.13444998658680127,-0.1777854881854608,-0.3636548734412548,-0.13715931577669901
2013-04-15,0.11746913087617378,0.38359478485047305,0.4826095155695948,-0.41581612304004045,-0.11678559970906638,0.24765209031310878,0.30127620113975645
2013-04-22,-0.1534514052547819,0.5350190509686765,0.16029442508489664,-0.30902931773918646,-0.20659149784530154,0.10132813275298111,0.8724306120327159
2013-04-29,-0.13150458319735317,0.5023461364478445,0.47289941361407317,-0.27825290685337345,-0.09581634510064445,0.527882241527448,0.002446043562005287
2013-05-06,0.10172517490437817,0.5314400276654616,0.395823745566713,-0.1680832763204302,-0.45048849720763945,0.3553739119611227,0.2342089134303941
2013-05-13,0.02921023246297513,0.44866112465177266,0.6085253064625289,-0.34993485254542067,-0.13359244434832113,0.33398013653323244,0.06315049678323269
2013-05-20,0.6588862659423179,0.40836875221873375,0.46041970232781715,-0.5242436019366346,-0.03203791775263173,-0.20722911652960987,0.2358359157300072
2013-05-28,-0.222902309215392,0.5863761246968845,0.45466456125350513,-0.29035533868341856,-0.222406837439323,0.13272849704597134,0.5618953023417725
2013-06-03,0.04014228338546756,0.38110744512963907,0.43008959293620536,-0.28144918119918844,-0.2638548771880588,0.4384548869159086,0.25550985002002674
2013-06-10,0.17438254195511582,0.40815012131513523,0.5640255032358633,-0.20566496760846864,-0.27040227527522187,0.42368802074282685,-0.09417894436525072
2013-06-17,-0.0004524976837173727,0.44513734688726725,0.5042581128018383,-0.6325412479109637,0.08258999399247575,0.34254450407559434,0.2584637878375054
2013-06-24,0.311901040321501,0.3327090778298276,0.21044125832086347,-0.06879965121622159,-0.44207717295274457,0.29983683531714683,0.3559886123796273
2013-07-01,-0.3044768484581897,0.7738836384944083,0.7067734622138974,-0.3325355847779347,-0.11836046250997988,0.25475996575895654,0.01995582927884201
2013-07-08,-0.1072087426237593,0.8223655099542246,0.6971895808137014,0.11833119583114081,-0.5875444514366497,0.5275720540471996,-0.4707051465858575
2013-07-15,-0.10889199561740233,0.6578472659068783,0.7488517808189235,-0.26951977304917313,-0.21375608725223721,0.05817641986072215,0.12729238933228876
2013-07-22,0.060280417406275925,0.998712745744438,0.580119712612714,-0.11742363695347667,-0.29259725763996475,0.13357662122287128,-0.36266860239285775
2013-07-29,0.04851020740986165,0.2932814892206707,0.4762379577361885,-0.10867687034193306,-0.14790383780818805,0.39602446893171445,0.042526584851685936
2013-08-05,0.092631870742809,0.5925771925202559,0.29800057464939966,-0.6380271050563849,-0.19789266594124172,0.3586754423429022,0.49403469074226
2013-08-12,-0.13423878317586863,0.671182042992283,0.45700111647082436,-0.12344525392550611,-0.34126432213166097,-0.05591862908658767,0.5266838288565159
2013-08-19,0.06954084370473862,0.3942059103740126,0.42556254270169863,-0.21468596861493577,-0.25673949700392074,0.12959147782356473,0.45252469101484194
2013-08-26,0.51339471116191,0.456745896805686,0.21556683598200907,-0.44106958016218806,-0.09004803054688502,0.11207255742994487,0.23333760932952302
2013-09-03,0.03897185337621823,0.8934684114107402,-0.13789452546322725,-0.565591705058343,-0.03702339666600887,0.3185743561985175,0.4894950062021031
2013-09-09,-0.2638543659925351,0.6374479089779203,0.3816974307031781,0.32330321243565224,-0.7314693598794542,0.3487263657733828,0.30414880798185584
2013-09-16,-0.17125886398520246,0.8492802957175477,0.33966485915898204,-0.22136271250508863,-0.07790136999901853,0.6920666938375646,-0.41048890222478496
2013-09-23,0.3498077247806658,0.2762614336782608,0.2322698618983978,-0.3122280168199634,-0.24089019254873614,0.3183423268246689,0.37643686218670636
2013-09-30,-0.03806696583191827,0.472897474578873,0.48414174868493687,-0.3003006768185319,-0.2393436537897765,0.5616524375968994,0.05901963557951732
2013-10-07,-0.34282989285716714,0.5103947657841926,0.5909970963958242,-0.48533735662291466,0.1290234730317532,0.38951191265444013,0.2082400016138717
2013-10-14,0.0958248678024401,0.6148227839390449,0.11351809005688097,-0.668377593469791,0.014418966537022649,0.3210700647285739,0.5087228204058283
2013-10-21,-0.10683948245123347,0.42697862235271566,0.3672831608042503,-0.4792311614846837,-0.03417221191285279,0.6272610246479584,0.19872004804384558
2013-10-28,0.07858242890588445,0.607699856496352,0.16212437346835581,-0.37946809596827946,-0.19122823586811202,-0.01964701905787731,0.7419366920236764
2013-11-04,-0.18604835803241535,0.4973935619965562,0.0032342953598683295,-0.292920126962431,-0.0032613538304051663,0.691084351654061,0.290517629814766
2013-11-11,0.2773757094064022,0.3791339212724914,0.4566517110338869,-0.2964987258251465,-0.28327005470437583,0.3575674705805141,0.10903996823622784
2013-11-18,-0.44491582215281017,0.9488229837605856,-0.07113591445417174,-0.4427304587252687,-0.07124508269646844,0.9963221531595213,0.08488214110861221
2013-11-25,-0.05602578706698877,0.9021199441158267,0.1541952189313493,-0.5301819780639295,-0.07424161519048522,0.7045438375482174,-0.1004096202739899
2013-12-02,-0.26469990937312937,0.6167937160284246,0.3664276090034504,-0.5697170547669775,0.1858876053436175,0.5721237478151682,0.09318428594944644
2013-12-09,-0.15734921420999923,0.4814133760940559,0.6706036336860213,-0.3709718755824574,-0.20609911918021465,0.42426722269735756,0.1581359764952365
2013-12-16,0.05853036304866701,0.4051175995450322,0.48401375262455687,-0.33755472806248055,-0.15471219856359197,0.03330872101747272,0.5112964903903439
2013-12-23,0.5259026523518264,0.2998748841139906,0.10957410775404404,-0.43969686589086426,0.03480373170082755,0.2789352709520529,0.19060621901812286
2013-12-30,0.3825656178887779,0.5639935367799378,0.14261772194386946,-0.1325205524291469,-0.3241174892511873,-0.06426099812955988,0.43172216319730894
2014-01-06,0.07839147439425626,0.2816510821515541,0.29855176341699496,-0.34536857483560296,-0.08369882947819787,0.5078495026229094,0.26262358172808614
2014-01-13,-0.07400126423379233,0.3948088922672091,0.4315054235938069,-0.39448082834669246,-0.05166316171007431,0.4024789842407789,0.2913519541887643
2014-01-21,0.2835792320185971,0.44573762550875595,0.41355286065025393,-0.4895807768068359,-0.13666046101899482,0.42068724897588355,0.06268427067234011
2014-01-27,0.23782523391066138,0.3065928575774001,0.43141236807151667,-0.2634438221387399,-0.21499091498492687,0.30279908807921363,0.19980518948487513
2014-02-03,-0.004594697946641105,0.44025426332598666,0.5970471471436176,-0.22368443370594696,-0.2132705374093307,0.10944350654980439,0.2948047520425101
2014-02-10,0.10419898826972324,0.481502356475062,0.34786072481222835,-0.6801978297503054,0.11519156515322237,0.35277987335542926,0.27866432168464006
2014-02-18,-0.022555120452825133,0.5538276447376834,-0.004078229375768717,-0.4617846586517141,0.022196358141835695,0.5215477388025948,0.3908462667981941
2014-02-24,0.19983762816701475,0.31779397084850103,0.44710980056284927,-0.23562456675545723,-0.26306170427278486,0.30249084292065853,0.23145402852921854
2014-03-03,0.11847603009263934,0.2935919708558632,0.0785165087997918,0.11609357403649682,-0.16832671079709258,0.5184348545015577,0.043213772510743834
2014-03-10,-0.2937827162885957,1.0,1.0,-0.43929116370408333,0.08175769951304593,-0.05038188051813132,-0.2983019390022358
2014-03-17,0.09025679476457572,0.3570108268570127,0.3846119190966442,-0.44154411253517645,-0.09093079513984352,0.049192817797563355,0.6514025491592239
2014-03-24,0.1566491001991182,0.3663092990051733,0.9999999999999997,-0.2709369805239295,-0.3205506737190979,0.12453927281087937,-0.05601001777214302
2014-03-31,0.26810952533656984,1.0,0.4246499891536573,-0.18659852285472248,-0.3559377397304403,-0.12819143763276034,-0.022031814272304433
2014-04-07,-0.086066185610666,0.4924155442791416,0.602647983348788,-0.40917359328164443,-0.0883430445211337,0.338963713733391,0.14955558205212352
2014-04-14,-0.2500283085984046,0.7680358577636587,0.10080616975311618,-0.6921507132861746,0.17194999156625748,0.5343015765699951,0.3670854262315517
2014-04-21,0.13395432037083604,0.3486439616218817,0.26697686469697496,-0.26858750905521594,-0.2713482858636062,0.4515211955615458,0.3388394526675837
2014-04-28,-0.1096652851857941,0.5494385850390892,0.5805848586309619,0.1688385055319783,-0.2320476688257795,-0.019383468064130792,0.06223447287367493
2014-05-05,-0.052336961049226756,0.38646862350958594,0.4238042877449302,-0.25748813617007854,-0.08540628115109723,0.5244479086869733,0.060510558428912974
2014-05-12,0.22339619344553296,0.9074813751019942,0.5043456348072293,0.021050487958093604,-0.43712428104850143,0.034664586114769864,-0.2538139963791185
2014-05-19,0.1060345116002918,0.4513821519587429,0.3588531495044714,-0.05208637476272784,-0.39848310956339345,0.11528271698314299,0.41901695427947216
2014-05-27,0.21924394744561254,0.7469395080699945,0.2881811891510819,-0.15016525257340907,-0.5540965407284998,0.2684186977595139,0.1814784508757061
2014-06-02,0.1503316935742224,0.2714053768148279,0.21833522488093182,-0.052387607758979444,-0.23218060032873042,0.28890877162866246,0.35558714118906537
2014-06-09,-0.04126190825500359,0.4518885260153191,0.47019742620857324,-0.305959317114457,-0.15451590785735714,0.07548916424996453,0.504162016752961
2014-06-16,0.008445018756228773,0.9829434385771846,0.5242646110176628,-0.5952559260894613,0.03702965495512798,-0.012811777420273361,0.05538498020353068
2014-06-23,-0.7269812369776398,0.7736123664050594,0.3386203880493334,-1.0,0.9531228407249607,-0.020433395912680407,0.6820590377109671
2014-06-30,-0.14528828605274954,0.8955814889290808,0.14353253145341185,-0.3401936883247224,-0.3026757788422417,0.7583271818737042,-0.009283449036483113
2014-07-07,0.2692300441012147,0.4808841865749244,0.4949288718342322,-0.4048775868657539,-0.34627134722266445,0.23278411181785466,0.2733217197601925
2014-07-14,0.16811467091149873,1.0,0.4237599198358186,-0.2650952338000414,-0.2505602115311506,0.022520199211151455,-0.09873934462727672
2014-07-21,0.14577335772864214,0.40323695791192254,0.3140939412698302,-0.30616886683014594,-0.174846786721429,0.5871312613679167,0.03078013527326302
2014-07-28,0.03906511155355647,0.638735733870134,0.33808529484779465,-0.5612436471290918,0.06006731267532979,-0.08921012753836907,0.5745003217206458
2014-08-04,-0.1546305226968718,0.9984908007499959,0.20897489363396304,-0.5099456515817572,0.028117776292843826,0.8952301526382951,-0.4662374490364687
2014-08-11,0.08540341411182796,0.4946191058931961,0.3044500511462794,-0.2281279292621974,-0.40467235305223703,0.29183589640997243,0.45649181475315853
2014-08-18,-0.32118622723438073,0.6552574942431629,0.5733481013300035,-0.572206405401111,0.22204326006068573,0.340316580142519,0.10242719685912065
2014-08-25,-0.13431111553919609,0.5021475323569673,0.6475709209705611,-0.38103001745168547,-0.1622944552661523,0.42707471556692245,0.10084241936258306
2014-09-02,0.05573997323893084,0.46736650946392655,0.4714571844925918,-0.042965854224564407,-0.3270682851085414,0.36129479857966,0.014175673557996678
2014-09-08,0.12929678365374384,0.28840320204618913,0.165262182447424,0.05091738016810661,-0.26363466712850936,0.2868312334605564,0.3429238853524893
2014-09-15,-0.19135342302111477,0.6851704879237377,0.7054783876430343,-0.4801534920576655,-0.03857854810293157,0.14546724184094306,0.17396934577399684
2014-09-22,0.5031622731350279,0.40208014296636985,0.4583609769616712,-0.4906088162471396,-0.3565044771004986,0.8154894106193947,-0.3319795103348257
2014-09-29,0.1304569111084077,1.0,0.30354144559479335,-0.2507735476240322,-0.19211364006982393,-0.036925833774711224,0.045814664765365984
2014-10-06,-0.08537959982266491,0.6121482580248713,0.7122853200468439,-0.2365028413296981,-0.23217072722309842,0.09263356924438816,0.13698602105935812
2014-10-13,0.3774990178312415,0.3224303514320394,0.3542422424328527,-0.28491311927955776,-0.23179162452970578,0.48548855896579474,-0.02295542685266488
2014-10-20,-0.09500922508048341,0.8629978087107499,0.5656663900264998,-0.26280682288895246,-0.17705245455942933,0.15312913857985946,-0.04692483478824399
2014-10-27,0.009057183399612092,0.6699834835976362,0.08772635896016509,-0.5286303426125328,-0.007924179576731184,0.289146643396043,0.48064085283580776
2014-11-03,-0.0823393703576073,0.3263771390635186,0.2163290147419737,-0.24377895653125456,-0.10428785915624088,0.5462292432578312,0.34147078898177935
2014-11-10,0.14194536716116185,0.524011237697603,-0.3344946006452198,-0.4141849762850503,-0.1046111727994471,0.28995648264111384,0.8973776622298384
2014-11-17,0.09435483317132665,0.27265795146931976,-0.05998240581718551,-0.054898279937387995,-0.05515789891946042,0.570603309011873,0.2324224910215147
2014-11-24,-0.38566812722318433,0.4956876121553063,0.46139445195465206,-0.20229306914862946,0.047352169610902516,0.24990937566716012,0.33361758698379285
2014-12-01,0.21206361188908912,0.3453222884089855,0.5862924272228093,-0.1041389306138262,-0.21148992180336063,0.1472237625541152,0.02472676234218767
2014-12-08,0.05402926038889272,0.5320296152404292,0.5308912403205023,-0.035181268826623154,-0.3668193778583944,0.26787855572613184,0.01717197500906166
2014-12-15,0.28756948698718093,0.27066398357239657,0.26691626799717666,-0.2944465336430664,-0.16497795910958132,0.2200615430599433,0.41421321113595017
2014-12-22,0.7784563885705045,0.9825840832037546,0.6707453494337314,-0.09020402854965742,-0.4293944111348585,-0.6400721109357445,-0.2721152705877302
2014-12-29,0.40354885063474705,0.9423029514146559,-0.1509989970227071,-0.5172067458658544,0.09035795329359429,-0.5859677271527762,0.8179637146983403
2015-01-05,0.3998092160757081,0.23826368189060784,0.3246297148042504,-0.17111891827225278,-0.07320677195014368,0.2657634772569273,0.015859600194902845
2015-01-12,-0.01824685285448902,0.40572915501059675,0.41335139562642276,-0.3460749831865617,-0.16861918706468168,0.40946543667603186,0.304395035792681
2015-01-20,0.4760279756635747,0.6162529279866562,0.47889951191862373,-0.12505343828503515,-0.4125273308641319,0.004430463426981746,-0.03803010984666954
2015-01-26,0.23898081127241455,0.588460391001625,0.6957724631410731,-0.18777401899255594,-0.2908165375116549,0.037515320413157284,-0.08213842932405901
2015-02-02,0.08699709221128837,0.39582704601879476,0.2670908596022796,-0.49243649640874027,-0.02057950274742284,0.13395304835375527,0.6291479529700452
2015-02-09,0.2074019013451211,0.34761408041899444,0.46505766430251505,-0.42385072390787476,0.04260698020761604,-0.05746175869305704,0.41863185632668515
2015-02-17,0.2382670449926443,0.7312722188901629,0.3212386921910033,-1.0,0.318892062648951,0.04654134589774441,0.34378863537949406
2015-02-23,0.2666841016577894,0.5174163368599136,0.4907635415585177,-0.09179011448871623,-0.4347933521545298,0.24072794554137122,0.01099154102565397
2015-03-02,-0.21360650709583714,0.6816952009365743,0.36976190934993347,-0.5761554724565902,0.0913611379283689,0.5944710720896201,0.05247265924793044
2015-03-09,0.20819306236747262,0.5244405315734953,0.6045030448373997,-0.10004638387415238,-0.3975147695548302,0.14601807016807505,0.014406444482539714
2015-03-16,0.156054013093309,0.4508120161253386,0.6592580810937108,-0.38080831916973135,-0.15847731600979503,0.1534175713690058,0.1197439534981622
2015-03-23,0.31426260736480616,0.2060324680684427,0.20056424852846177,-0.3864581180838521,0.0837918298144791,0.3385666235622009,0.2432403407454615
2015-03-30,0.20522758178009592,0.33685163213430774,0.10917842587672051,-0.27691740564866696,-0.1627774347564068,0.28603449498559635,0.5024027056283532
2015-04-06,0.3142657063515853,0.281073994249513,0.5487352641792352,-0.4883545888741889,0.05757104660682186,-0.050330188440585635,0.33703876592761917
2015-04-13,-0.046880936926831485,0.5432331389832629,0.2953224440350014,-0.2671793421980135,-0.17099148497623204,-0.061363168802176744,0.7078593498849894
2015-04-20,0.05621651086648181,0.42261607335542556,0.5856925114738699,-0.1645016290988081,-0.2976268676512807,0.2505728571269703,0.14703054392734122
2015-04-27,0.44266969721862726,1.0,0.1337956298074132,-0.3855187341790514,-0.1381513161336897,0.023750150745259276,-0.07654542745855879
2015-05-04,0.18937422547119298,0.2549339718822856,0.18586986024294758,-0.25317513638686834,-0.14627257908414548,0.2248023166169044,0.5444673412576833
2015-05-11,0.3232603597230327,0.3999189300224021,0.3085918909411959,-0.12678881031312791,-0.30616592385842134,0.4168494307355914,-0.015665877250672863
2015-05-18,0.23091904372561917,0.3175576728581949,0.3447708382044234,-0.0635139656327387,-0.3471518153524773,0.18901432761332623,0.3284038985836523
2015-05-26,-0.0016570294543923575,0.799855040009136,0.29410857005333074,-0.20573060456198178,-0.34041913746981417,0.6129062690808548,-0.15906310765713325
2015-06-01,0.4979895977622023,0.37564906407618803,0.2678435187879554,-0.311098188167275,-0.1776618401448642,0.22028136028917286,0.12699648739662056
2015-06-08,0.03808872113079352,0.5211807475085402,0.5935560229755182,-0.6749529363238116,0.07697863014764895,0.4400615537360769,0.005087260825233845
2015-06-15,-0.0012540249922154078,0.4372445752077834,0.1732573623822803,-0.07933099806403064,-0.33192687088047085,0.3957394167851253,0.40627053956152787
2015-06-22,-0.6730341488701808,0.9999999999999999,1.0,-0.6256674407708276,0.06615152973392635,1.0,-0.7674499400929179
2015-06-29,-0.10084631094047886,0.4924606531705355,0.571272907428188,-0.38761930601952416,-0.12242318753898591,0.3650219493542936,0.18213329454597169
2015-07-06,0.12570852443809943,0.4617813171438559,0.6799492893088631,-0.3448289277150933,-0.14181410341403722,0.2161850224441202,0.003018877794191908
2015-07-13,-0.10037342269899906,0.42865171457186463,0.4887491243982672,-0.3407735031848445,-0.18578846720796374,0.36842422525233837,0.3411103288693372
2015-07-20,-0.03409666698650742,0.8887044141214937,0.7234184612480012,-0.3037965819588128,-0.31305553167594835,0.38738367325393747,-0.34855776800216387
2015-07-27,0.5128349642642713,0.9879424349976202,0.4945652036414176,-0.1878175486106379,-0.3585274849989657,-0.6003765765101753,0.15137900721646969
2015-08-03,0.0631191664088504,0.999509747214251,0.6894713348180641,-0.40350903249073133,-0.1617758457126579,0.025576430319580422,-0.2123918005573568
2015-08-10,-0.06885250530943447,0.9958200337777583,-0.5250986435995135,0.1780889547602826,-0.13516936799332568,-0.05043028248122218,0.6056418108454551
2015-08-17,0.0725686017958046,0.7606321172246849,0.7244294818095602,-0.3128147315485606,-0.2846427323516771,0.17673381277536357,-0.13690654970517543
2015-08-24,0.052034219542028665,0.6692195852838159,0.6830384378619598,-0.29479791281944506,-0.15302296291908032,-0.07235309861504274,0.11588173166576383
2015-08-31,0.10813443964196674,0.328028380832464,0.3925136452259557,-0.2497177363062728,-0.2473845947666271,0.29659436007791184,0.3718315052946015
2015-09-08,0.3891059406822554,0.8021134436750857,0.3434137774932457,-0.18512703384263576,-0.2597699188767403,0.5215344851757162,-0.6112706943069269
2015-09-14,-0.08310091494328259,0.39598319703656315,0.5722956944902181,-0.48490629152850273,-0.03468638984860272,0.3296602583120778,0.304754446481529
2015-09-21,0.38191365804484084,0.17899875323749823,0.7399468786197443,-0.6629706592223485,0.18696249468578327,0.12333910770777642,0.051809766926705476
2015-09-28,0.12615348583292532,0.5538684588894224,0.2987877378917581,-0.7294696393320157,0.06764767389443493,0.4841975044071321,0.19881477841634293
2015-10-05,0.6953591294002258,0.9999999999999997,-0.9761427199931363,-0.5916716383061734,-0.08235727017101337,0.5461080171206859,0.4087044819494121
2015-10-12,0.24492295304227113,0.982377067142455,-0.2871948181307258,-0.6264379614167372,-0.02938648125588757,0.2479560870554385,0.46776315356318604
2015-10-19,0.5304850200275805,0.5099245956544309,0.4490154475936996,-0.576062797320645,0.18176382310590622,-0.027375555649482068,-0.06775053341149015
2015-10-26,-0.17289992549617866,0.58624321518588,0.4807954991524085,-0.5481293443377073,0.01495079929403511,0.5159221684459895,0.12311758775557308
2015-11-02,-0.19864404726724735,0.998448433867395,0.6208134176521404,-0.5837212876467661,0.1925518099100988,0.29429219164450765,-0.32374051816012844
2015-11-09,0.25219046564390735,0.24568446959237455,0.49169174062439214,-0.2941078437553416,0.027938902854616296,0.2928483532237434,-0.01624608818369215
2015-11-16,-0.04288589417459531,0.4344816068430324,0.5696891907661585,-0.27671808310016477,-0.2134029515025563,0.1707418635777395,0.35809426759038615
2015-11-23,-0.13432431850723764,0.9936627021229781,-0.21124340801249725,-0.22018097389130362,-0.28195669451704,0.5206419918268242,0.3334007009782763
2015-11-30,0.14755799182610077,0.4034110785911055,0.35797532112938857,0.05688536133645262,-0.33122039715029866,0.18444740882517316,0.180943235442078
2015-12-07,0.266561456586869,0.2989381214393324,0.3080748611719776,-0.24974441129610422,-0.2137809696256815,0.3866424343720304,0.20330850735157627
2015-12-14,0.11914265645952846,0.342967532184996,0.36358273919594014,-0.1826100458272013,-0.2841324051099751,0.577154216987686,0.06389530610902593
2015-12-21,0.5727805717152216,0.4993021639380539,0.5730756747362894,0.21954944693966866,-0.7289865245669804,0.10186961571836824,-0.2375909484806214
2015-12-28,0.06352573747543662,0.5418214964630823,0.49630936164027345,-0.35641733743407716,-0.10414052497218303,-0.11720243156704108,0.4761036983945089
2016-01-04,0.06718045412153525,0.40389896493503585,0.3576084626381017,-0.022425373632536657,-0.364258841347443,0.19154550850349245,0.36645082478181445
2016-01-11,0.189232745466853,0.2751146340425515,0.6488476595078532,-0.08413738428336776,-0.28321268518587817,0.631454213730929,-0.37729918327894063
2016-01-19,0.4555235274057433,0.6600655019965393,0.18780951905492205,-0.2816105882257306,-0.22175185276295614,0.14003208441318413,0.05993180811829769
2016-01-25,0.3239146828985426,0.2649008253235281,0.2796061359600096,-0.5082670779149193,0.009189683361469322,0.17636758311919876,0.45428816725217086
2016-02-01,0.03243514021768789,0.42882049667411337,0.4902333558256234,-0.2712826805949027,-0.2013180255144098,0.39076427214669884,0.13034744124518885
2016-02-08,0.2870954361486328,0.6155021644026265,0.40230321692074655,-0.047959576450296915,-0.4008193383416538,0.19271497147545008,-0.04883687415550527
2016-02-16,0.18761579441848517,0.5312400266431074,0.6082274329777037,-0.3585666900279595,-0.3364101721821759,0.1645069250600971,0.20338668311074207
2016-02-22,0.2792651387544583,0.34360981860728096,0.5732192550547555,-0.4245467724122242,-0.1546549855083542,0.1351065598229053,0.24800098568117834
2016-02-29,0.04639943409757672,0.48700827760883236,0.6922641308028886,-0.37862513334559367,-0.13966504520005008,0.22590684300982247,0.06671149302652353
2016-03-07,0.3798198033025588,0.324016896202729,0.3596036011450704,-0.2344321262200978,-0.20600015650777076,0.0675966232107598,0.3093953588667506
2016-03-14,-0.03470840075914211,0.5293970699944511,0.6924157739587261,-0.20286099477501582,-0.27427638142833854,0.13863794037573532,0.15139499263358372
2016-03-21,-0.11147789951787557,0.047742754876252305,-0.1336832394411812,-0.4649506216173056,0.5056380798629212,0.18705776692172923,0.9696731589154598
2016-03-28,0.10853812584518584,0.3602594083414261,0.17338691190304487,-0.41957488599448917,-0.0320722552510332,0.3064335514678201,0.5030291436880455
2016-04-04,0.3101051651619873,0.4832692391276482,0.0009899884550792592,-0.5526600703527934,0.05055817333499541,0.2353115808739383,0.47242592339914496
2016-04-11,0.4951843263764159,0.4541131556680826,0.5009175633252394,-0.265959581145851,-0.219225345808324,-0.05336398165363571,0.08833386323807295
2016-04-18,0.3190467404436176,0.5083502911064618,0.6017629396644751,-0.10761282600638344,-0.42616446376191675,0.11966981336164814,-0.015052494807902625
2016-04-25,-0.2963794126895473,0.8305930482219255,0.46147355436040416,-0.4854314435867731,-0.10916620691809685,0.5245024428566198,0.07440801775546768
2016-05-02,0.07557994953267629,0.46423663693791273,0.5310040310875275,-0.4347632639055545,-0.13581093676701472,-0.007350552818383396,0.507104135932836
2016-05-09,-0.1300977463696619,0.9958467990655545,0.19895715058655242,-0.8974057181238859,0.25208577908032975,0.08871414601759227,0.4918995897435189
2016-05-16,-0.45924009029672186,0.9913363833939054,0.9114950180085499,-0.4689111616230001,0.006441314408416456,-0.2401072913459925,0.2589858274548427
2016-05-23,-0.03140562070036995,0.40074239130408945,0.16086856363141658,0.051655067820624304,-0.32269026248618077,0.44326351760602195,0.29756634282439853
2016-05-31,-0.018680779365370156,0.6232190738084588,0.8384530480919711,-0.5970229997892768,-0.07252670330187044,-0.01690988726814239,0.24346824782423002
2016-06-06,-0.0423273731402482,0.5087750000981808,0.6948765251949696,-0.08163707585159902,-0.22352099171700898,0.033812801909276234,0.1100211135064296
2016-06-13,-0.09945975944804052,0.49741513737912174,0.3592844535571568,-0.6743550639348037,0.24123993856277395,0.3719082299572408,0.3039670639265509
2016-06-20,0.7838166695838843,0.9716614722900894,0.1454595693072724,0.02004314433780983,-0.5407851929700318,-0.4829597854048668,0.10276412285584274
2016-06-27,0.004490896822516608,0.3723948633561726,0.48136152908494717,-0.31830513997031323,-0.1973541942100488,0.3912876024603308,0.26612444245639494
2016-07-05,0.11823422710242439,0.7213789273934502,0.48470901338316924,-0.11835753977412805,-0.3780719383865999,0.17004561539136318,0.0020616948903209205
2016-07-11,0.2314390658144293,0.5346888627685937,0.5300597623199884,-0.19989540350097873,-0.3271566985763956,0.34142275196428057,-0.11055834078991772
2016-07-18,-0.16239130921531383,0.5923187376389825,0.49063743743799954,-0.5101896596983495,-0.082201429881995,0.4575340802840104,0.21429214343466593
2016-07-25,-0.05940406967683779,0.7057358159800509,0.2035555931196173,-0.4228651906029032,-0.05160028285227832,0.6793209793708163,-0.05474284533846502
2016-08-01,0.008513058253948283,0.23920166986088467,0.37767531890130424,-0.17418107787543494,-0.08540424247188533,0.40894065341661157,0.22525461991457146
2016-08-08,0.26138214438509966,0.5621810451599096,0.5064154172772247,-0.40397304552767643,-0.34853210166689425,0.3139763415276394,0.10855019884469723
2016-08-15,0.1976871447296202,0.4055038456024424,0.3141118180056187,-0.5490629080480056,-0.04157667925049968,0.28213928699478585,0.39119749196603815
2016-08-22,-0.15305443407517888,0.593472153965821,0.1984620495623919,-0.08792932352694204,-0.33528643292264737,0.37089199216739044,0.413443994829165
2016-08-29,-0.18970900445861766,0.41801430632601244,0.17298850801748347,-0.38492811924407394,0.09520084845898835,0.1698556075281999,0.7185778533720074
2016-09-06,0.2635859573816546,0.18072857383701488,0.1827838617852246,-0.31047591799159413,0.08117416626682829,0.21457405791678655,0.38762930080408536
2016-09-12,0.2514159378766547,0.29361819766411923,0.23996396099872067,-0.15147226322212248,-0.2647578835571421,0.2694008930543673,0.36183115718540243
2016-09-19,0.5816255516996842,0.9623695717619224,0.3544721653321806,-0.16646993979401503,-0.3279704323690496,0.5959730833692777,-1.0
2016-09-26,-0.07233190164092386,0.5377333877870594,0.43819468051470456,-0.449603594111637,-0.03752037471743494,0.4688392349913019,0.1146885671769299
2016-10-03,-0.0085581456581141,0.5330566519257974,0.7039141037394265,-0.26975514180548893,-0.31225235382174193,-0.042206304435351456,0.3958011900554725
2016-10-10,-0.06042177544414013,0.7492169279469549,0.5454378639202913,-0.5833769467696746,0.08594742373942654,0.163532796555168,0.09966371005197375
2016-10-17,0.39069953241606453,1.0,0.458039154185422,-0.9999999999999998,0.31472361536023846,0.3369635133534833,-0.5004258153152087
2016-10-24,-0.31469119576275806,0.6977337374295499,0.6546412346745154,-0.44823209886641524,0.12612292847310203,0.04453372041431994,0.23989167363768604
2016-10-31,0.4721225422395963,0.5889672829124293,0.20435256337234212,0.09421298204719267,-0.18252231806331126,-0.5214679490020561,0.34433489649380694
2016-11-07,0.0978153502045179,0.39766601439709687,0.5746999960909334,-0.5041800156205865,-0.04489143190565855,0.1885163752090462,0.2903737116246506
2016-11-14,0.6482084538946215,0.6683498134562458,0.22858513408825767,-0.26750049292075956,-0.26738703973248473,-0.2603122800702151,0.25005641128433437
2016-11-21,0.14384763591279648,0.5504230696277519,0.456503931171042,0.1849947344623996,-0.40951591953589134,0.25307662776815565,-0.17933007940625434
2016-11-28,0.09584235868097886,0.5119164581283165,0.6241993563666205,-0.069515551276018,-0.3081419774156297,0.09828957992652199,0.047409775589209745
2016-12-05,0.31926850867132184,0.3157029439152068,0.46557151345558145,-0.1010518077504822,-0.27398287372067354,0.19159583455529675,0.08289588087374884
2016-12-12,-0.3089937052658038,0.9877527704393217,0.9723693201396861,-0.6925659018568233,0.04564691273713525,-0.3371392542070491,0.33292985801353303
2016-12-19,0.6536916491294381,0.27314362085499105,-0.029024206540089765,-0.06696908295151348,-0.5214269618562358,0.3207416617550829,0.3698433196083269
2016-12-27,0.11333271118988457,0.6979755722780708,0.6482532663319884,-0.3003346091045219,-0.436359455689897,0.13093358686946582,0.1461989281250092
2017-01-03,0.259970350016392,0.3902769626837598,0.39339510382576576,-0.28113028092907105,-0.2802482508273301,0.45403223124505804,0.06370388398542565
2017-01-09,0.2360055255909405,0.15702544635334806,0.2122796763195913,-0.17120136895368238,0.28963500010732396,0.36251118299727275,-0.08625546241479419
2017-01-17,0.028908343057723523,0.49515976588521277,0.5966329092892066,-0.24372433315399225,-0.08625069539167214,0.4396767297744767,-0.23040271946095528
2017-01-23,0.5222901784479943,0.24987441213985728,0.08635083926138455,-0.041705568536859985,0.09988226045906164,0.22867734003144388,-0.14536946180288193
2017-01-30,-0.11002474381072633,0.5604317363551249,0.5364034969394366,-0.600746081004653,-0.058445273662597545,0.30119842601868096,0.3711824391647344
2017-02-06,0.3265993974795723,0.2620900171834448,0.18995613503984768,-0.14619877571538473,-0.10994729073563514,0.46765743099970253,0.009843085748452614
2017-02-13,0.26375458651164907,0.4668688528932545,0.39787431499660875,-0.48258027593092495,-0.3217869179994521,0.3165060722800078,0.3593633672488569
2017-02-21,0.0813673806791299,0.35683829160988134,0.6826829147504027,-0.2398310632515949,-0.07893023483112035,0.08067800275794335,0.11719470828535801
2017-02-27,0.03162714770612037,0.4482520904443547,0.5075326101727637,-0.13590393672603057,-0.33377424841022535,0.3999789723782937,0.08228736443472355
2017-03-06,0.07034199481867301,0.6822801522683818,0.6162688306078405,-0.30422041709568026,-0.4831500131495983,0.17647995939084335,0.24199949315953995
2017-03-13,0.41188900727747946,0.45462612462440727,0.25606493676088626,-0.03308970132311043,-0.3366457234677299,0.32212623955990494,-0.07497088343183757
2017-03-20,0.1421838629067937,0.17609108453540742,0.9316071041825019,-0.2221794786056885,-0.2026102480896001,0.3587573788795526,-0.18384970380896692
2017-03-27,0.05787821666733909,0.5497231052038565,0.5825238461190249,-0.2646002462521415,-0.1887378772181186,0.42304931370241805,-0.15983635822237857
2017-04-03,0.32122895564946496,0.3928791731740323,0.40132759698516096,-0.4087400459332117,-0.19788832187452302,0.3650987119942453,0.12609393000483118
2017-04-10,0.2007024855519185,0.3806928245016829,0.47551521403480274,-0.3578272644258495,0.0398613938887535,0.3842841004193391,-0.12322875397064739
2017-04-17,-0.32543463182170784,0.7096586453823064,0.6731512502748523,-0.278594105530706,-0.03779954592046847,0.03693208610046928,0.22208630151525435
2017-04-24,0.2523846954118047,0.507521881073942,0.2704139373540578,-0.7556756702414176,0.2875523904404215,0.3448950185734683,0.09290774738772324
2017-05-01,0.24802716587486026,0.4630259836742818,0.6326522037689501,-0.2561900377022899,-0.25841172136223883,0.08801284812404983,0.08288355762238674
2017-05-08,0.5295018212582143,0.46663023382540414,0.41659150423625446,-0.3623253170090853,-0.4296471671050423,0.39076684502654085,-0.011517920232286033
2017-05-15,-0.20778854489405454,1.0,0.6976488440156249,-0.3509040058558262,-0.19296487159950143,0.2982016781391027,-0.24419309980534545
2017-05-22,-0.08985962754412934,0.5854065314774057,0.5168862843131372,-0.48438785865083384,-0.12048584069638565,0.3501632428877976,0.24227726821300832
2017-05-30,-0.2508320278760337,0.48902764265274223,0.538203189965071,-0.10692579010178896,-0.19651534035086327,0.44980267699514603,0.07723964871572658
2017-06-05,-0.1308048081950654,0.4855008282042685,0.3959870545546503,-0.18045268833126438,-0.07068128004218499,0.5990330071841832,-0.09858211337458729
2017-06-12,-0.10729903438858497,0.6215194734702398,0.7574950167615923,-0.04275698766587924,-0.22321627561971852,0.02517175029590476,-0.030913942853554092
2017-06-19,0.3038125702508759,0.6015957398598742,0.5569988134425372,-0.07049357211334448,-0.37422351790591063,0.1156516683791375,-0.1333417019131698
2017-06-26,0.21272486565688994,0.4369532005267523,0.1875772955638041,-0.5095827449810887,-0.1459409879687238,0.4629746242650256,0.35529374693734056
2017-07-03,0.27939230640581536,0.3366892512210806,0.0657020866453922,-0.008814536915084267,-0.27919938251649823,0.3959755857785821,0.2102546893807123
2017-07-10,0.4400732682248211,0.38528796970273316,0.40083748268172403,-0.36969467215276325,-0.20662066638730825,-0.033360694431333056,0.38347731236212623
2017-07-17,0.1301893326151966,0.5882167166194341,0.4692364253457121,-0.20098225799141825,-0.3825950811483461,0.43541362984693754,-0.039478765287515795
2017-07-24,-0.020952758432562557,0.32798506662209037,0.5061571298965842,-0.20679293345668706,-0.13402122250152634,0.27600514414436433,0.25161957372773697
2017-07-31,0.07544075503759091,0.6314479405584946,0.6522111971443091,-0.49466862670368494,-0.16483517697819572,0.17037817939728947,0.13002573154419667
2017-08-07,0.04548383332380318,1.0,0.17440600164576936,-1.0,0.12541831343297175,0.471756412803686,0.18293543879377022
2017-08-14,-0.09154369266980897,0.5804015096512064,0.5450120668920917,-0.14207179303739648,-0.22187923166414,0.29033685237504925,0.03974428845299809
2017-08-21,0.2766845677673625,0.987982590954477,0.5423617900682645,0.031100165988005156,-0.4414170732504107,-0.2962030972119762,-0.10050894431572248
2017-08-28,0.33743635056857324,0.4558357671696438,0.3372653394970824,0.08244740937125823,-0.3758454990189823,-0.15866794315944371,0.32152857557186837
2017-09-05,-0.11579532800946443,0.4790381633356855,0.6541456925866792,-0.13301305394133878,-0.13316533898439833,0.2693645348073193,-0.020574669794482414
2017-09-11,0.3870405965532288,0.3982364880198743,0.4555169168325114,-0.14595660715864714,-0.3278031763924413,0.21743195177239477,0.015533830373078976
2017-09-18,0.33060186844617107,0.8242818649990724,1.0,-1.0,0.02464669495529885,-0.13449332122000057,-0.045037107180541436
2017-09-25,0.29319102985500045,0.3473888869095128,0.4237969487619006,-0.17732643639783044,-0.20322840138077938,0.2988491599346676,0.017328812317528457
2017-10-02,-0.0026232211740571817,0.5009806891346792,0.483460815301066,-0.08042673724039054,-0.23679154035703148,0.48837046226329206,-0.1529704679275581
2017-10-09,-0.30163144008025256,0.6016154969246461,0.46130274644156166,-0.3035399130027799,-0.10670316473283463,0.44603231769964685,0.20292395675001246
2017-10-16,0.4497961843967475,0.7136847382064445,0.39393377838486626,0.06427403932333861,-0.4161718232438164,-0.09752376242907812,-0.10799315463850236
2017-10-23,0.2097632237290845,0.45752889920356005,0.14333255309487467,-0.2674002166407062,-0.2207173289707878,0.7261079732311807,-0.04861510364720607
2017-10-30,-0.40017708779374445,0.8570073990737203,0.30473040452539696,-0.6116818314896441,0.021627552317141127,0.32650140829797075,0.5019921550691592
2017-11-06,0.0376432322706127,0.22872860838858317,0.3263927144922341,-0.35752697582723664,-0.06226132265981372,0.5002723846937612,0.3267513586418592
2017-11-13,0.10788515473221162,0.9867769830984695,0.18080512736468615,0.5933468897542209,-0.6585382787532584,0.0545273228676933,-0.26480319906402316
2017-11-20,0.08547315838565916,0.25381038377737586,0.3759057696629684,-0.2078830244245049,-0.13222359044147966,0.22893224194162431,0.3959850610983568
2017-11-27,0.45787631956766983,0.3717958481969376,0.04387355457482933,-0.3563184372533334,-0.14059745406929866,0.525632889079079,0.09773727990411625
2017-12-04,0.40709438670711595,0.9999999999999997,0.18264119455211483,-0.10631010367480366,-0.3570981566786449,0.1086070622981992,-0.23493438320398127
2017-12-11,-0.10380659057177365,0.48409743181959475,0.27169186490729513,-0.5904574765983843,0.21579417101441595,0.3029489803144211,0.4197316191144311
2017-12-18,0.32534449351501005,-0.03354993278041328,-0.09657660530344583,-0.028007668611175103,-0.016338581150159796,0.5672070714420073,0.2819212228881766
2017-12-26,0.049506847648700086,0.7560365848347828,0.5360703563441407,0.007286411172046826,-0.40502405299839106,0.2853652229925843,-0.22924136999386352
2018-01-02,0.37744798481583464,0.5305545770673593,0.6370027765659313,-0.13342093299760877,-0.44496944102822333,-0.050916923773619296,0.08430195935032624
2018-01-08,0.04842614464210364,0.206578739822986,0.13067023890034185,0.13616671349117673,-0.039324257998580865,0.13590636062075093,0.3815760605212218
2018-01-16,0.44972512189409936,0.43232372845824124,0.20482241826219247,0.026420612980741737,-0.41597704547319475,0.05325890676670664,0.24942625711121338
2018-01-22,0.4033329155885981,0.4766998131930662,0.37156610274686286,-0.3233249140642225,-0.18700911270307444,-0.14078130768722272,0.3995165029259926
2018-01-29,-0.11079936130297573,0.864279097207314,0.8063748171818407,-0.5781861644763779,-0.11926011617824137,0.10397613550788112,0.033615592060559196
2018-02-05,0.17908866384584043,0.2751836573023856,0.3706273441252369,-0.5114126832009872,0.017062937993675552,0.30274414838590474,0.366705931547944
2018-02-12,0.043701253541504406,0.503966513058909,0.61794109024699,-0.30607807868870734,-0.22415741081512322,0.20579718201045796,0.1588294506459693
2018-02-20,0.16437499781074352,0.4875885552673401,0.4917493193289543,0.07314945283214755,-0.4238547958105246,0.27001527669724723,-0.06302280612590806
2018-02-26,0.190130980599391,0.39736590069269345,0.5447736196574398,-0.23387711494488636,-0.2602099977253182,0.4125213679815773,-0.05070475626089698
2018-03-05,0.4159284274730686,0.5800555132811189,0.43220809963357265,0.04109892742531593,-0.4930886819565751,-0.21846458511992972,0.2422622992634288
2018-03-12,-0.10634177532643521,0.557733098619047,0.6580727587763889,-0.33059340024331224,-0.24745085542660983,0.2722961042183972,0.19628406938252432
2018-03-19,0.06645905352632586,0.5695593035722143,0.013507855074013822,0.28300800893489647,-0.2599877320875286,0.779814862264112,-0.4523613512840339
2018-03-26,-0.13959376464788964,0.6298848553363809,0.7005941585097041,-0.20762624884947573,-0.1990259601845556,0.35078367398305316,-0.13501671414721717
2018-04-02,0.2601135726828497,0.31980469439975795,0.21709436842544438,-0.06225689039085084,-0.3272345499401153,0.3177249379600603,0.27475386686285386
2018-04-09,-0.5575959383399396,1.0,-0.6477033155914576,-0.70716967303399,0.11334017182443944,1.0,0.7991287551409468
2018-04-16,0.07179417246569186,0.6207212549653909,0.49451025716848657,-0.04367291533691275,-0.3978646858992918,0.110865638756179,0.14364627788045625
2018-04-23,-0.020165025893645862,0.6062090620721741,0.1254964968758323,-0.19343548453949783,-0.22279734694609304,0.7364138932920018,-0.031721594860771446
2018-04-30,0.02419037065366789,0.320870344496124,0.5343955859290498,-0.09034040056962862,-0.23306815626975752,0.19464178879135305,0.2493104669691914
2018-05-07,0.7718895791053405,0.998402807909246,0.5635049835759665,-0.24875191408241756,-0.04984731798707406,-0.09070004629663753,-0.9444980922244239
2018-05-14,0.10538088112271135,0.3051353981634937,0.548874869123644,-0.13791826987745257,-0.24439003415731866,0.3651703756203987,0.05774678000452338
2018-05-21,-0.4069711502287801,0.8801655678032705,0.7914759616015629,-0.044030530859037825,-0.20055377484614154,-0.1845255185858842,0.16443944511501032
2018-05-29,0.09651570073719555,0.47761799801322086,0.9999999999999999,-0.33674857970427285,-0.28103519834982915,0.07734530338441672,-0.033695224080732424
2018-06-04,0.3047253929237045,0.4019963373462408,0.3082455810691384,-0.15235062684210476,-0.23277048653517973,0.49375545857419034,-0.12360165653598941
2018-06-11,0.3041666772668689,0.46911301607304456,0.5990593394981072,-0.1701336625029057,-0.35071029127625464,0.041617898914999174,0.10688702202614048
2018-06-18,0.36365746204014016,0.19267852542343308,-0.08185786984903204,-0.032933991953728745,-0.3872865928970899,0.7952047532626452,0.15053771397363225
2018-06-25,-0.07156682128129156,0.2765269792096206,0.15895429875169287,-0.05949232519862298,-0.10413245308960267,0.34952786843202277,0.450182453176181
2018-07-02,-0.1786219060379104,0.7420584214514492,0.09473545772200241,0.050890121446544014,-0.3325217789900883,0.5530435739713931,0.07041611043660985
2018-07-09,0.1988744651729254,0.2784962364258072,0.15835516660456497,0.014014744819317014,-0.2641152459938743,0.3013740244824498,0.31300060848880995
2018-07-16,-0.051726678200287535,0.5551132373998406,0.3366460546889953,-0.33127668981464997,-0.07929961149199168,0.6609831969831423,-0.09043950956504906
2018-07-23,0.16929046471167702,0.7137599704086517,0.7310851380814359,-0.23427795013701988,-0.33720010622679747,-0.03996808188040674,-0.002689434957540644
2018-07-30,-0.30378215760723887,0.5876691121197505,0.30216835648619134,-0.1442247344823977,-0.043193042903647366,0.5910937633109238,0.010268703076418268
2018-08-06,0.2975753564930485,0.6766700278210185,0.5833985647157512,-0.18763902872464486,-0.4194986220204991,0.2970592348334569,-0.24756553311813134
2018-08-13,0.15014077730214476,0.40797649136063285,0.4111578470236563,-0.2300756759194923,-0.3560520920735393,0.31275500370889997,0.3040976485976977
2018-08-20,0.2832680782280228,0.42760394855991596,0.5009058767645646,-0.49183490062210483,-0.059616190314052464,-0.01057583804904202,0.3502490254326959
2018-08-27,0.3823694944618283,0.434523930459139,0.5996278802759745,-0.42340900178985613,-0.2635811321208484,0.20989816403431755,0.06057066467944534
2018-09-04,-0.13573882494385667,0.7019495752722771,0.7937940602522694,-0.35180018791690576,-0.1363166957221303,0.002905727294102534,0.12520634576424367
2018-09-10,0.17690261648732566,0.5253600522604139,0.23201604790424182,0.276390471525934,-0.19330092639196722,-0.18944107496742993,0.17207281318148182
2018-09-17,-0.08237392223050843,0.5262432488789051,0.18158162122951807,0.3330699611322277,-0.29275724554065374,0.2720335154714335,0.0622028210590778
2018-09-24,0.7408110984135491,0.27462884128790627,0.3461239818462574,0.7665374987752345,-0.8429734148609401,0.016438620802843463,-0.30156662626485065
2018-10-01,0.3307554652788252,0.39015007074705804,0.6515959275963864,-0.18999999564193487,-0.19041181320738484,0.16953642569415117,-0.1616260804671011
2018-10-08,0.0784322130114784,0.9082489447479024,0.7489023052809693,-0.36694543176644734,-0.2594220385640815,0.01133469401875577,-0.12055068672857734
2018-10-15,0.007156505883903285,0.4527483096141641,0.6831577877297225,-0.23726706931479832,-0.2600435982734759,0.11799566766515844,0.23625239669532572
2018-10-22,0.15930143156646032,0.3696524304940312,0.5056686289403609,-0.11235404818709904,-0.323597684092009,-0.009693478777310336,0.41102272005556617
2018-10-29,-0.1685358772892991,0.9502749290083728,0.5606389433170743,-0.5271808394551274,-0.04234900042358679,0.16483292661998122,0.062318918222584924
2018-11-05,-0.06633157388430125,0.3480882493043923,0.4610005580040743,-0.20685265476872675,-0.17145456438519466,0.41923035498918776,0.21631963074056829
2018-11-12,0.44622395850733304,0.4408957326254575,0.2693103726182957,-0.293293083018427,-0.27539315845386325,0.40481570051832066,0.007440477202883384
2018-11-19,0.4384107628361269,0.5092400731936078,0.2499997086912775,0.06558910891527787,-0.4098388874281913,0.1061453966176972,0.04045383717420422
2018-11-26,-0.0091954919699911,0.49656927961275793,0.5089087724551401,-0.3856693293089647,-0.21116830003672568,0.41531283790229395,0.1852422313454895
2018-12-03,0.044742595493811876,0.9998578167960156,-0.007428875952759297,-0.20565523122847168,-0.26403483176036885,0.5697419542264442,-0.13722342757467157
2018-12-10,0.39636357498869285,0.3716814383963942,0.34561496432655026,-0.4167298219961536,-0.1901146418896725,0.4173145192350851,0.07586996693910368
2018-12-17,0.17768436985593247,0.9747224819014959,0.3911523859385769,0.0067150485867491895,-0.40144764253650467,0.1647299298711258,-0.3135565736173757
2018-12-24,0.1275543244640167,0.28282134108571644,-0.9999999999999994,-0.3153663890665728,-0.04683531803363287,0.9999999999999996,0.9518260415504723
2018-12-31,-0.4284651981894767,0.9999513398565528,0.36903606540507455,-0.24869041205021014,-0.3070083454260537,0.8456966203070794,-0.23052006990151602
2019-01-07,0.20136167164607813,0.3406779617033139,0.20593177293655196,-0.0893428476260329,-0.3449928942383154,0.34761863758709066,0.33874569799131377
2019-01-14,0.3918461830648775,0.42846955944778914,0.17662041747427434,0.11109481360777321,-0.30712837546126304,-0.1616577322004238,0.3607551340669727
2019-01-22,0.19222468722247726,1.0,-0.9999999999999973,-0.44582660164843524,0.1397550056392135,0.8408192007179217,0.2730277080688199
2019-01-28,0.16322093074720131,0.33408351146912907,0.2946637556144281,-0.19495774858104045,-0.29201126743556394,0.317654353682531,0.37734646450331505
2019-02-04,0.24396905864318766,0.4018479912873284,-0.09697044976132997,0.15703840350478046,-0.2923804092090022,0.187685487956022,0.39880991757901374
2019-02-11,0.4464593150448059,0.5525254342319145,0.12559760107921275,-0.31977869529203273,-0.20391478373889657,-0.03426226170048784,0.4333733903754841
2019-02-19,0.1892049693454508,0.48776500289940566,0.6623828736350109,-0.2694770067059279,-0.2417443141391476,0.10939859222106242,0.062469882744145624
2019-02-25,0.13229288724345808,0.3131530854524057,0.4001667574939219,-0.3070389374383793,-0.17498605310655008,0.39658566452834915,0.23982659582679453
2019-03-04,-0.20898768602503306,0.6186816413703434,0.6033468900395931,-0.3450621162124746,-0.1649847801401851,0.1843819360878336,0.31262411487992253
2019-03-11,-0.32044843009413226,0.6316929662832039,0.17703696074495473,0.024871401877191814,-0.13448477095875877,0.671468252771715,-0.05013638062417436
2019-03-18,-0.4294400280509726,-0.08170248640417606,0.34444832344209825,0.12413639847019552,-0.29666597716781523,0.9999999999999998,0.3392237697106704
2019-03-25,0.10717329439376101,0.7614442996433675,0.005449845951589695,-0.04630825099194728,-0.4137478294953772,0.9770560109284812,-0.3910673704298748
2019-04-01,-0.24885208886210497,0.9997792629805623,0.4563386943176045,-0.13073454502972495,-0.24277273119691653,0.4156458051312783,-0.24940439734069872
2019-04-08,0.47280851579732885,0.8562467465794327,0.36620219721109715,-0.33224298738422825,-0.4248889329109631,-0.11671748484130146,0.17859194554863397
2019-04-15,0.08579508517528164,0.926597243249787,0.5765950290652143,-0.3032360626304275,-0.22796806374871292,0.022599230134732314,-0.08038246124587488
2019-04-22,0.0704559968151435,0.301325501173271,0.1891023701812153,-0.007844784716436235,0.1486197137887512,0.5189570343372314,-0.22061583157917616
2019-04-29,0.2676668117350878,0.3845335609125513,0.4310297999505685,-0.37884372311834136,-0.14233835918026835,0.0107908074449051,0.42716110225549714
2019-05-06,0.3174956814797299,0.3088585483471706,0.4228928792692455,-0.38188100093901073,-0.14751174123670993,0.32918127346589854,0.15096435961367602
2019-05-13,0.16588919268793073,0.9999999999999999,-0.00277118194376085,-0.20975604968825004,-0.2649242909321049,0.4524475596277068,-0.1408852297515215
2019-05-20,-0.059526552284631475,0.9006808609124147,-0.17748311422024599,-0.7306363588264292,0.13535251217510894,0.7237602505442212,0.20785240169956185
2019-05-28,0.48841845504083037,0.5457986694791045,0.5171577440625676,-0.17640140915577007,-0.4066509825089996,0.2673352393330553,-0.2356577162507881
2019-06-03,0.38640220160018474,0.3091488022838383,0.19992173025135032,-0.15740711799414603,-0.2938573877239958,0.33598794041639585,0.2198038311663726
2019-06-10,0.1807003216154267,0.7611817173051137,0.6391485882976287,-0.2881424728243448,-0.31318931616925705,0.2604762369404732,-0.24017507516504039
2019-06-17,0.0966253929330739,0.6146623437120089,0.5133890125285573,-0.03853416929236019,-0.3049524953580555,-0.12873091809342393,0.24754083357019938
2019-06-24,0.11274652923650837,1.0,-0.12781424882888776,-0.4852984666746777,-0.23994491262685308,0.342113552060209,0.3981975468337009
2019-07-01,0.28272913585357196,0.9073619363557431,0.46803251212200697,-0.0893411158484383,-0.3848490044472464,-0.16171583580259224,-0.022217628233045184
2019-07-08,0.5409341432968289,0.394422297752812,0.1786782361645882,-0.0428538187645424,-0.3738871853348577,0.3476539609166794,-0.044947634031508095
2019-07-15,0.12873361883144308,0.9909405353272093,0.8504389952444166,-0.5153945059113342,-0.2083323825569615,0.1843078373473227,-0.4306940982820958
2019-07-22,0.4109262044451969,0.41493837260763866,0.03234443583956526,-0.5569897729390714,0.21946223289091651,-0.17677569896298187,0.6560942261187359
2019-07-29,-0.07496133626041011,1.0,-0.18633008122194916,-0.6940492685688909,0.1565173178786919,0.9999999999999999,-0.20117663182744178
2019-08-05,-0.6953962328488589,0.999999999999999,-0.09462638021231877,-0.9999999999999999,0.4678662027658987,1.0,0.32215641029527925
2019-08-12,0.11672087461620252,0.457780414653956,0.75039547683894,-0.49737772512820627,-0.1302218056567505,0.07594718356994744,0.2267555811059107
2019-08-19,-0.3614465342944625,0.9992749112031285,0.08447921573622047,-0.1354539608854704,-0.2802596907620504,0.9336674504639273,-0.24026139146129336
2019-08-26,0.3753391779066265,0.2989641429407451,0.29677135917442593,-0.2937272210181934,-0.1967907417758902,0.18062833921152868,0.3388149435607574
2019-09-03,0.21845862053857668,0.9999999999999988,0.3648377520691558,-0.2095132387978755,-0.27707756266543304,0.11233529375707586,-0.20904086490149856
2019-09-09,0.29853528990830885,0.6003082040056108,0.36550211516654574,0.03791920323419458,-0.4654946778280905,0.16297539989662907,0.0002544656168015022
2019-09-16,0.06984696177388663,0.5982454891462032,0.4641243475075124,0.2339291248888045,-0.5145856159321786,0.07269564154501677,0.07574405107075519
2019-09-23,-0.024813640233155358,0.9690876107629475,0.6086090089397014,0.04758947347871044,-0.6317193723654673,0.4912528003316045,-0.4600058809143413
2019-09-30,0.06224648134114824,0.4641441628659531,0.5583088607266561,-0.07805352698476797,-0.3336004998971139,0.2493723665509483,0.07758215539717622
2019-10-07,0.3186989336381976,0.29940062825954283,0.2764803923739952,-0.29531843776704536,-0.19198910340127373,0.37629389303410293,0.21643369386248046
2019-10-14,0.12618736538331404,0.4823160251125452,0.3484174139509175,-0.2499734466388393,-0.35770420604194997,0.10699181022696663,0.5437650380070459
2019-10-21,0.17847212332484796,0.8782198206856425,0.6149223156250327,-0.2020724853792511,-0.3412900728509907,-0.0041190512700666005,-0.12413265013521467
2019-10-28,-0.20250233718519878,0.7085690844908029,0.5485580414686064,-0.02022314653561816,-0.35320850086301847,0.2965425017897773,0.022264356834648905
2019-11-04,0.04725116636507728,0.4881503483573445,0.42045014689046784,-0.5214073524669838,-0.14614397999141127,0.28768165971949805,0.42401801112600723
2019-11-11,-0.19235973863029354,0.2746717642579245,0.283896814821066,-0.044674299459039384,0.04482861821099892,0.45084018454342506,0.18279665625591854
2019-11-18,-0.12496823385718113,0.39465162998100384,0.5820540437380984,-0.2385597592464911,-0.12701635628535002,0.33217478730753375,0.18166388836238623
2019-11-25,0.19958210995018172,0.6235244601688837,0.6134048868034726,-0.12484212676336634,-0.44416449519444967,-0.08899538995082094,0.22149055498609893
2019-12-02,0.18421121548621974,0.3283543660887298,0.28213009386318005,-0.09837126807176409,-0.3133122970709597,0.18105133889900904,0.4359365508055852
2019-12-09,0.2165265379387655,0.5190849221913705,0.17578737714264084,-0.26253334420642416,-0.22401541215208756,0.5824886499909988,-0.007338730905263863
2019-12-16,0.5008957570852722,0.44222056136335414,0.3264817342366288,-0.3191866936574578,-0.2743830364442474,0.011497838880405294,0.3124738385360447
2019-12-23,0.4081184898264715,0.23744573989025256,0.35878322631178616,0.3618210595134543,-0.6187639503770291,0.24566122437788968,0.006934210457175098
2019-12-30,0.31282120801147484,0.4768341285347685,0.42240550143754785,-0.045739405449596406,-0.3604069139773998,0.023153625939538427,0.17093185550366655
2020-01-06,0.23465102474609328,0.39086846605828135,0.21491477015950253,-0.12038376102371144,-0.382348262989515,0.35545242721754333,0.30684533583180607
2020-01-13,0.4355776363257463,0.750056801599627,-0.23454901029240696,-0.30964945670892213,-0.15812342342210628,0.06849507481528197,0.44819237768278003
2020-01-21,0.4806398767114841,0.33577403606572964,0.3678096780581283,-0.1929895857225527,-0.3628245882447689,0.35698698311207483,0.014603600019904718
2020-01-27,-0.20024930897204862,0.7049138195763421,0.41406126380033703,-0.29909435850441113,-0.23931556315297373,0.5200748908036131,0.09960925644914129
2020-02-03,-0.02701364899299345,0.5434610398255657,0.8010069646617751,-0.22887776888422678,-0.32314056790897294,0.36466139654066015,-0.13009741524180782
2020-02-10,0.3436371442505126,0.4038331621418093,0.4257565520931352,-0.16041043790601753,-0.4034493902913853,0.24298339335525812,0.1476495763566876
2020-02-18,0.03169733427032743,0.5789061550490617,0.4417014786380354,-0.6725537424451813,-0.04631108765445811,0.4039678351001144,0.26259202704210044
2020-02-24,0.4833211756909833,0.6478387295236689,0.36254789686599065,-0.42854642648920194,-0.1811636116543141,-0.12282721033681071,0.23882944639968395
2020-03-02,-0.17492050286075653,0.47805478894562975,0.3055739865321515,-0.3220124497233966,-0.09541885106535304,0.6690520935392317,0.13967093463249328
2020-03-09,0.15658912166383746,0.5739448907407663,0.4497758703343846,-0.2869938228842631,-0.18935049552211788,0.5802648110374257,-0.284230375370033
2020-03-16,0.9916788533532396,0.923626711466871,-0.8343928596467124,-0.6938306443850191,0.314899256386775,-0.1938998094753439,0.49191849230018964
2020-03-23,0.6716626271815547,0.21233298938152512,0.7596440381180023,-0.3035677124068969,-0.1758421145222496,-0.13828442164937166,-0.025945406102563903
2020-03-30,0.626404131762468,0.6925471020403771,0.30705022648791075,-0.3885265797420664,-0.14287598300769466,-0.3961051474085937,0.30150624986759883
2020-04-06,0.19720729713981508,0.6998699366106617,0.32443732734049824,-0.5309063139177008,0.009088624247627032,-0.06396242217618865,0.36426555075528755
2020-04-13,0.24389453328224428,0.7709853456370818,0.46245585637704895,-0.11089355639403607,-0.4980628116797649,0.35377269222547,-0.22215205944804406
2020-04-20,0.4069777653838295,0.372824306590337,0.32179421612993203,-0.31629491382122005,-0.13187883402327089,0.15647479788192403,0.19010266185846833
2020-04-27,0.4859542406224132,0.3968211331958004,0.020449275249817805,-0.09950977356750194,-0.2828634679665505,0.2695033477352925,0.20964524473072849
2020-05-04,0.5474274859649664,0.40363481896964587,0.23888784023026402,-0.450325756964843,-0.15383273976562026,0.20764380453951997,0.20656454702606694
2020-05-11,0.2606528444288974,0.31323370492673336,0.30588953144759107,-0.09301338336964289,0.021441364403253265,0.45091605516175615,-0.25912011699858845
2020-05-18,0.3227872608264315,0.38320161663696406,0.46863264508795394,-0.5655600902928971,-0.004611210907184097,0.13484304069875297,0.2607067379499786
2020-05-26,-0.013171101666945118,0.8012959660699317,0.7800847628322836,-0.37607750627945785,-0.23919296080593377,-0.07254510473243596,0.11960594458255734
2020-06-01,0.12327262616257491,1.0,0.39351834524774726,-0.38414651228019076,-0.205743769992629,0.06386139551106318,0.009237915351434235
